%YAML:1.0
---
opencv_ml_svm:
   format: 3
   svmType: C_SVC
   kernel:
      type: LINEAR
   C: 1.
   term_criteria: { epsilon:2.2204460492503131e-16, iterations:10000 }
   var_count: 6
   class_count: 2
   class_labels: !!opencv-matrix
      rows: 2
      cols: 1
      dt: i
      data: [ 0, 1 ]
   sv_total: 1
   support_vectors:
      - [ -5.32467079e+00, 2.70295238e+00, 3.47071767e+00,
          -1.91005630e+01, 8.57366100e-02, 1.21762772e+01 ]
   uncompressed_sv_total: 7804
   uncompressed_support_vectors:
      - [ 9.35409069e-01, 2.06474155e-01, 1.71880841e-01, 1.87562257e-01,
          2.33646482e-01, 2.96563625e-01 ]
      - [ 9.35409069e-01, 1.51028529e-01, 1.89860851e-01, 1.89860851e-01,
          1.51028529e-01, 1.89860851e-01 ]
      - [ 9.35409069e-01, 0., 0., 0., 0., 0. ]
      - [ 9.35409069e-01, 2.08592877e-01, 1.87228993e-01, 2.11836904e-01,
          2.50236183e-01, 3.27499211e-01 ]
      - [ 9.35409069e-01, 2.08506241e-01, 1.75920814e-01, 2.02680334e-01,
          2.49753803e-01, 3.37438941e-01 ]
      - [ 9.35409069e-01, 2.18695313e-01, 1.83537543e-01, 2.11762458e-01,
          2.57003337e-01, 3.49216610e-01 ]
      - [ 9.35409069e-01, 2.11272702e-01, 1.58985615e-01, 1.75743297e-01,
          2.41874278e-01, 3.10071617e-01 ]
      - [ 9.35409069e-01, 2.18311712e-01, 1.65343881e-01, 1.88080490e-01,
          2.48179689e-01, 3.26054245e-01 ]
      - [ 9.35409069e-01, 1.67659864e-01, 1.40852213e-01, 1.56895638e-01,
          1.99366525e-01, 2.41101399e-01 ]
      - [ 9.35409069e-01, 2.26008669e-01, 1.72418594e-01, 1.89712301e-01,
          2.46909901e-01, 3.12052578e-01 ]
      - [ 9.35409069e-01, 2.57098198e-01, 2.37710476e-01, 2.58201718e-01,
          2.89319396e-01, 3.56873035e-01 ]
      - [ 9.35409069e-01, 2.64131218e-01, 2.43146032e-01, 2.62962282e-01,
          2.98971087e-01, 3.64076048e-01 ]
      - [ 9.35409069e-01, 2.59130001e-01, 2.15985581e-01, 2.33894601e-01,
          2.91880041e-01, 3.58462274e-01 ]
      - [ 9.35409069e-01, 2.66107082e-01, 2.21848041e-01, 2.44000465e-01,
          3.03937763e-01, 3.75253767e-01 ]
      - [ 9.35409069e-01, 2.65612930e-01, 2.23082975e-01, 2.47113824e-01,
          3.08005333e-01, 3.81398052e-01 ]
      - [ 9.35409069e-01, 2.67344981e-01, 2.26250246e-01, 2.50960141e-01,
          3.10032278e-01, 3.83843780e-01 ]
      - [ 9.35409069e-01, 2.59849519e-01, 2.17789859e-01, 2.45220602e-01,
          3.07810515e-01, 3.87310326e-01 ]
      - [ 9.35409069e-01, 2.61997849e-01, 2.20210508e-01, 2.48462498e-01,
          3.10606509e-01, 3.89526695e-01 ]
      - [ 9.35409069e-01, 2.65108794e-01, 2.23612279e-01, 2.50676990e-01,
          3.12416732e-01, 3.91718626e-01 ]
      - [ 9.35409069e-01, 2.71227926e-01, 2.29312479e-01, 2.54060626e-01,
          3.15041512e-01, 3.96030754e-01 ]
      - [ 9.35409069e-01, 1.28826320e-01, 1.28826320e-01, 1.28826320e-01,
          1.28826320e-01, 1.28826320e-01 ]
      - [ 9.35409069e-01, 1.60323739e-01, 1.60323739e-01, 1.60323739e-01,
          1.60323739e-01, 1.60323739e-01 ]
      - [ 9.35409069e-01, 1.93754748e-01, 1.77545205e-01, 2.02123210e-01,
          2.23653182e-01, 2.73330450e-01 ]
      - [ 9.35409069e-01, 2.01993212e-01, 1.86540961e-01, 2.09970757e-01,
          2.38713086e-01, 2.85874337e-01 ]
      - [ 9.35409069e-01, 1.79349095e-01, 1.57272980e-01, 1.73904598e-01,
          2.06037939e-01, 2.69207209e-01 ]
      - [ 9.35409069e-01, 1.78832501e-01, 1.58663586e-01, 1.80707797e-01,
          2.18193218e-01, 2.81640261e-01 ]
      - [ 9.35409069e-01, 1.77582100e-01, 1.50550455e-01, 1.50550455e-01,
          1.77582100e-01, 2.20457822e-01 ]
      - [ 9.35409069e-01, 1.93332747e-01, 1.55287251e-01, 1.82890981e-01,
          2.43375823e-01, 3.14615875e-01 ]
      - [ 9.35409069e-01, 2.29233205e-01, 1.80538654e-01, 1.92100465e-01,
          2.49132425e-01, 3.20988238e-01 ]
      - [ 9.35409069e-01, 1.87335595e-01, 1.46893159e-01, 1.76638722e-01,
          2.43465841e-01, 3.17134500e-01 ]
      - [ 9.35409069e-01, 1.89502269e-01, 1.05434395e-01, 1.05434395e-01,
          1.89502269e-01, 2.03441709e-01 ]
      - [ 9.35409069e-01, 2.06917107e-01, 1.59789056e-01, 1.59789056e-01,
          2.06917107e-01, 2.51302868e-01 ]
      - [ 9.35409069e-01, 2.30636597e-01, 1.86646223e-01, 2.10422799e-01,
          2.65201420e-01, 3.51091117e-01 ]
      - [ 9.35409069e-01, 1.78684905e-01, 1.62567139e-01, 1.88410893e-01,
          1.99544355e-01, 2.59578556e-01 ]
      - [ 9.35409069e-01, 1.93796575e-01, 1.58098906e-01, 1.74594551e-01,
          2.30406269e-01, 2.92490721e-01 ]
      - [ 9.35409069e-01, 9.96679962e-02, 9.96679962e-02, 9.96679962e-02,
          9.96679962e-02, 9.96679962e-02 ]
      - [ 9.35409069e-01, 2.03263521e-01, 1.53676793e-01, 1.73590854e-01,
          2.39639148e-01, 3.10669065e-01 ]
      - [ 9.35409069e-01, 0., 0., 0., 0., 0. ]
      - [ 9.35409069e-01, 2.35779405e-01, 1.95951551e-01, 2.18147129e-01,
          2.75694221e-01, 3.52228075e-01 ]
      - [ 9.35409069e-01, 1.70615286e-01, 1.63159952e-01, 1.90023795e-01,
          2.18155429e-01, 2.90499777e-01 ]
      - [ 9.35409069e-01, 1.81310773e-01, 1.64005578e-01, 1.98285282e-01,
          2.31634155e-01, 3.12393725e-01 ]
      - [ 9.35409069e-01, 2.10920438e-01, 1.80792749e-01, 2.09076732e-01,
          2.47903794e-01, 3.42853785e-01 ]
      - [ 9.35409069e-01, 2.11564347e-01, 1.65980995e-01, 1.81476638e-01,
          2.43687987e-01, 3.15027893e-01 ]
      - [ 9.35409069e-01, 1.09177001e-01, 1.09177001e-01, 1.23628132e-01,
          1.26508534e-01, 1.40896276e-01 ]
      - [ 9.35409069e-01, 1.75768033e-01, 1.47626072e-01, 1.58594087e-01,
          1.90102875e-01, 2.43499458e-01 ]
      - [ 9.35409069e-01, 2.11244345e-01, 1.74706504e-01, 2.03322604e-01,
          2.55220711e-01, 3.49136978e-01 ]
      - [ 9.35409069e-01, 2.16051757e-01, 1.79881990e-01, 2.08210602e-01,
          2.59574056e-01, 3.52493674e-01 ]
      - [ 9.35409069e-01, 2.20989570e-01, 1.83443084e-01, 2.11403474e-01,
          2.64780551e-01, 3.56921732e-01 ]
      - [ 9.35409069e-01, 2.20390275e-01, 1.82422861e-01, 2.00952619e-01,
          2.37528294e-01, 3.23555112e-01 ]
      - [ 9.35409069e-01, 2.08971083e-01, 1.61249101e-01, 1.61249101e-01,
          2.08971083e-01, 2.49568269e-01 ]
      - [ 9.35409069e-01, 2.29892731e-01, 1.89110726e-01, 2.13863149e-01,
          2.70719022e-01, 3.54176551e-01 ]
      - [ 9.35409069e-01, 1.90650865e-01, 2.11409733e-01, 2.28884995e-01,
          2.03466222e-01, 3.01063836e-01 ]
      - [ 9.35409069e-01, 1.81873277e-01, 1.68784007e-01, 1.90997422e-01,
          2.15354368e-01, 2.90801287e-01 ]
      - [ 9.35409069e-01, 2.21470296e-01, 1.85633689e-01, 2.14471057e-01,
          2.63773531e-01, 3.56286496e-01 ]
      - [ 9.35409069e-01, 2.30762079e-01, 1.92297965e-01, 2.20181748e-01,
          2.72085845e-01, 3.62251192e-01 ]
      - [ 9.35409069e-01, 1.35737509e-01, 1.21499829e-01, 1.28649920e-01,
          1.39615357e-01, 1.70528829e-01 ]
      - [ 9.35409069e-01, 1.39955223e-01, 1.25814959e-01, 1.32916316e-01,
          1.43806294e-01, 1.74502730e-01 ]
      - [ 9.35409069e-01, 1.52701780e-01, 1.36966661e-01, 1.44982263e-01,
          1.57506734e-01, 1.88459486e-01 ]
      - [ 9.35409069e-01, 1.55625850e-01, 1.39992058e-01, 1.47956178e-01,
          1.61481991e-01, 1.92219868e-01 ]
      - [ 9.35409069e-01, 1.80951253e-01, 1.55070692e-01, 1.67326346e-01,
          1.98926419e-01, 2.43883044e-01 ]
      - [ 9.35409069e-01, 1.80996537e-01, 1.67236552e-01, 1.87731817e-01,
          1.80996537e-01, 2.54858613e-01 ]
      - [ 9.35409069e-01, 1.22477964e-01, 1.22477964e-01, 1.22477964e-01,
          1.22477964e-01, 1.22477964e-01 ]
      - [ 9.35409069e-01, 1.29154086e-01, 1.29154086e-01, 1.29154086e-01,
          1.29154086e-01, 1.29154086e-01 ]
      - [ 9.35409069e-01, 2.08971083e-01, 1.73568264e-01, 1.92585826e-01,
          2.36125305e-01, 2.99806446e-01 ]
      - [ 9.35409069e-01, 1.45040765e-01, 1.13622285e-01, 1.24296561e-01,
          1.71746254e-01, 1.92888454e-01 ]
      - [ 9.35409069e-01, 1.56173825e-01, 1.21474333e-01, 1.31910622e-01,
          1.78290308e-01, 2.02867851e-01 ]
      - [ 9.35409069e-01, 2.12057397e-01, 1.72903061e-01, 2.09659293e-01,
          2.62934744e-01, 3.59823346e-01 ]
      - [ 9.35409069e-01, 1.93702340e-01, 1.57953918e-01, 1.89824671e-01,
          2.52330869e-01, 3.31876069e-01 ]
      - [ 9.35409069e-01, 1.92003936e-01, 1.57683164e-01, 1.91423267e-01,
          2.51762778e-01, 3.32770318e-01 ]
      - [ 9.35409069e-01, 1.95295513e-01, 1.61275446e-01, 1.94719970e-01,
          2.54520983e-01, 3.34796786e-01 ]
      - [ 9.35409069e-01, 1.98000237e-01, 1.64269730e-01, 1.97429627e-01,
          2.56715417e-01, 3.36297631e-01 ]
      - [ 9.35409069e-01, 1.69174105e-01, 1.41287923e-01, 1.77176043e-01,
          2.36279279e-01, 3.08769733e-01 ]
      - [ 9.35409069e-01, 1.69755369e-01, 1.41682521e-01, 1.77698329e-01,
          2.36188874e-01, 3.08860898e-01 ]
      - [ 9.35409069e-01, 1.48885027e-01, 1.97375327e-01, 1.97375327e-01,
          1.48885027e-01, 1.97375327e-01 ]
      - [ 9.35409069e-01, 1.56054601e-01, 1.68423772e-01, 1.83332175e-01,
          1.56054601e-01, 2.15449080e-01 ]
      - [ 5.37049592e-01, 9.15723294e-02, 1.89510688e-01, 2.21433401e-01,
          9.15723294e-02, 2.21433401e-01 ]
      - [ 5.37049592e-01, 9.82052684e-02, 1.82180479e-01, 2.09653154e-01,
          9.82052684e-02, 2.09653154e-01 ]
      - [ 9.35409069e-01, 9.96679962e-02, 9.96679962e-02, 9.96679962e-02,
          9.96679962e-02, 9.96679962e-02 ]
      - [ 9.35409069e-01, 2.12285891e-01, 1.97375327e-01, 1.97375327e-01,
          2.12285891e-01, 2.36028314e-01 ]
      - [ 9.35409069e-01, 0., 0., 0., 0., 0. ]
      - [ 9.35409069e-01, 1.76962316e-01, 1.89789265e-01, 2.08685234e-01,
          1.95955262e-01, 2.73585647e-01 ]
      - [ 9.35409069e-01, 1.99544355e-01, 2.11409733e-01, 2.28884995e-01,
          2.17112631e-01, 2.88890868e-01 ]
      - [ 9.35409069e-01, 2.19082385e-01, 1.89278141e-01, 2.27988169e-01,
          2.76750028e-01, 3.78422648e-01 ]
      - [ 9.35409069e-01, 2.02321708e-01, 1.54493794e-01, 1.79861426e-01,
          2.42029876e-01, 3.20554256e-01 ]
      - [ 9.35409069e-01, 2.04789042e-01, 1.57168716e-01, 1.82427406e-01,
          2.44318426e-01, 3.22475851e-01 ]
      - [ 9.35409069e-01, 2.06591979e-01, 1.59166411e-01, 1.84975177e-01,
          2.45955661e-01, 3.24383289e-01 ]
      - [ 9.35409069e-01, 2.08382949e-01, 1.61150947e-01, 1.86855108e-01,
          2.48214051e-01, 3.26276720e-01 ]
      - [ 9.35409069e-01, 1.46169871e-01, 1.56100318e-01, 2.02385247e-01,
          2.20635042e-01, 3.06639403e-01 ]
      - [ 9.35409069e-01, 1.54517919e-01, 1.64154798e-01, 2.09063828e-01,
          2.26769269e-01, 3.10220122e-01 ]
      - [ 9.35409069e-01, 1.21501535e-01, 1.44038036e-01, 1.64764196e-01,
          1.72212034e-01, 2.14726016e-01 ]
      - [ 9.35409069e-01, 1.89055473e-01, 1.51849002e-01, 1.75533354e-01,
          2.29212478e-01, 3.01749170e-01 ]
      - [ 9.35409069e-01, 1.45863637e-01, 1.25131980e-01, 1.62739381e-01,
          2.16986373e-01, 2.81743407e-01 ]
      - [ 9.35409069e-01, 1.47734940e-01, 1.27773687e-01, 1.64410189e-01,
          2.18621001e-01, 2.83521295e-01 ]
      - [ 9.35409069e-01, 1.89614460e-01, 1.56316563e-01, 1.56316563e-01,
          1.89614460e-01, 2.30985612e-01 ]
      - [ 9.35409069e-01, 2.20571518e-01, 1.79804564e-01, 2.09226906e-01,
          2.59324968e-01, 3.55056018e-01 ]
      - [ 9.35409069e-01, 2.42511868e-01, 1.98098481e-01, 2.31884867e-01,
          2.91603327e-01, 3.80121231e-01 ]
      - [ 9.35409069e-01, 1.98603764e-01, 1.98884025e-01, 2.27937892e-01,
          2.36164287e-01, 3.29875767e-01 ]
      - [ 5.37049592e-01, 2.21515462e-01, 1.75424233e-01, 2.07232922e-01,
          2.71648228e-01, 3.66527617e-01 ]
      - [ 9.35409069e-01, 2.18676060e-01, 1.74175575e-01, 1.89331532e-01,
          2.24629536e-01, 3.01763535e-01 ]
      - [ 9.35409069e-01, 2.19704747e-01, 1.94193855e-01, 2.06192717e-01,
          2.19704747e-01, 2.98417926e-01 ]
      - [ 9.35409069e-01, 2.26710379e-01, 2.02782422e-01, 2.25233033e-01,
          2.26710379e-01, 3.11271608e-01 ]
      - [ 9.35409069e-01, 2.43842497e-01, 2.21433401e-01, 2.42459089e-01,
          2.43842497e-01, 3.23025048e-01 ]
      - [ 9.35409069e-01, 2.49593005e-01, 2.28430703e-01, 2.48286381e-01,
          2.59437352e-01, 3.33832681e-01 ]
      - [ 9.35409069e-01, 2.47501537e-01, 2.37988025e-01, 2.59229839e-01,
          2.56420642e-01, 3.36307049e-01 ]
      - [ 9.35409069e-01, 2.47912079e-01, 2.38833934e-01, 2.64378250e-01,
          2.56424844e-01, 3.37796181e-01 ]
      - [ 9.35409069e-01, 2.50553131e-01, 2.41882533e-01, 2.66283691e-01,
          2.61744857e-01, 3.39406759e-01 ]
      - [ 9.35409069e-01, 2.51302868e-01, 2.42997631e-01, 2.66374558e-01,
          2.66850442e-01, 3.41112405e-01 ]
      - [ 5.37049592e-01, 2.46838942e-01, 2.07371190e-01, 2.40685135e-01,
          3.02877367e-01, 3.91704410e-01 ]
      - [ 5.37049592e-01, 2.23310396e-01, 1.60468966e-01, 1.89319775e-01,
          2.74123698e-01, 3.60255599e-01 ]
      - [ 5.37049592e-01, 9.15723294e-02, 1.57182261e-01, 1.57182261e-01,
          9.15723294e-02, 1.57182261e-01 ]
      - [ 9.35409069e-01, 2.20687434e-01, 1.80997849e-01, 1.97326660e-01,
          2.46531069e-01, 3.25845540e-01 ]
      - [ 9.35409069e-01, 2.14769959e-01, 1.83569491e-01, 2.17382014e-01,
          2.65739709e-01, 3.64354402e-01 ]
      - [ 9.35409069e-01, 2.21393317e-01, 1.86411023e-01, 2.19384134e-01,
          2.72394955e-01, 3.68869871e-01 ]
      - [ 5.37049592e-01, 1.87253669e-01, 1.49016038e-01, 1.62606686e-01,
          2.20573232e-01, 2.70629704e-01 ]
      - [ 9.35409069e-01, 1.95524067e-01, 1.48587584e-01, 1.70693189e-01,
          2.40108818e-01, 3.06140542e-01 ]
      - [ 9.35409069e-01, 1.84564978e-01, 1.45607889e-01, 1.65814713e-01,
          2.18312711e-01, 2.80616701e-01 ]
      - [ 9.35409069e-01, 2.03605250e-01, 1.58524737e-01, 1.82460710e-01,
          2.42371932e-01, 3.18031818e-01 ]
      - [ 5.37049592e-01, 2.24111632e-01, 1.83625311e-01, 2.17983738e-01,
          2.78275192e-01, 3.74333799e-01 ]
      - [ 5.37049592e-01, 2.18719304e-01, 1.72187880e-01, 1.92568541e-01,
          2.49568269e-01, 3.28579754e-01 ]
      - [ 5.37049592e-01, 1.89860851e-01, 1.36242568e-01, 1.36242568e-01,
          1.89860851e-01, 1.89860851e-01 ]
      - [ 9.35409069e-01, 2.52598822e-01, 2.06535086e-01, 2.22104400e-01,
          2.81300604e-01, 3.48295808e-01 ]
      - [ 9.35409069e-01, 2.60151744e-01, 2.14527890e-01, 2.39277795e-01,
          2.99745739e-01, 3.76203924e-01 ]
      - [ 9.35409069e-01, 1.29154086e-01, 1.29154086e-01, 1.29154086e-01,
          1.29154086e-01, 1.29154086e-01 ]
      - [ 9.35409069e-01, 1.64272234e-01, 1.64272234e-01, 1.64272234e-01,
          1.64272234e-01, 1.64272234e-01 ]
      - [ 5.37049592e-01, 2.45352700e-01, 1.92538589e-01, 2.23944843e-01,
          2.99450934e-01, 3.80285650e-01 ]
      - [ 5.37049592e-01, 2.07232490e-01, 1.63715377e-01, 1.91621110e-01,
          2.45461419e-01, 3.20724905e-01 ]
      - [ 9.35409069e-01, 2.19600737e-01, 1.77583575e-01, 2.04530582e-01,
          2.56493062e-01, 3.29101384e-01 ]
      - [ 9.35409069e-01, 1.76331297e-01, 1.72097027e-01, 1.72097027e-01,
          1.76331297e-01, 2.25007683e-01 ]
      - [ 9.35409069e-01, 1.98130205e-01, 1.94193855e-01, 1.94193855e-01,
          1.98130205e-01, 2.43363112e-01 ]
      - [ 5.37049592e-01, 1.99352309e-01, 1.55708313e-01, 1.79541051e-01,
          2.38810107e-01, 3.15300971e-01 ]
      - [ 5.37049592e-01, 2.35238567e-01, 1.86512217e-01, 2.18526646e-01,
          2.87877202e-01, 3.78652960e-01 ]
      - [ 5.37049592e-01, 0., 0., 0., 0., 0. ]
      - [ 9.35409069e-01, 1.98635012e-01, 1.87388405e-01, 1.94271117e-01,
          2.05486208e-01, 2.65208006e-01 ]
      - [ 5.37049592e-01, 2.16801867e-01, 1.74426749e-01, 2.07326397e-01,
          2.67843276e-01, 3.65204394e-01 ]
      - [ 5.37049592e-01, 2.18810096e-01, 1.67419285e-01, 1.99983016e-01,
          2.76242405e-01, 3.67582589e-01 ]
      - [ 5.37049592e-01, 0., 0., 0., 0., 0. ]
      - [ 5.37049592e-01, 2.19464496e-01, 1.72767758e-01, 2.06109315e-01,
          2.73856580e-01, 3.70362133e-01 ]
      - [ 5.37049592e-01, 2.19335943e-01, 1.70135289e-01, 2.03202873e-01,
          2.76869267e-01, 3.71462792e-01 ]
      - [ 9.35409069e-01, 2.10786059e-01, 1.70418397e-01, 1.94584340e-01,
          2.49520153e-01, 3.31886977e-01 ]
      - [ 9.35409069e-01, 2.26013929e-01, 1.74799517e-01, 2.01171592e-01,
          2.62364119e-01, 3.41254622e-01 ]
      - [ 9.35409069e-01, 2.31076211e-01, 1.84508950e-01, 2.06752673e-01,
          2.66665816e-01, 3.47178727e-01 ]
      - [ 5.37049592e-01, 2.66468644e-01, 2.10803956e-01, 2.42922634e-01,
          3.03935707e-01, 4.00952309e-01 ]
      - [ 5.37049592e-01, 2.39699140e-01, 2.15769157e-01, 2.38322183e-01,
          2.62056917e-01, 3.47759545e-01 ]
      - [ 5.37049592e-01, 1.87409550e-01, 1.69190526e-01, 1.87210187e-01,
          2.10840672e-01, 2.83379942e-01 ]
      - [ 9.35409069e-01, 2.02594548e-01, 1.69725358e-01, 1.88669741e-01,
          2.19455257e-01, 2.92239726e-01 ]
      - [ 9.35409069e-01, 2.08496630e-01, 1.62516728e-01, 1.85275510e-01,
          2.52786309e-01, 3.23894024e-01 ]
      - [ 9.35409069e-01, 1.97127059e-01, 1.84883192e-01, 2.00464576e-01,
          2.14713648e-01, 2.96480507e-01 ]
      - [ 5.37049592e-01, 2.02985927e-01, 1.90591142e-01, 2.17435494e-01,
          2.45406181e-01, 3.30947459e-01 ]
      - [ 9.35409069e-01, 1.96294039e-01, 1.92482382e-01, 2.07175836e-01,
          2.15496749e-01, 2.96685636e-01 ]
      - [ 9.35409069e-01, 1.76772207e-01, 1.77028254e-01, 1.90023795e-01,
          2.02699646e-01, 2.75623709e-01 ]
      - [ 5.37049592e-01, 2.28035748e-01, 1.87283650e-01, 2.15913832e-01,
          2.74731189e-01, 3.65806609e-01 ]
      - [ 9.35409069e-01, 1.70009419e-01, 1.33311450e-01, 1.33311450e-01,
          1.70009419e-01, 1.94221824e-01 ]
      - [ 5.37049592e-01, 0., 1.57182261e-01, 1.57182261e-01, 0.,
          1.57182261e-01 ]
      - [ 9.35409069e-01, 1.37011230e-01, 2.46951833e-01, 2.46951833e-01,
          1.37011230e-01, 2.46951833e-01 ]
      - [ 9.35409069e-01, 1.48885027e-01, 2.44918659e-01, 2.44918659e-01,
          1.48885027e-01, 2.44918659e-01 ]
      - [ 9.35409069e-01, 1.81321874e-01, 1.96126640e-01, 2.28654757e-01,
          2.08787069e-01, 2.96333551e-01 ]
      - [ 9.35409069e-01, 2.26898879e-01, 1.92213014e-01, 2.29686409e-01,
          2.81153589e-01, 3.81243229e-01 ]
      - [ 9.35409069e-01, 1.48584589e-01, 1.44038036e-01, 1.44038036e-01,
          1.48584589e-01, 1.70939922e-01 ]
      - [ 5.37049592e-01, 2.29733169e-01, 1.78791374e-01, 2.02888727e-01,
          2.73291290e-01, 3.53022605e-01 ]
      - [ 5.37049592e-01, 2.18729749e-01, 1.78136945e-01, 2.11652920e-01,
          2.72276431e-01, 3.70252460e-01 ]
      - [ 5.37049592e-01, 2.20027864e-01, 1.72397703e-01, 2.05213413e-01,
          2.75270641e-01, 3.70433360e-01 ]
      - [ 5.37049592e-01, 1.97030619e-01, 1.48210108e-01, 1.74993873e-01,
          2.55689710e-01, 3.22200745e-01 ]
      - [ 5.37049592e-01, 1.69200584e-01, 1.39331147e-01, 1.56037271e-01,
          1.96875453e-01, 2.55098283e-01 ]
      - [ 5.37049592e-01, 2.21836165e-01, 1.72812968e-01, 2.04866111e-01,
          2.74429291e-01, 3.68032455e-01 ]
      - [ 9.35409069e-01, 1.92702293e-01, 1.47671804e-01, 1.62250072e-01,
          2.15561822e-01, 2.79046416e-01 ]
      - [ 9.35409069e-01, 1.95402622e-01, 1.52296260e-01, 1.68635458e-01,
          2.18727663e-01, 2.85915375e-01 ]
      - [ 5.37049592e-01, 2.17913330e-01, 1.71724468e-01, 2.05002472e-01,
          2.71261096e-01, 3.66619051e-01 ]
      - [ 9.35409069e-01, 2.35011920e-01, 1.89347163e-01, 2.10347340e-01,
          2.65402257e-01, 3.35862398e-01 ]
      - [ 9.35409069e-01, 2.34249428e-01, 2.02307478e-01, 2.31364846e-01,
          2.95476943e-01, 3.79843265e-01 ]
      - [ 9.35409069e-01, 2.33943909e-01, 2.04410121e-01, 2.33209059e-01,
          2.96752363e-01, 3.80386859e-01 ]
      - [ 9.35409069e-01, 2.33618036e-01, 2.06265584e-01, 2.34813184e-01,
          2.97804743e-01, 3.80732328e-01 ]
      - [ 5.37049592e-01, 1.67358905e-01, 1.46107048e-01, 1.46107048e-01,
          1.67358905e-01, 1.90650865e-01 ]
      - [ 9.35409069e-01, 2.11649299e-01, 1.92257851e-01, 2.14074358e-01,
          2.45415822e-01, 3.26108098e-01 ]
      - [ 9.35409069e-01, 2.29111820e-01, 2.00936750e-01, 2.25606173e-01,
          2.52188504e-01, 3.38716596e-01 ]
      - [ 9.35409069e-01, 1.75375804e-01, 1.75063357e-01, 1.92482382e-01,
          1.96294039e-01, 2.64111340e-01 ]
      - [ 9.35409069e-01, 1.84948757e-01, 1.84653804e-01, 2.01097533e-01,
          2.04695895e-01, 2.68740475e-01 ]
      - [ 9.35409069e-01, 1.90264970e-01, 1.89985350e-01, 2.05575824e-01,
          2.08987862e-01, 2.69751430e-01 ]
      - [ 9.35409069e-01, 1.91241995e-01, 1.94221824e-01, 2.15362430e-01,
          2.08262026e-01, 2.73506433e-01 ]
      - [ 9.35409069e-01, 1.92868948e-01, 1.95717424e-01, 2.15930015e-01,
          2.09140494e-01, 2.71567613e-01 ]
      - [ 9.35409069e-01, 1.93446115e-01, 1.96175337e-01, 2.15545490e-01,
          2.09038168e-01, 2.68908292e-01 ]
      - [ 5.37049592e-01, 2.22385794e-01, 1.86940536e-01, 2.17762530e-01,
          2.88526863e-01, 3.77316326e-01 ]
      - [ 5.37049592e-01, 2.23033190e-01, 1.73919886e-01, 2.00381905e-01,
          2.61789680e-01, 3.50790799e-01 ]
      - [ 5.37049592e-01, 1.89618364e-01, 1.73077375e-01, 1.93927884e-01,
          2.15387568e-01, 2.90371329e-01 ]
      - [ 9.35409069e-01, 1.48221344e-01, 1.85812593e-01, 2.03158557e-01,
          1.85363680e-01, 2.63895065e-01 ]
      - [ 5.37049592e-01, 2.30684251e-01, 1.88782796e-01, 2.16844514e-01,
          2.72352993e-01, 3.62934262e-01 ]
      - [ 9.35409069e-01, 2.15584397e-01, 1.82086751e-01, 1.92970067e-01,
          2.40069330e-01, 3.15754831e-01 ]
      - [ 5.37049592e-01, 2.26609871e-01, 1.84144795e-01, 2.17332199e-01,
          2.79192090e-01, 3.73638332e-01 ]
      - [ 5.37049592e-01, 2.25114122e-01, 1.60026282e-01, 1.89199895e-01,
          2.80991435e-01, 3.64245594e-01 ]
      - [ 5.37049592e-01, 2.14840055e-01, 1.69894055e-01, 2.01027036e-01,
          2.66997159e-01, 3.57743353e-01 ]
      - [ 9.35409069e-01, 1.88290179e-01, 1.53652862e-01, 1.53652862e-01,
          1.88290179e-01, 2.12285891e-01 ]
      - [ 5.37049592e-01, 2.23212987e-01, 1.77955687e-01, 2.11491987e-01,
          2.77770460e-01, 3.73702645e-01 ]
      - [ 9.35409069e-01, 1.36242568e-01, 1.36242568e-01, 1.36242568e-01,
          1.36242568e-01, 1.36242568e-01 ]
      - [ 5.37049592e-01, 2.25066736e-01, 1.79693982e-01, 2.12162554e-01,
          2.77770489e-01, 3.72753054e-01 ]
      - [ 5.37049592e-01, 2.15583175e-01, 1.73081353e-01, 2.06552550e-01,
          2.66582608e-01, 3.64403695e-01 ]
      - [ 9.35409069e-01, 1.92970768e-01, 1.40457645e-01, 1.57835260e-01,
          2.42449492e-01, 2.91948825e-01 ]
      - [ 5.37049592e-01, 2.21583799e-01, 1.86756164e-01, 2.15661034e-01,
          2.43890435e-01, 3.42542320e-01 ]
      - [ 9.35409069e-01, 1.38322279e-01, 2.03020975e-01, 2.03020975e-01,
          1.38322279e-01, 2.03020975e-01 ]
      - [ 9.35409069e-01, 2.00318083e-01, 2.04842493e-01, 2.21278474e-01,
          2.00318083e-01, 2.68271178e-01 ]
      - [ 9.35409069e-01, 2.22904980e-01, 2.04125836e-01, 2.15627819e-01,
          2.22904980e-01, 2.88969785e-01 ]
      - [ 9.35409069e-01, 2.28665635e-01, 2.10773245e-01, 2.26204485e-01,
          2.50290781e-01, 3.15344751e-01 ]
      - [ 9.35409069e-01, 2.44709030e-01, 2.17720971e-01, 2.37312287e-01,
          2.73003072e-01, 3.45540047e-01 ]
      - [ 5.37049592e-01, 2.38170147e-01, 1.95857868e-01, 2.27890164e-01,
          2.86722898e-01, 3.79979044e-01 ]
      - [ 9.35409069e-01, 2.03894034e-01, 1.75888062e-01, 1.87956020e-01,
          2.18226030e-01, 2.89342195e-01 ]
      - [ 9.35409069e-01, 1.78684905e-01, 1.83552384e-01, 2.01237932e-01,
          1.78684905e-01, 2.51820594e-01 ]
      - [ 5.37049592e-01, 2.25518823e-01, 1.80711985e-01, 2.14084387e-01,
          2.78010666e-01, 3.73998523e-01 ]
      - [ 9.35409069e-01, 2.00464472e-01, 1.77179903e-01, 1.99990019e-01,
          2.27782875e-01, 3.10902447e-01 ]
      - [ 9.35409069e-01, 2.12824374e-01, 1.90321788e-01, 2.12365940e-01,
          2.39216715e-01, 3.19486171e-01 ]
      - [ 9.35409069e-01, 2.27483794e-01, 1.96430892e-01, 2.22895965e-01,
          2.57622808e-01, 3.40874732e-01 ]
      - [ 9.35409069e-01, 2.35915512e-01, 2.00213030e-01, 2.25352585e-01,
          2.76327312e-01, 3.54654789e-01 ]
      - [ 5.37049592e-01, 2.46990278e-01, 2.08784640e-01, 2.34872088e-01,
          2.87465483e-01, 3.66511554e-01 ]
      - [ 5.37049592e-01, 1.98655248e-01, 1.68230355e-01, 1.91244438e-01,
          2.28203163e-01, 3.04615587e-01 ]
      - [ 5.37049592e-01, 1.97646305e-01, 1.57111704e-01, 1.79980814e-01,
          2.32526347e-01, 3.10687363e-01 ]
      - [ 9.35409069e-01, 2.04968989e-01, 1.59597039e-01, 1.82857230e-01,
          2.44896531e-01, 3.22842389e-01 ]
      - [ 5.37049592e-01, 2.14137107e-01, 1.69195578e-01, 1.99357286e-01,
          2.64209211e-01, 3.56513619e-01 ]
      - [ 5.37049592e-01, 2.20437244e-01, 1.74136415e-01, 2.05165997e-01,
          2.72038192e-01, 3.64877731e-01 ]
      - [ 5.37049592e-01, 2.19926134e-01, 1.77113727e-01, 2.19611436e-01,
          2.84144461e-01, 3.88381720e-01 ]
      - [ 9.35409069e-01, 1.53710753e-01, 1.39376178e-01, 1.76698297e-01,
          2.25643456e-01, 2.90814221e-01 ]
      - [ 5.37049592e-01, 1.15735389e-01, 1.15735389e-01, 1.49900779e-01,
          1.74424827e-01, 2.07932413e-01 ]
      - [ 9.35409069e-01, 2.31981695e-01, 1.71430275e-01, 2.02226743e-01,
          2.56719112e-01, 3.21767747e-01 ]
      - [ 5.37049592e-01, 2.31723458e-01, 1.78458214e-01, 1.96788013e-01,
          2.53965348e-01, 3.33365768e-01 ]
      - [ 5.37049592e-01, 2.17171445e-01, 1.68045044e-01, 2.07210526e-01,
          2.84835309e-01, 3.83729666e-01 ]
      - [ 5.37049592e-01, 2.21239999e-01, 1.71326458e-01, 2.01369300e-01,
          2.66975194e-01, 3.53479534e-01 ]
      - [ 5.37049592e-01, 1.81578532e-01, 1.43350169e-01, 1.85104772e-01,
          2.50272661e-01, 3.32601666e-01 ]
      - [ 9.35409069e-01, 9.96679962e-02, 9.96679962e-02, 9.96679962e-02,
          9.96679962e-02, 9.96679962e-02 ]
      - [ 5.37049592e-01, 2.15535983e-01, 1.57205924e-01, 1.96481451e-01,
          2.86631227e-01, 3.77451599e-01 ]
      - [ 9.35409069e-01, 1.82180479e-01, 2.09653154e-01, 2.09653154e-01,
          1.82180479e-01, 2.46951833e-01 ]
      - [ 5.37049592e-01, 1.73877582e-01, 1.50384322e-01, 1.95425719e-01,
          2.31003016e-01, 3.07123363e-01 ]
      - [ 5.37049592e-01, 2.16280326e-01, 1.74637243e-01, 2.14690462e-01,
          2.70415872e-01, 3.69856477e-01 ]
      - [ 5.37049592e-01, 2.16867357e-01, 1.67139366e-01, 2.14490682e-01,
          2.95618027e-01, 3.98903847e-01 ]
      - [ 5.37049592e-01, 2.15897307e-01, 1.75604835e-01, 2.20118538e-01,
          2.87911534e-01, 3.91547799e-01 ]
      - [ 5.37049592e-01, 2.14909837e-01, 1.71971202e-01, 2.15346485e-01,
          2.89136469e-01, 3.87734950e-01 ]
      - [ 5.37049592e-01, 7.20676556e-02, 2.28108093e-01, 2.28108093e-01,
          7.20676556e-02, 2.28108093e-01 ]
      - [ 9.35409069e-01, 1.89204469e-01, 1.65892988e-01, 2.04507038e-01,
          2.60214478e-01, 3.39094043e-01 ]
      - [ 5.37049592e-01, 1.49584815e-01, 1.47110671e-01, 1.78893104e-01,
          2.04915896e-01, 2.73672491e-01 ]
      - [ 5.37049592e-01, 1.48885027e-01, 1.48885027e-01, 1.48885027e-01,
          1.48885027e-01, 1.48885027e-01 ]
      - [ 5.37049592e-01, 1.76621541e-01, 1.33556724e-01, 1.49572685e-01,
          2.10200757e-01, 2.60159910e-01 ]
      - [ 5.37049592e-01, 2.07589269e-01, 1.63176924e-01, 2.05011725e-01,
          2.76873797e-01, 3.75221968e-01 ]
      - [ 5.37049592e-01, 2.12567478e-01, 1.64703563e-01, 2.04710856e-01,
          2.84982026e-01, 3.80210638e-01 ]
      - [ 5.37049592e-01, 2.09494278e-01, 1.66129217e-01, 2.10971773e-01,
          2.83672094e-01, 3.86633724e-01 ]
      - [ 9.35409069e-01, 2.11689785e-01, 1.65833712e-01, 1.65833712e-01,
          2.11689785e-01, 2.56632388e-01 ]
      - [ 5.37049592e-01, 1.79328471e-01, 1.57719210e-01, 1.57719210e-01,
          1.79328471e-01, 2.17945352e-01 ]
      - [ 9.35409069e-01, 1.74602285e-01, 1.77571177e-01, 1.89649597e-01,
          2.03257218e-01, 2.66735405e-01 ]
      - [ 5.37049592e-01, 2.28961855e-01, 1.81384891e-01, 2.23698527e-01,
          2.98387617e-01, 3.99336487e-01 ]
      - [ 9.35409069e-01, 2.36568198e-01, 2.07976177e-01, 2.34671667e-01,
          2.60660559e-01, 3.50113988e-01 ]
      - [ 5.37049592e-01, 2.10123464e-01, 1.76556528e-01, 2.24751756e-01,
          2.81821579e-01, 3.92045915e-01 ]
      - [ 5.37049592e-01, 1.81933239e-01, 1.56993002e-01, 1.81173161e-01,
          2.24273860e-01, 2.95159042e-01 ]
      - [ 5.37049592e-01, 2.08787113e-01, 1.67390734e-01, 2.12845102e-01,
          2.83344418e-01, 3.85206938e-01 ]
      - [ 5.37049592e-01, 2.08212554e-01, 1.66845992e-01, 2.14758679e-01,
          2.84605801e-01, 3.89508784e-01 ]
      - [ 9.35409069e-01, 1.90815985e-01, 1.66855395e-01, 1.83711901e-01,
          2.24097818e-01, 2.89052129e-01 ]
      - [ 9.35409069e-01, 1.76831320e-01, 1.50538623e-01, 1.91209435e-01,
          2.54938990e-01, 3.26605350e-01 ]
      - [ 5.37049592e-01, 2.24109069e-01, 1.78866461e-01, 2.24577025e-01,
          2.99371094e-01, 3.99756223e-01 ]
      - [ 5.37049592e-01, 2.31268018e-01, 1.77537218e-01, 2.15781495e-01,
          3.03304642e-01, 3.92104685e-01 ]
      - [ 5.37049592e-01, 2.20051304e-01, 1.58051223e-01, 2.00407207e-01,
          2.92432278e-01, 3.87839466e-01 ]
      - [ 5.37049592e-01, 2.15983406e-01, 1.70649752e-01, 2.14620531e-01,
          2.97763497e-01, 3.95687610e-01 ]
      - [ 5.37049592e-01, 2.17231631e-01, 1.72222316e-01, 2.18505427e-01,
          2.91274995e-01, 3.97829771e-01 ]
      - [ 5.37049592e-01, 2.24904880e-01, 1.65274307e-01, 1.96262732e-01,
          2.73781538e-01, 3.60558301e-01 ]
      - [ 5.37049592e-01, 1.66453168e-01, 1.56362548e-01, 1.81355417e-01,
          2.08364308e-01, 2.75404513e-01 ]
      - [ 5.37049592e-01, 2.19885454e-01, 1.70581803e-01, 2.10461795e-01,
          2.87352830e-01, 3.87753785e-01 ]
      - [ 5.37049592e-01, 2.19348863e-01, 1.71311989e-01, 1.99933618e-01,
          2.65978962e-01, 3.53880942e-01 ]
      - [ 5.37049592e-01, 1.95180103e-01, 1.60395011e-01, 1.93387583e-01,
          2.52399296e-01, 3.35833937e-01 ]
      - [ 9.35409069e-01, 2.15156734e-01, 1.75456643e-01, 2.06396699e-01,
          2.62929678e-01, 3.50747794e-01 ]
      - [ 9.35409069e-01, 2.19452038e-01, 1.81700289e-01, 2.19048932e-01,
          2.80649483e-01, 3.70227963e-01 ]
      - [ 5.37049592e-01, 1.89860851e-01, 1.36242568e-01, 1.36242568e-01,
          1.89860851e-01, 1.89860851e-01 ]
      - [ 5.37049592e-01, 2.09902242e-01, 1.69095546e-01, 2.10147470e-01,
          2.79545128e-01, 3.78493130e-01 ]
      - [ 9.35409069e-01, 1.82492018e-01, 1.44429222e-01, 1.66241914e-01,
          2.17129946e-01, 2.83342034e-01 ]
      - [ 9.35409069e-01, 1.89955160e-01, 1.52405947e-01, 1.73926413e-01,
          2.24111781e-01, 2.89374143e-01 ]
      - [ 9.35409069e-01, 1.95186779e-01, 1.58395663e-01, 1.79641753e-01,
          2.26292342e-01, 2.91720062e-01 ]
      - [ 9.35409069e-01, 1.97540477e-01, 1.60955936e-01, 1.82083279e-01,
          2.29362205e-01, 2.94377387e-01 ]
      - [ 9.35409069e-01, 2.13110223e-01, 1.66792691e-01, 1.89964458e-01,
          2.50856102e-01, 3.29029351e-01 ]
      - [ 5.37049592e-01, 2.06340417e-01, 1.61111295e-01, 1.90916717e-01,
          2.63166517e-01, 3.44169468e-01 ]
      - [ 5.37049592e-01, 2.12360814e-01, 1.63633466e-01, 2.00926334e-01,
          2.81381398e-01, 3.75136375e-01 ]
      - [ 9.35409069e-01, 1.47653133e-01, 1.25874981e-01, 1.64422944e-01,
          2.20437884e-01, 2.86690533e-01 ]
      - [ 5.37049592e-01, 2.14419067e-01, 1.60792843e-01, 1.90878645e-01,
          2.87001669e-01, 3.72263879e-01 ]
      - [ 9.35409069e-01, 1.73449472e-01, 1.60522342e-01, 2.06575632e-01,
          2.45009765e-01, 3.38626027e-01 ]
      - [ 5.37049592e-01, 2.19873235e-01, 1.79628536e-01, 2.21486881e-01,
          2.86318690e-01, 3.90359014e-01 ]
      - [ 5.37049592e-01, 2.14356869e-01, 1.71689317e-01, 2.12247610e-01,
          2.83238500e-01, 3.81437242e-01 ]
      - [ 9.35409069e-01, 1.37011230e-01, 1.37011230e-01, 1.37011230e-01,
          1.37011230e-01, 1.37011230e-01 ]
      - [ 5.37049592e-01, 2.09109679e-01, 1.68477163e-01, 2.09822565e-01,
          2.80169576e-01, 3.77344996e-01 ]
      - [ 5.37049592e-01, 2.02349886e-01, 1.63129851e-01, 2.03479975e-01,
          2.74884731e-01, 3.70453745e-01 ]
      - [ 5.37049592e-01, 1.93521410e-01, 1.57797769e-01, 2.00792477e-01,
          2.69740999e-01, 3.62659305e-01 ]
      - [ 5.37049592e-01, 1.16083033e-01, 1.16083033e-01, 1.44154891e-01,
          1.78979591e-01, 2.06474155e-01 ]
      - [ 9.35409069e-01, 1.48862720e-01, 1.36054039e-01, 1.79384366e-01,
          2.31409401e-01, 2.85392255e-01 ]
      - [ 5.37049592e-01, 2.19377980e-01, 1.63652986e-01, 1.73132062e-01,
          2.19377980e-01, 2.82708079e-01 ]
      - [ 9.35409069e-01, 1.23434372e-01, 1.23434372e-01, 1.23434372e-01,
          1.23434372e-01, 1.23434372e-01 ]
      - [ 9.35409069e-01, 2.32766777e-01, 1.87308356e-01, 2.07165435e-01,
          2.59116381e-01, 3.37732762e-01 ]
      - [ 5.37049592e-01, 2.21365973e-01, 1.76958367e-01, 2.17769951e-01,
          2.89795220e-01, 3.90489399e-01 ]
      - [ 5.37049592e-01, 2.24707782e-01, 1.50081009e-01, 1.82637915e-01,
          2.87874907e-01, 3.69929969e-01 ]
      - [ 9.35409069e-01, 1.95435584e-01, 1.62222683e-01, 1.96641684e-01,
          2.61571676e-01, 3.42498451e-01 ]
      - [ 5.37049592e-01, 2.07734987e-01, 1.47844598e-01, 1.82575554e-01,
          2.80784041e-01, 3.63097280e-01 ]
      - [ 9.35409069e-01, 1.97224662e-01, 1.66808456e-01, 1.95034981e-01,
          2.38780767e-01, 3.17025304e-01 ]
      - [ 5.37049592e-01, 2.01505303e-01, 1.56895638e-01, 1.65749893e-01,
          2.25407198e-01, 2.75038719e-01 ]
      - [ 9.35409069e-01, 1.67341858e-01, 1.42747238e-01, 1.73222527e-01,
          2.21227825e-01, 2.87046462e-01 ]
      - [ 9.35409069e-01, 1.82651609e-01, 1.34306341e-01, 1.49044335e-01,
          2.32651621e-01, 2.70316750e-01 ]
      - [ 5.37049592e-01, 9.96679962e-02, 9.96679962e-02, 9.96679962e-02,
          9.96679962e-02, 9.96679962e-02 ]
      - [ 9.35409069e-01, 2.23349035e-01, 1.89649597e-01, 1.89649597e-01,
          2.23349035e-01, 2.42529705e-01 ]
      - [ 9.35409069e-01, 1.57182261e-01, 1.57182261e-01, 1.57182261e-01,
          1.57182261e-01, 1.57182261e-01 ]
      - [ 9.35409069e-01, 2.03733623e-01, 1.88410893e-01, 1.88410893e-01,
          2.11676210e-01, 2.71969855e-01 ]
      - [ 9.35409069e-01, 2.23597497e-01, 1.92836881e-01, 1.92836881e-01,
          2.14614481e-01, 2.86989033e-01 ]
      - [ 9.35409069e-01, 0., 0., 0., 0., 0. ]
      - [ 9.35409069e-01, 1.51000440e-01, 1.37011230e-01, 1.37011230e-01,
          1.37011230e-01, 1.51000440e-01 ]
      - [ 9.35409069e-01, 2.22147733e-01, 1.81305349e-01, 1.81305349e-01,
          2.01505303e-01, 2.63424367e-01 ]
      - [ 9.35409069e-01, 2.20706075e-01, 1.84441239e-01, 1.96864024e-01,
          2.41881907e-01, 3.03848177e-01 ]
      - [ 9.35409069e-01, 2.19262064e-01, 2.02660725e-01, 2.22326115e-01,
          2.38847941e-01, 3.20347041e-01 ]
      - [ 5.37049592e-01, 2.36714587e-01, 1.86496168e-01, 2.20111132e-01,
          2.92515159e-01, 3.88104886e-01 ]
      - [ 9.35409069e-01, 1.57182261e-01, 1.57182261e-01, 1.57182261e-01,
          1.57182261e-01, 1.57182261e-01 ]
      - [ 9.35409069e-01, 1.97375327e-01, 1.97375327e-01, 1.97375327e-01,
          1.97375327e-01, 1.97375327e-01 ]
      - [ 9.35409069e-01, 1.95623949e-01, 1.68082640e-01, 1.76705196e-01,
          2.07693219e-01, 2.41443411e-01 ]
      - [ 5.37049592e-01, 2.09316492e-01, 1.65763810e-01, 2.07968503e-01,
          2.81497687e-01, 3.81251931e-01 ]
      - [ 5.37049592e-01, 1.83438733e-01, 1.53877735e-01, 1.53877735e-01,
          1.83438733e-01, 2.09436059e-01 ]
      - [ 9.35409069e-01, 2.18226030e-01, 1.93132669e-01, 2.15246335e-01,
          2.56353319e-01, 3.32778126e-01 ]
      - [ 9.35409069e-01, 1.92251414e-01, 1.43697381e-01, 1.64027408e-01,
          2.24372879e-01, 2.90150404e-01 ]
      - [ 9.35409069e-01, 1.98221475e-01, 1.50098175e-01, 1.70964226e-01,
          2.29798973e-01, 2.99953341e-01 ]
      - [ 9.35409069e-01, 2.00089231e-01, 1.51911005e-01, 1.72692433e-01,
          2.31283516e-01, 3.01379472e-01 ]
      - [ 9.35409069e-01, 2.03034580e-01, 1.53233662e-01, 1.73863158e-01,
          2.33303815e-01, 3.03862989e-01 ]
      - [ 9.35409069e-01, 2.05360502e-01, 1.54978544e-01, 1.76595896e-01,
          2.34223872e-01, 3.06682676e-01 ]
      - [ 9.35409069e-01, 2.07404613e-01, 1.56289116e-01, 1.78734705e-01,
          2.36111686e-01, 3.10170710e-01 ]
      - [ 9.35409069e-01, 2.09842697e-01, 1.57584831e-01, 1.79944903e-01,
          2.37100825e-01, 3.12136471e-01 ]
      - [ 5.37049592e-01, 2.21151277e-01, 1.64630428e-01, 1.88168600e-01,
          2.50591069e-01, 3.30736846e-01 ]
      - [ 9.35409069e-01, 2.13215023e-01, 1.81006148e-01, 1.99874401e-01,
          2.46755555e-01, 3.33636075e-01 ]
      - [ 5.37049592e-01, 1.89840570e-01, 1.56759024e-01, 1.83029309e-01,
          2.30172336e-01, 3.09509277e-01 ]
      - [ 9.35409069e-01, 0., 0., 0., 0., 0. ]
      - [ 9.35409069e-01, 1.46107048e-01, 1.15377754e-01, 1.15377754e-01,
          1.46107048e-01, 1.46107048e-01 ]
      - [ 9.35409069e-01, 1.56463787e-01, 1.51983634e-01, 1.75296485e-01,
          2.05139324e-01, 2.44970158e-01 ]
      - [ 9.35409069e-01, 1.66282743e-01, 1.70106649e-01, 1.84271291e-01,
          2.12775052e-01, 2.58615464e-01 ]
      - [ 5.37049592e-01, 2.34139904e-01, 1.85192928e-01, 2.18571365e-01,
          2.97623366e-01, 3.88410509e-01 ]
      - [ 9.35409069e-01, 0., 0., 0., 0., 0. ]
      - [ 5.37049592e-01, 2.30956823e-01, 1.87385544e-01, 2.27527633e-01,
          2.96579689e-01, 3.95723224e-01 ]
      - [ 9.35409069e-01, 0., 0., 0., 0., 0. ]
      - [ 9.35409069e-01, 9.15723294e-02, 9.15723294e-02, 9.15723294e-02,
          9.15723294e-02, 9.15723294e-02 ]
      - [ 9.35409069e-01, 1.64272234e-01, 1.64272234e-01, 1.64272234e-01,
          1.64272234e-01, 1.64272234e-01 ]
      - [ 9.35409069e-01, 2.15801924e-01, 1.86525688e-01, 1.94235682e-01,
          2.15801924e-01, 2.62517393e-01 ]
      - [ 9.35409069e-01, 2.22840592e-01, 1.94782168e-01, 2.02171415e-01,
          2.30138272e-01, 2.74746507e-01 ]
      - [ 9.35409069e-01, 2.54292071e-01, 2.20532775e-01, 2.40046307e-01,
          2.92036951e-01, 3.61111343e-01 ]
      - [ 5.37049592e-01, 2.46225074e-01, 1.89693555e-01, 2.23891109e-01,
          3.11006665e-01, 3.94430339e-01 ]
      - [ 9.35409069e-01, 1.88290179e-01, 1.73235163e-01, 1.97375327e-01,
          2.12285891e-01, 2.68271178e-01 ]
      - [ 5.37049592e-01, 2.18905047e-01, 1.74593002e-01, 2.10875988e-01,
          2.73409188e-01, 3.71328562e-01 ]
      - [ 5.37049592e-01, 2.43917927e-01, 1.90440550e-01, 2.31372178e-01,
          3.13501865e-01, 4.01998132e-01 ]
      - [ 5.37049592e-01, 2.48848423e-01, 1.97059140e-01, 2.38117844e-01,
          3.18685919e-01, 4.06103849e-01 ]
      - [ 9.35409069e-01, 9.15723294e-02, 9.15723294e-02, 9.15723294e-02,
          1.57182261e-01, 1.57182261e-01 ]
      - [ 9.35409069e-01, 2.01252267e-01, 1.84621796e-01, 2.02123210e-01,
          2.60228306e-01, 2.77097195e-01 ]
      - [ 9.35409069e-01, 2.53871441e-01, 2.24034280e-01, 2.52825767e-01,
          3.01837534e-01, 3.76388997e-01 ]
      - [ 9.35409069e-01, 2.57514119e-01, 2.25621372e-01, 2.56483257e-01,
          3.07011485e-01, 3.80394042e-01 ]
      - [ 5.37049592e-01, 1.72428384e-01, 1.44658282e-01, 1.62410975e-01,
          2.11472631e-01, 2.58259296e-01 ]
      - [ 5.37049592e-01, 2.08360121e-01, 1.58404261e-01, 1.94276333e-01,
          2.72409499e-01, 3.61704886e-01 ]
      - [ 5.37049592e-01, 2.12311700e-01, 1.50343224e-01, 1.79790735e-01,
          2.66707152e-01, 3.45808864e-01 ]
      - [ 5.37049592e-01, 2.10220829e-01, 1.74763799e-01, 2.10205287e-01,
          2.72631526e-01, 3.69275689e-01 ]
      - [ 5.37049592e-01, 2.16782361e-01, 1.62149340e-01, 1.98531106e-01,
          2.84722269e-01, 3.75473291e-01 ]
      - [ 9.35409069e-01, 2.16261998e-01, 1.77723259e-01, 2.08547130e-01,
          2.60519177e-01, 3.56021523e-01 ]
      - [ 5.37049592e-01, 2.18388006e-01, 1.74773157e-01, 2.16523245e-01,
          2.83715993e-01, 3.86895627e-01 ]
      - [ 5.37049592e-01, 2.30151296e-01, 1.80422291e-01, 2.13697433e-01,
          2.90923119e-01, 3.81856352e-01 ]
      - [ 5.37049592e-01, 2.15238243e-01, 1.70735791e-01, 2.12136015e-01,
          2.84542978e-01, 3.87330860e-01 ]
      - [ 5.37049592e-01, 2.17438594e-01, 1.72155768e-01, 2.05352932e-01,
          2.71216810e-01, 3.64251167e-01 ]
      - [ 9.35409069e-01, 2.00179920e-01, 1.54813603e-01, 1.81220949e-01,
          2.43439421e-01, 3.21460992e-01 ]
      - [ 5.37049592e-01, 2.27894813e-01, 1.97836667e-01, 2.38948733e-01,
          2.91171581e-01, 3.94845575e-01 ]
      - [ 9.35409069e-01, 1.68513313e-01, 1.38414815e-01, 1.74071595e-01,
          2.36531213e-01, 3.08828652e-01 ]
      - [ 5.37049592e-01, 1.75752178e-01, 1.42746642e-01, 1.77988246e-01,
          2.42947891e-01, 3.16813201e-01 ]
      - [ 5.37049592e-01, 1.55763149e-01, 9.09504965e-02, 9.09504965e-02,
          1.61601216e-01, 1.81664869e-01 ]
      - [ 9.35409069e-01, 1.15736865e-01, 1.15736865e-01, 1.52216524e-01,
          1.71683401e-01, 2.07494423e-01 ]
      - [ 9.35409069e-01, 1.54222250e-01, 1.56805560e-01, 2.03812197e-01,
          2.27303445e-01, 3.03097278e-01 ]
      - [ 5.37049592e-01, 2.04530433e-01, 1.71893507e-01, 2.07800165e-01,
          2.62166321e-01, 3.57309222e-01 ]
      - [ 5.37049592e-01, 2.19172165e-01, 1.64810300e-01, 2.02230826e-01,
          2.86098897e-01, 3.81235033e-01 ]
      - [ 5.37049592e-01, 1.93573043e-01, 1.65072292e-01, 1.65072292e-01,
          1.93573043e-01, 2.45122984e-01 ]
      - [ 5.37049592e-01, 2.29587927e-01, 1.78167209e-01, 2.13064671e-01,
          2.96752036e-01, 3.89410317e-01 ]
      - [ 5.37049592e-01, 2.21501827e-01, 1.77592948e-01, 2.09329739e-01,
          2.72276431e-01, 3.68152946e-01 ]
      - [ 5.37049592e-01, 1.55667216e-01, 1.29055947e-01, 1.52742311e-01,
          2.00495511e-01, 2.40034014e-01 ]
      - [ 9.35409069e-01, 1.39645398e-01, 1.73235163e-01, 1.73235163e-01,
          1.39645398e-01, 1.73235163e-01 ]
      - [ 9.35409069e-01, 1.73498526e-01, 2.03020975e-01, 2.03020975e-01,
          1.73498526e-01, 2.03020975e-01 ]
      - [ 9.35409069e-01, 2.01834217e-01, 2.28108093e-01, 2.28108093e-01,
          2.01834217e-01, 2.28108093e-01 ]
      - [ 5.37049592e-01, 2.32024387e-01, 1.97001189e-01, 2.17099398e-01,
          2.66382873e-01, 3.42201442e-01 ]
      - [ 9.35409069e-01, 2.36984357e-01, 1.89326942e-01, 2.24830180e-01,
          2.89119303e-01, 3.71223807e-01 ]
      - [ 9.35409069e-01, 2.38386050e-01, 1.91040307e-01, 2.26311475e-01,
          2.92267472e-01, 3.73720914e-01 ]
      - [ 9.35409069e-01, 2.52830714e-01, 2.04568818e-01, 2.43862212e-01,
          3.08076441e-01, 3.93364847e-01 ]
      - [ 9.35409069e-01, 2.56754041e-01, 2.09051669e-01, 2.47890204e-01,
          3.13228458e-01, 3.97389770e-01 ]
      - [ 9.35409069e-01, 2.58218974e-01, 2.12084860e-01, 2.52839506e-01,
          3.14519674e-01, 4.00721252e-01 ]
      - [ 9.35409069e-01, 2.59089381e-01, 2.13188455e-01, 2.53737062e-01,
          3.16969275e-01, 4.02624160e-01 ]
      - [ 9.35409069e-01, 2.59183198e-01, 2.13994116e-01, 2.56410480e-01,
          3.16654325e-01, 4.04458463e-01 ]
      - [ 9.35409069e-01, 2.59974450e-01, 2.15005592e-01, 2.57215202e-01,
          3.19033206e-01, 4.06296194e-01 ]
      - [ 9.35409069e-01, 0., 0., 0., 0., 0. ]
      - [ 9.35409069e-01, 9.96679962e-02, 9.96679962e-02, 9.96679962e-02,
          9.96679962e-02, 9.96679962e-02 ]
      - [ 9.35409069e-01, 1.48885027e-01, 1.48885027e-01, 1.97375327e-01,
          1.48885027e-01, 1.97375327e-01 ]
      - [ 9.35409069e-01, 1.51028529e-01, 1.51028529e-01, 1.89860851e-01,
          1.89860851e-01, 2.28108093e-01 ]
      - [ 9.35409069e-01, 1.44887969e-01, 1.44887969e-01, 2.21433401e-01,
          1.77352741e-01, 2.52888501e-01 ]
      - [ 9.35409069e-01, 1.43876284e-01, 1.43876284e-01, 2.09653154e-01,
          2.09653154e-01, 2.73585647e-01 ]
      - [ 9.35409069e-01, 1.96404293e-01, 2.34541357e-01, 2.84271628e-01,
          2.26682112e-01, 3.13139439e-01 ]
      - [ 9.35409069e-01, 1.97375327e-01, 2.33133003e-01, 2.79832184e-01,
          2.44918659e-01, 3.25243682e-01 ]
      - [ 9.35409069e-01, 2.40482032e-01, 2.40758866e-01, 2.78091818e-01,
          2.66295075e-01, 3.53906691e-01 ]
      - [ 9.35409069e-01, 2.41307110e-01, 2.41574600e-01, 2.77659655e-01,
          2.77397484e-01, 3.61540526e-01 ]
      - [ 9.35409069e-01, 2.56755501e-01, 2.21676037e-01, 2.65953600e-01,
          2.97156185e-01, 3.90315205e-01 ]
      - [ 9.35409069e-01, 2.65294075e-01, 2.31545091e-01, 2.74143189e-01,
          3.10050964e-01, 3.99328977e-01 ]
      - [ 5.37049592e-01, 2.65669286e-01, 2.34430492e-01, 2.78683096e-01,
          3.23399067e-01, 4.19287562e-01 ]
      - [ 5.37049592e-01, 0., 0., 0., 0., 0. ]
      - [ 9.35409069e-01, 2.26653457e-01, 1.84947774e-01, 1.93871140e-01,
          2.47976959e-01, 3.13588768e-01 ]
      - [ 5.37049592e-01, 2.18330979e-01, 1.50801361e-01, 1.76725760e-01,
          2.76789933e-01, 3.49388927e-01 ]
      - [ 5.37049592e-01, 2.29436874e-01, 1.82129383e-01, 2.16288656e-01,
          2.81509638e-01, 3.77306670e-01 ]
      - [ 9.35409069e-01, 2.09002092e-01, 1.76561698e-01, 1.90572247e-01,
          2.29043961e-01, 2.95909137e-01 ]
      - [ 9.35409069e-01, 2.16671467e-01, 1.95596397e-01, 1.99223727e-01,
          2.35647768e-01, 3.08076113e-01 ]
      - [ 9.35409069e-01, 2.45534688e-01, 2.05696806e-01, 2.25157082e-01,
          2.81416684e-01, 3.67553741e-01 ]
      - [ 5.37049592e-01, 2.36346245e-01, 2.02537149e-01, 2.37664595e-01,
          2.88647890e-01, 3.86211455e-01 ]
      - [ 9.35409069e-01, 8.63699317e-02, 8.63699317e-02, 8.63699317e-02,
          8.63699317e-02, 8.63699317e-02 ]
      - [ 9.35409069e-01, 2.12493211e-01, 1.78283796e-01, 2.08933786e-01,
          2.60678202e-01, 3.56130898e-01 ]
      - [ 5.37049592e-01, 2.16222703e-01, 1.80327058e-01, 2.14329809e-01,
          2.67578900e-01, 3.68296415e-01 ]
      - [ 5.37049592e-01, 2.13407189e-01, 1.73056647e-01, 2.07717314e-01,
          2.67821938e-01, 3.66887093e-01 ]
      - [ 9.35409069e-01, 2.09106296e-01, 1.80170238e-01, 1.99139535e-01,
          2.32663810e-01, 3.17090929e-01 ]
      - [ 5.37049592e-01, 2.22900748e-01, 1.74729005e-01, 2.03818575e-01,
          2.71378875e-01, 3.60560685e-01 ]
      - [ 9.35409069e-01, 1.69556051e-01, 1.61967456e-01, 1.61967456e-01,
          1.69556051e-01, 2.10347623e-01 ]
      - [ 9.35409069e-01, 1.79448187e-01, 1.56712905e-01, 1.68513522e-01,
          1.83063686e-01, 2.45253310e-01 ]
      - [ 9.35409069e-01, 1.85345545e-01, 1.55116081e-01, 1.73752129e-01,
          2.07405075e-01, 2.76275545e-01 ]
      - [ 9.35409069e-01, 1.83842778e-01, 1.53441921e-01, 1.69065997e-01,
          2.02903181e-01, 2.66340703e-01 ]
      - [ 9.35409069e-01, 1.84500620e-01, 1.52628675e-01, 1.70527458e-01,
          2.08062947e-01, 2.71704882e-01 ]
      - [ 5.37049592e-01, 2.01610804e-01, 1.89510688e-01, 2.21433401e-01,
          2.16247335e-01, 3.09250087e-01 ]
      - [ 5.37049592e-01, 1.91921368e-01, 1.65756181e-01, 1.65756181e-01,
          1.91921368e-01, 2.47652799e-01 ]
      - [ 9.35409069e-01, 2.20806912e-01, 1.79236993e-01, 2.10761905e-01,
          2.70295739e-01, 3.57934982e-01 ]
      - [ 5.37049592e-01, 1.86766207e-01, 1.55354843e-01, 1.77273214e-01,
          2.19600841e-01, 2.92170286e-01 ]
      - [ 5.37049592e-01, 2.23961681e-01, 1.90465897e-01, 2.25194305e-01,
          2.74937302e-01, 3.72862279e-01 ]
      - [ 5.37049592e-01, 2.22554982e-01, 1.69241562e-01, 1.98860273e-01,
          2.77732909e-01, 3.60346407e-01 ]
      - [ 9.35409069e-01, 2.18309179e-01, 1.85560837e-01, 2.10110620e-01,
          2.50929713e-01, 3.42830122e-01 ]
      - [ 5.37049592e-01, 2.22084999e-01, 1.77894875e-01, 2.11265758e-01,
          2.78393567e-01, 3.70743096e-01 ]
      - [ 5.37049592e-01, 2.28419468e-01, 1.92808270e-01, 2.29036033e-01,
          2.79024005e-01, 3.80868644e-01 ]
      - [ 9.35409069e-01, 1.84583023e-01, 1.79937944e-01, 2.12678716e-01,
          2.30542719e-01, 3.20375830e-01 ]
      - [ 5.37049592e-01, 2.17918336e-01, 1.76817775e-01, 2.12156400e-01,
          2.73051798e-01, 3.71738940e-01 ]
      - [ 9.35409069e-01, 2.05952987e-01, 1.60255834e-01, 1.75595686e-01,
          2.30263531e-01, 2.96808928e-01 ]
      - [ 9.35409069e-01, 2.04967752e-01, 1.69559956e-01, 1.83054999e-01,
          2.50742435e-01, 3.14918727e-01 ]
      - [ 5.37049592e-01, 2.09608510e-01, 1.56633452e-01, 1.79480448e-01,
          2.61624962e-01, 3.28199774e-01 ]
      - [ 9.35409069e-01, 2.14127794e-01, 1.78295910e-01, 2.02680334e-01,
          2.49036402e-01, 3.36760908e-01 ]
      - [ 5.37049592e-01, 1.53160438e-01, 1.32826507e-01, 1.50511965e-01,
          1.98210806e-01, 2.34001279e-01 ]
      - [ 9.35409069e-01, 2.37102613e-01, 2.04482406e-01, 2.34475508e-01,
          2.84997672e-01, 3.78826141e-01 ]
      - [ 5.37049592e-01, 0., 0., 0., 0., 0. ]
      - [ 9.35409069e-01, 2.40590408e-01, 2.01562092e-01, 2.30670080e-01,
          2.86726713e-01, 3.75482172e-01 ]
      - [ 9.35409069e-01, 2.46767804e-01, 2.08338991e-01, 2.37000942e-01,
          2.92182863e-01, 3.79532158e-01 ]
      - [ 9.35409069e-01, 2.10405946e-01, 1.78959414e-01, 2.09318176e-01,
          2.54278123e-01, 3.48706037e-01 ]
      - [ 5.37049592e-01, 2.11747140e-01, 1.70465559e-01, 2.01844841e-01,
          2.65464246e-01, 3.54317427e-01 ]
      - [ 5.37049592e-01, 2.18779072e-01, 1.74730271e-01, 2.06112251e-01,
          2.71632433e-01, 3.66649538e-01 ]
      - [ 5.37049592e-01, 2.22452268e-01, 1.71769172e-01, 2.03676879e-01,
          2.76866645e-01, 3.69389832e-01 ]
      - [ 9.35409069e-01, 2.03977674e-01, 1.29394591e-01, 1.29394591e-01,
          2.03977674e-01, 2.21707806e-01 ]
      - [ 5.37049592e-01, 1.86186180e-01, 1.31082371e-01, 1.53248638e-01,
          2.33893409e-01, 2.97579497e-01 ]
      - [ 9.35409069e-01, 1.73418537e-01, 1.56459808e-01, 1.64544150e-01,
          1.73418537e-01, 2.29229510e-01 ]
      - [ 5.37049592e-01, 2.16562435e-01, 1.74675599e-01, 2.07154214e-01,
          2.69464701e-01, 3.62525463e-01 ]
      - [ 9.35409069e-01, 0., 0., 0., 0., 0. ]
      - [ 5.37049592e-01, 2.29671851e-01, 1.81145132e-01, 2.09359378e-01,
          2.78492570e-01, 3.66666138e-01 ]
      - [ 9.35409069e-01, 1.77278712e-01, 1.63126498e-01, 1.83697492e-01,
          2.11965576e-01, 2.82310098e-01 ]
      - [ 5.37049592e-01, 2.19874009e-01, 1.72602579e-01, 2.05745518e-01,
          2.76050419e-01, 3.69492352e-01 ]
      - [ 5.37049592e-01, 2.20812827e-01, 1.66734979e-01, 1.94325864e-01,
          2.73593247e-01, 3.60834390e-01 ]
      - [ 9.35409069e-01, 2.42111430e-01, 2.22815365e-01, 2.52742797e-01,
          2.89243728e-01, 3.83867055e-01 ]
      - [ 9.35409069e-01, 2.43711919e-01, 2.26370215e-01, 2.57769853e-01,
          2.92038977e-01, 3.87236327e-01 ]
      - [ 9.35409069e-01, 2.48814225e-01, 2.27912158e-01, 2.62699246e-01,
          2.96542913e-01, 3.90542209e-01 ]
      - [ 9.35409069e-01, 2.52035439e-01, 2.29249552e-01, 2.65764415e-01,
          3.00960273e-01, 3.93786520e-01 ]
      - [ 9.35409069e-01, 2.60473877e-01, 2.40160853e-01, 2.76055455e-01,
          3.08722377e-01, 3.98023665e-01 ]
      - [ 9.35409069e-01, 2.66318232e-01, 2.46711910e-01, 2.82165945e-01,
          3.11198473e-01, 4.00194079e-01 ]
      - [ 5.37049592e-01, 2.22640038e-01, 1.72313616e-01, 2.02602029e-01,
          2.72414327e-01, 3.65278900e-01 ]
      - [ 9.35409069e-01, 1.77105546e-01, 1.48016095e-01, 1.48016095e-01,
          1.77105546e-01, 2.01252267e-01 ]
      - [ 9.35409069e-01, 1.86580375e-01, 1.60013497e-01, 1.60013497e-01,
          1.86580375e-01, 2.08640203e-01 ]
      - [ 5.37049592e-01, 2.07902551e-01, 1.61582813e-01, 1.80887878e-01,
          2.43674472e-01, 3.15595776e-01 ]
      - [ 5.37049592e-01, 2.23774061e-01, 1.79651827e-01, 2.08056957e-01,
          2.57556319e-01, 3.45831394e-01 ]
      - [ 9.35409069e-01, 1.89860851e-01, 1.36242568e-01, 1.36242568e-01,
          1.89860851e-01, 1.89860851e-01 ]
      - [ 5.37049592e-01, 1.89788699e-01, 1.61241859e-01, 1.61241859e-01,
          2.01809317e-01, 2.42529705e-01 ]
      - [ 9.35409069e-01, 2.21535116e-01, 1.93224922e-01, 2.17393562e-01,
          2.52454460e-01, 3.42482269e-01 ]
      - [ 9.35409069e-01, 2.26890296e-01, 2.03053549e-01, 2.22841799e-01,
          2.57114351e-01, 3.48651618e-01 ]
      - [ 5.37049592e-01, 1.97653458e-01, 1.60553426e-01, 1.81895718e-01,
          2.31931269e-01, 3.06465477e-01 ]
      - [ 9.35409069e-01, 2.38774896e-01, 2.02136219e-01, 2.38041192e-01,
          2.90572196e-01, 3.89510214e-01 ]
      - [ 9.35409069e-01, 2.39383265e-01, 2.05725133e-01, 2.41253182e-01,
          2.93228090e-01, 3.91123295e-01 ]
      - [ 9.35409069e-01, 2.37651289e-01, 2.04964966e-01, 2.41073459e-01,
          2.86541730e-01, 3.85249883e-01 ]
      - [ 9.35409069e-01, 2.19040051e-01, 1.78896502e-01, 2.00104177e-01,
          2.52807707e-01, 3.39389205e-01 ]
      - [ 9.35409069e-01, 2.27997184e-01, 1.88782796e-01, 2.09501803e-01,
          2.60971367e-01, 3.45492154e-01 ]
      - [ 9.35409069e-01, 2.44040370e-01, 2.01723769e-01, 2.21209511e-01,
          2.75789052e-01, 3.55042875e-01 ]
      - [ 5.37049592e-01, 2.45506436e-01, 2.06783786e-01, 2.37816870e-01,
          2.94345170e-01, 3.85506898e-01 ]
      - [ 5.37049592e-01, 1.80034459e-01, 1.46248147e-01, 1.70758292e-01,
          2.21207216e-01, 2.92427272e-01 ]
      - [ 5.37049592e-01, 2.16324046e-01, 1.83679223e-01, 2.15891123e-01,
          2.62695342e-01, 3.55707854e-01 ]
      - [ 9.35409069e-01, 1.93192840e-01, 1.68275863e-01, 2.01933384e-01,
          2.42663369e-01, 3.27436090e-01 ]
      - [ 9.35409069e-01, 1.98119879e-01, 1.75766677e-01, 2.08471492e-01,
          2.48045325e-01, 3.30431402e-01 ]
      - [ 9.35409069e-01, 1.98183134e-01, 1.77745745e-01, 2.11349100e-01,
          2.52534270e-01, 3.32711756e-01 ]
      - [ 9.35409069e-01, 2.00949207e-01, 1.81801096e-01, 2.14591980e-01,
          2.54786909e-01, 3.33079040e-01 ]
      - [ 9.35409069e-01, 2.03040361e-01, 1.84958577e-01, 2.16983959e-01,
          2.56248176e-01, 3.32774520e-01 ]
      - [ 9.35409069e-01, 2.04602510e-01, 1.87433198e-01, 2.18734622e-01,
          2.57120222e-01, 3.31983387e-01 ]
      - [ 5.37049592e-01, 2.20632702e-01, 1.94635957e-01, 2.26488918e-01,
          2.84095138e-01, 3.73963326e-01 ]
      - [ 9.35409069e-01, 2.20360637e-01, 1.93631381e-01, 2.25329027e-01,
          2.81418443e-01, 3.72730494e-01 ]
      - [ 9.35409069e-01, 2.13469759e-01, 1.75022021e-01, 2.01890796e-01,
          2.51789361e-01, 3.40057105e-01 ]
      - [ 9.35409069e-01, 2.25385696e-01, 1.95118830e-01, 2.25269541e-01,
          2.82212168e-01, 3.71977329e-01 ]
      - [ 9.35409069e-01, 2.24875778e-01, 1.98023945e-01, 2.28718370e-01,
          2.82268375e-01, 3.73063296e-01 ]
      - [ 5.37049592e-01, 2.27597997e-01, 1.95487559e-01, 2.26026088e-01,
          2.85834998e-01, 3.76265526e-01 ]
      - [ 9.35409069e-01, 1.77662820e-01, 1.59156024e-01, 1.59156024e-01,
          1.77662820e-01, 2.16516092e-01 ]
      - [ 5.37049592e-01, 1.98032975e-01, 1.78821206e-01, 2.06525326e-01,
          2.43362471e-01, 3.20590109e-01 ]
      - [ 9.35409069e-01, 0., 0., 0., 0., 0. ]
      - [ 5.37049592e-01, 1.22477964e-01, 1.22477964e-01, 1.22477964e-01,
          1.22477964e-01, 1.22477964e-01 ]
      - [ 5.37049592e-01, 2.16636479e-01, 1.71137676e-01, 2.03434452e-01,
          2.70861030e-01, 3.66691977e-01 ]
      - [ 9.35409069e-01, 8.09502900e-02, 8.09502900e-02, 8.09502900e-02,
          8.09502900e-02, 8.09502900e-02 ]
      - [ 9.35409069e-01, 9.67910886e-02, 9.67910886e-02, 9.67910886e-02,
          9.67910886e-02, 9.67910886e-02 ]
      - [ 9.35409069e-01, 9.96679962e-02, 9.96679962e-02, 9.96679962e-02,
          9.96679962e-02, 9.96679962e-02 ]
      - [ 9.35409069e-01, 9.82052684e-02, 9.82052684e-02, 9.82052684e-02,
          9.82052684e-02, 9.82052684e-02 ]
      - [ 9.35409069e-01, 9.51546431e-02, 9.51546431e-02, 9.51546431e-02,
          9.51546431e-02, 9.51546431e-02 ]
      - [ 9.35409069e-01, 9.15723294e-02, 9.15723294e-02, 9.15723294e-02,
          9.15723294e-02, 9.15723294e-02 ]
      - [ 9.35409069e-01, 2.26272851e-01, 1.96228832e-01, 2.24910080e-01,
          2.63204634e-01, 3.39966387e-01 ]
      - [ 9.35409069e-01, 2.36286983e-01, 1.97381154e-01, 2.34962404e-01,
          2.62789130e-01, 3.46759558e-01 ]
      - [ 9.35409069e-01, 2.45871022e-01, 1.98159084e-01, 2.44582862e-01,
          2.62080759e-01, 3.53276938e-01 ]
      - [ 5.37049592e-01, 2.06730232e-01, 1.66168630e-01, 1.86299011e-01,
          2.43517712e-01, 3.13610494e-01 ]
      - [ 9.35409069e-01, 2.25722298e-01, 1.90932751e-01, 2.14565307e-01,
          2.66726166e-01, 3.50061208e-01 ]
      - [ 9.35409069e-01, 2.30402917e-01, 1.89595819e-01, 2.09708259e-01,
          2.64178216e-01, 3.39054763e-01 ]
      - [ 9.35409069e-01, 2.32349232e-01, 1.92953750e-01, 2.11963609e-01,
          2.63941139e-01, 3.35969299e-01 ]
      - [ 9.35409069e-01, 2.37278998e-01, 1.98706016e-01, 2.17319503e-01,
          2.68209845e-01, 3.38740677e-01 ]
      - [ 9.35409069e-01, 2.36688867e-01, 2.03293532e-01, 2.29268059e-01,
          2.91233748e-01, 3.71055275e-01 ]
      - [ 9.35409069e-01, 2.36247703e-01, 2.07406715e-01, 2.33046263e-01,
          2.94207662e-01, 3.72998685e-01 ]
      - [ 9.35409069e-01, 2.35767663e-01, 2.10646644e-01, 2.35968053e-01,
          2.96370298e-01, 3.74198198e-01 ]
      - [ 9.35409069e-01, 2.35252485e-01, 2.13319570e-01, 2.38335937e-01,
          2.98013210e-01, 3.74927372e-01 ]
      - [ 9.35409069e-01, 2.34705552e-01, 2.15574294e-01, 2.40296751e-01,
          2.99277633e-01, 3.75318199e-01 ]
      - [ 9.35409069e-01, 2.34129891e-01, 2.17500120e-01, 2.41938561e-01,
          3.00247997e-01, 3.75449300e-01 ]
      - [ 9.35409069e-01, 1.75931260e-01, 1.86170876e-01, 2.22174227e-01,
          2.18388543e-01, 3.18583339e-01 ]
      - [ 5.37049592e-01, 9.96679962e-02, 9.96679962e-02, 9.96679962e-02,
          9.96679962e-02, 9.96679962e-02 ]
      - [ 9.35409069e-01, 9.96679962e-02, 9.96679962e-02, 9.96679962e-02,
          9.96679962e-02, 9.96679962e-02 ]
      - [ 5.37049592e-01, 2.33379588e-01, 1.91940099e-01, 2.27214441e-01,
          2.85281003e-01, 3.83091927e-01 ]
      - [ 9.35409069e-01, 1.96880087e-01, 1.69190526e-01, 1.69190526e-01,
          1.96880087e-01, 2.52588540e-01 ]
      - [ 9.35409069e-01, 2.13260144e-01, 1.78448558e-01, 1.99399173e-01,
          2.54578710e-01, 3.31625462e-01 ]
      - [ 5.37049592e-01, 2.10523769e-01, 1.50557399e-01, 1.74142554e-01,
          2.60893762e-01, 3.30975920e-01 ]
      - [ 5.37049592e-01, 2.02018484e-01, 1.82724565e-01, 2.12365940e-01,
          2.44830161e-01, 3.38047773e-01 ]
      - [ 9.35409069e-01, 1.57182261e-01, 1.57182261e-01, 1.57182261e-01,
          1.57182261e-01, 1.57182261e-01 ]
      - [ 9.35409069e-01, 1.97375327e-01, 1.48885027e-01, 1.97375327e-01,
          1.48885027e-01, 1.97375327e-01 ]
      - [ 9.35409069e-01, 2.28108093e-01, 1.36242568e-01, 2.28108093e-01,
          1.36242568e-01, 2.28108093e-01 ]
      - [ 5.37049592e-01, 2.27853268e-01, 1.87404096e-01, 2.24572152e-01,
          2.74644285e-01, 3.75002414e-01 ]
      - [ 5.37049592e-01, 2.11058140e-01, 1.83011055e-01, 2.15509117e-01,
          2.55350620e-01, 3.57398897e-01 ]
      - [ 5.37049592e-01, 1.60059169e-01, 1.28427044e-01, 1.36732370e-01,
          1.71678692e-01, 2.10966900e-01 ]
      - [ 9.35409069e-01, 2.00246692e-01, 1.53272241e-01, 1.75995842e-01,
          2.33037367e-01, 3.05209428e-01 ]
      - [ 9.35409069e-01, 2.19137594e-01, 1.71038941e-01, 1.95339918e-01,
          2.56837696e-01, 3.33416343e-01 ]
      - [ 5.37049592e-01, 2.47306347e-01, 2.04252973e-01, 2.37091154e-01,
          2.95864135e-01, 3.88884604e-01 ]
      - [ 9.35409069e-01, 2.21394971e-01, 1.76927835e-01, 2.02585995e-01,
          2.65522063e-01, 3.44219863e-01 ]
      - [ 9.35409069e-01, 1.54018283e-01, 1.34819329e-01, 1.34819329e-01,
          1.54018283e-01, 1.82740182e-01 ]
      - [ 5.37049592e-01, 2.19732553e-01, 1.71093449e-01, 1.91621915e-01,
          2.62897223e-01, 3.40471447e-01 ]
      - [ 5.37049592e-01, 2.20097810e-01, 1.74920321e-01, 2.08827570e-01,
          2.70910263e-01, 3.69139731e-01 ]
      - [ 9.35409069e-01, 2.41677642e-01, 2.02844560e-01, 2.40938261e-01,
          2.93591231e-01, 3.93017322e-01 ]
      - [ 9.35409069e-01, 2.42303878e-01, 2.03659981e-01, 2.42942512e-01,
          2.95325279e-01, 3.94766986e-01 ]
      - [ 5.37049592e-01, 1.99592203e-01, 1.69448689e-01, 1.95812225e-01,
          2.53563821e-01, 3.35461527e-01 ]
      - [ 5.37049592e-01, 1.55326098e-01, 1.27712950e-01, 1.40800744e-01,
          1.79364860e-01, 2.17395782e-01 ]
      - [ 9.35409069e-01, 2.02512279e-01, 1.59789056e-01, 1.70953706e-01,
          2.18440190e-01, 2.73229808e-01 ]
      - [ 9.35409069e-01, 2.17819706e-01, 1.77066535e-01, 1.87719375e-01,
          2.33006358e-01, 2.85229981e-01 ]
      - [ 9.35409069e-01, 2.24774480e-01, 1.85716406e-01, 2.03311950e-01,
          2.39330336e-01, 2.96430886e-01 ]
      - [ 9.35409069e-01, 2.26593688e-01, 1.99066177e-01, 2.24681079e-01,
          2.40101263e-01, 3.10317427e-01 ]
      - [ 9.35409069e-01, 2.44136021e-01, 2.03610823e-01, 2.42174536e-01,
          2.95151830e-01, 3.91643018e-01 ]
      - [ 9.35409069e-01, 2.50652909e-01, 2.11960644e-01, 2.49329358e-01,
          3.00799012e-01, 3.97276729e-01 ]
      - [ 9.35409069e-01, 2.43571430e-01, 2.09475234e-01, 2.47354373e-01,
          2.98016042e-01, 3.96864563e-01 ]
      - [ 5.37049592e-01, 2.47483686e-01, 2.13684097e-01, 2.51233369e-01,
          3.01443815e-01, 3.99393618e-01 ]
      - [ 9.35409069e-01, 1.80526435e-01, 1.48744971e-01, 1.66850910e-01,
          2.09572971e-01, 2.76892513e-01 ]
      - [ 9.35409069e-01, 1.81487769e-01, 1.50821790e-01, 1.70048505e-01,
          2.14895055e-01, 2.81666905e-01 ]
      - [ 5.37049592e-01, 1.87988922e-01, 1.48210019e-01, 1.68300763e-01,
          2.25513488e-01, 2.90415764e-01 ]
      - [ 9.35409069e-01, 1.92145675e-01, 1.91606253e-01, 2.13948950e-01,
          2.21453279e-01, 3.16747040e-01 ]
      - [ 9.35409069e-01, 2.27077425e-01, 1.90807447e-01, 2.22852319e-01,
          2.75189281e-01, 3.71314675e-01 ]
      - [ 9.35409069e-01, 1.84605643e-01, 1.63198277e-01, 1.90987363e-01,
          2.28588894e-01, 3.04178208e-01 ]
      - [ 9.35409069e-01, 2.15192631e-01, 1.85285941e-01, 2.08268076e-01,
          2.55853325e-01, 3.36150706e-01 ]
      - [ 5.37049592e-01, 2.22123757e-01, 1.79115564e-01, 2.11641476e-01,
          2.76850522e-01, 3.71409118e-01 ]
      - [ 9.35409069e-01, 2.39061028e-01, 1.98010221e-01, 2.29120910e-01,
          2.87303835e-01, 3.76975060e-01 ]
      - [ 9.35409069e-01, 2.41386712e-01, 2.00606555e-01, 2.31512532e-01,
          2.90308148e-01, 3.79311532e-01 ]
      - [ 5.37049592e-01, 1.73235163e-01, 1.73235163e-01, 1.73235163e-01,
          1.73235163e-01, 1.73235163e-01 ]
      - [ 9.35409069e-01, 2.22781166e-01, 1.91196859e-01, 2.24340171e-01,
          2.72770494e-01, 3.75226170e-01 ]
      - [ 5.37049592e-01, 2.22133175e-01, 1.92963779e-01, 2.28138626e-01,
          2.71223366e-01, 3.75355691e-01 ]
      - [ 9.35409069e-01, 1.88290179e-01, 1.73235163e-01, 1.73235163e-01,
          1.88290179e-01, 2.21278474e-01 ]
      - [ 5.37049592e-01, 2.35998541e-01, 2.00754568e-01, 2.34104052e-01,
          2.89023489e-01, 3.86764854e-01 ]
      - [ 9.35409069e-01, 2.03343481e-01, 1.73613518e-01, 2.01524645e-01,
          2.44547889e-01, 3.32892597e-01 ]
      - [ 5.37049592e-01, 2.08696231e-01, 1.84621796e-01, 2.02123210e-01,
          2.08696231e-01, 2.77097195e-01 ]
      - [ 5.37049592e-01, 2.14946479e-01, 1.80435017e-01, 2.13360205e-01,
          2.64957041e-01, 3.63588244e-01 ]
      - [ 9.35409069e-01, 9.96679962e-02, 9.96679962e-02, 9.96679962e-02,
          9.96679962e-02, 9.96679962e-02 ]
      - [ 9.35409069e-01, 2.09513128e-01, 1.64397120e-01, 1.75020278e-01,
          2.09513128e-01, 2.62518615e-01 ]
      - [ 9.35409069e-01, 2.05022275e-01, 1.69747159e-01, 2.00585529e-01,
          2.56559253e-01, 3.40522140e-01 ]
      - [ 9.35409069e-01, 2.09459797e-01, 1.71844468e-01, 2.02557772e-01,
          2.61183292e-01, 3.45326453e-01 ]
      - [ 9.35409069e-01, 1.99522316e-01, 1.80333048e-01, 2.07864210e-01,
          2.42591590e-01, 3.27225417e-01 ]
      - [ 9.35409069e-01, 2.19433084e-01, 1.89435318e-01, 2.14732453e-01,
          2.59375811e-01, 3.42281073e-01 ]
      - [ 5.37049592e-01, 2.27330476e-01, 1.96150690e-01, 2.27671385e-01,
          2.78262526e-01, 3.70343804e-01 ]
      - [ 9.35409069e-01, 1.86870158e-01, 1.67962164e-01, 1.67962164e-01,
          1.86870158e-01, 2.34144598e-01 ]
      - [ 5.37049592e-01, 2.12214157e-01, 1.80557132e-01, 2.09633857e-01,
          2.57670283e-01, 3.55453104e-01 ]
      - [ 9.35409069e-01, 2.25117207e-01, 1.88520312e-01, 2.20378697e-01,
          2.73470044e-01, 3.69594604e-01 ]
      - [ 9.35409069e-01, 2.28562981e-01, 1.92365661e-01, 2.23876461e-01,
          2.76382625e-01, 3.71447325e-01 ]
      - [ 9.35409069e-01, 2.14060649e-01, 1.70495361e-01, 2.01093331e-01,
          2.59035885e-01, 3.46164644e-01 ]
      - [ 5.37049592e-01, 2.27083862e-01, 1.85142130e-01, 2.14722082e-01,
          2.75745660e-01, 3.66980910e-01 ]
      - [ 9.35409069e-01, 2.32273370e-01, 1.94441766e-01, 2.26416901e-01,
          2.81636089e-01, 3.75210345e-01 ]
      - [ 9.35409069e-01, 2.25811854e-01, 1.86243802e-01, 2.08306670e-01,
          2.57586151e-01, 3.42916071e-01 ]
      - [ 9.35409069e-01, 2.32846722e-01, 1.93897843e-01, 2.17854157e-01,
          2.61014521e-01, 3.45743775e-01 ]
      - [ 9.35409069e-01, 2.42350668e-01, 2.06531823e-01, 2.28720218e-01,
          2.59620011e-01, 3.55685323e-01 ]
      - [ 9.35409069e-01, 2.54400134e-01, 2.09672004e-01, 2.31093675e-01,
          2.60934949e-01, 3.63249153e-01 ]
      - [ 5.37049592e-01, 2.17840523e-01, 1.72873110e-01, 2.06390306e-01,
          2.67719984e-01, 3.64862561e-01 ]
      - [ 9.35409069e-01, 1.79459319e-01, 1.74807280e-01, 1.74807280e-01,
          1.79459319e-01, 2.40006477e-01 ]
      - [ 9.35409069e-01, 1.90143988e-01, 1.83117554e-01, 1.92872882e-01,
          2.06952348e-01, 2.73071975e-01 ]
      - [ 9.35409069e-01, 2.26790011e-01, 1.97231457e-01, 2.31836990e-01,
          2.77728081e-01, 3.76804650e-01 ]
      - [ 9.35409069e-01, 2.08174810e-01, 1.79736167e-01, 2.10513517e-01,
          2.58041084e-01, 3.39285702e-01 ]
      - [ 5.37049592e-01, 2.33688265e-01, 2.04691991e-01, 2.38491237e-01,
          2.74143785e-01, 3.72015357e-01 ]
      - [ 9.35409069e-01, 2.36106008e-01, 2.01560766e-01, 2.35233381e-01,
          2.81838030e-01, 3.79764974e-01 ]
      - [ 9.35409069e-01, 2.39920586e-01, 2.05845803e-01, 2.39059880e-01,
          2.85026342e-01, 3.81621718e-01 ]
      - [ 9.35409069e-01, 2.42496014e-01, 2.10974604e-01, 2.44852036e-01,
          2.85717994e-01, 3.86466146e-01 ]
      - [ 9.35409069e-01, 1.91793606e-01, 1.78698793e-01, 1.91609293e-01,
          2.32700139e-01, 3.05552244e-01 ]
      - [ 5.37049592e-01, 2.19483957e-01, 1.71887711e-01, 1.98709816e-01,
          2.66303539e-01, 3.48227501e-01 ]
      - [ 5.37049592e-01, 2.13842764e-01, 1.81240365e-01, 2.13899121e-01,
          2.61496603e-01, 3.62612456e-01 ]
      - [ 9.35409069e-01, 2.14619920e-01, 1.79633349e-01, 2.12502837e-01,
          2.61661321e-01, 3.59146655e-01 ]
      - [ 9.35409069e-01, 2.14805692e-01, 1.78750306e-01, 2.09323719e-01,
          2.56427974e-01, 3.49411249e-01 ]
      - [ 9.35409069e-01, 1.90918759e-01, 1.57596692e-01, 1.79374948e-01,
          2.23274544e-01, 2.98737884e-01 ]
      - [ 5.37049592e-01, 1.91723943e-01, 1.63444936e-01, 1.87242702e-01,
          2.21617520e-01, 3.00080031e-01 ]
      - [ 9.35409069e-01, 2.06147000e-01, 1.69733465e-01, 1.95556894e-01,
          2.42101580e-01, 3.27270716e-01 ]
      - [ 9.35409069e-01, 2.11020216e-01, 1.78116769e-01, 2.07429722e-01,
          2.49659762e-01, 3.39947253e-01 ]
      - [ 5.37049592e-01, 9.82052684e-02, 1.82180479e-01, 2.09653154e-01,
          9.82052684e-02, 2.09653154e-01 ]
      - [ 5.37049592e-01, 2.07291499e-01, 1.77511483e-01, 2.04075739e-01,
          2.46382535e-01, 3.35544169e-01 ]
      - [ 9.35409069e-01, 1.85619071e-01, 1.35935813e-01, 1.46655619e-01,
          2.12677866e-01, 2.51689494e-01 ]
      - [ 5.37049592e-01, 2.22088605e-01, 1.79285273e-01, 1.99900433e-01,
          2.65551180e-01, 3.41878355e-01 ]
      - [ 9.35409069e-01, 1.82180479e-01, 1.37011230e-01, 1.37011230e-01,
          1.82180479e-01, 1.82180479e-01 ]
      - [ 5.37049592e-01, 2.10142687e-01, 1.56590715e-01, 1.56590715e-01,
          2.10142687e-01, 2.51576453e-01 ]
      - [ 5.37049592e-01, 2.02189684e-01, 1.62776276e-01, 1.89561605e-01,
          2.40438908e-01, 3.26693863e-01 ]
      - [ 5.37049592e-01, 2.25778162e-01, 1.86454818e-01, 2.20302790e-01,
          2.77958363e-01, 3.73655498e-01 ]
      - [ 9.35409069e-01, 2.11180344e-01, 1.90825328e-01, 2.09915251e-01,
          2.31619149e-01, 3.21994811e-01 ]
      - [ 5.37049592e-01, 2.25978211e-01, 1.77460879e-01, 2.10070267e-01,
          2.79924124e-01, 3.73860419e-01 ]
      - [ 9.35409069e-01, 2.15600058e-01, 1.81295365e-01, 2.04822525e-01,
          2.49617249e-01, 3.36703569e-01 ]
      - [ 5.37049592e-01, 2.33215049e-01, 1.81881338e-01, 2.15313315e-01,
          2.85901606e-01, 3.80240113e-01 ]
      - [ 5.37049592e-01, 2.18555272e-01, 1.74315080e-01, 2.09884256e-01,
          2.74425566e-01, 3.74612808e-01 ]
      - [ 9.35409069e-01, 1.94712475e-01, 1.52138278e-01, 1.52138278e-01,
          1.94712475e-01, 2.36565426e-01 ]
      - [ 5.37049592e-01, 1.96061775e-01, 1.65236697e-01, 1.92056611e-01,
          2.44797841e-01, 3.21660787e-01 ]
      - [ 9.35409069e-01, 2.53639013e-01, 2.33262405e-01, 2.58127302e-01,
          2.92067587e-01, 3.70600373e-01 ]
      - [ 9.35409069e-01, 2.59995878e-01, 2.29460657e-01, 2.59461194e-01,
          3.01952869e-01, 3.85052621e-01 ]
      - [ 5.37049592e-01, 2.18474716e-01, 1.77392334e-01, 2.12433502e-01,
          2.71120578e-01, 3.72368276e-01 ]
      - [ 5.37049592e-01, 2.06714839e-01, 1.65725157e-01, 1.95765093e-01,
          2.53753483e-01, 3.43814373e-01 ]
      - [ 9.35409069e-01, 1.15164734e-01, 1.34851500e-01, 1.34851500e-01,
          1.15164734e-01, 1.34851500e-01 ]
      - [ 5.37049592e-01, 2.10286602e-01, 1.78232342e-01, 2.12713122e-01,
          2.58255243e-01, 3.59556437e-01 ]
      - [ 9.35409069e-01, 2.13532463e-01, 1.82499960e-01, 2.16683850e-01,
          2.61103481e-01, 3.62725437e-01 ]
      - [ 9.35409069e-01, 2.13402212e-01, 1.77929312e-01, 2.09560871e-01,
          2.54110575e-01, 3.49937350e-01 ]
      - [ 9.35409069e-01, 2.22025737e-01, 1.85270280e-01, 2.15726793e-01,
          2.65933990e-01, 3.57845664e-01 ]
      - [ 9.35409069e-01, 2.29469210e-01, 1.88413709e-01, 2.14152142e-01,
          2.73360103e-01, 3.56544375e-01 ]
      - [ 9.35409069e-01, 2.34370574e-01, 1.94142848e-01, 2.19362915e-01,
          2.77373940e-01, 3.58892441e-01 ]
      - [ 5.37049592e-01, 2.36329600e-01, 1.96486846e-01, 2.26565436e-01,
          2.85942972e-01, 3.75819772e-01 ]
      - [ 5.37049592e-01, 2.47049198e-01, 2.11818561e-01, 2.48552471e-01,
          2.94219047e-01, 3.91199410e-01 ]
      - [ 5.37049592e-01, 2.08729982e-01, 1.60284057e-01, 1.79907456e-01,
          2.36570954e-01, 3.09020191e-01 ]
      - [ 9.35409069e-01, 9.96679962e-02, 9.96679962e-02, 9.96679962e-02,
          9.96679962e-02, 9.96679962e-02 ]
      - [ 5.37049592e-01, 1.96591526e-01, 1.47733495e-01, 1.73937112e-01,
          2.50096858e-01, 3.22735637e-01 ]
      - [ 9.35409069e-01, 1.90637842e-01, 1.50726259e-01, 1.76414341e-01,
          2.38691628e-01, 3.08723092e-01 ]
      - [ 5.37049592e-01, 1.82573780e-01, 1.93620920e-01, 2.12794334e-01,
          1.82573780e-01, 2.58634001e-01 ]
      - [ 9.35409069e-01, 2.20595762e-01, 1.84878170e-01, 2.17936397e-01,
          2.67896473e-01, 3.67824107e-01 ]
      - [ 9.35409069e-01, 2.22781390e-01, 1.88914642e-01, 2.21719310e-01,
          2.71285892e-01, 3.70402008e-01 ]
      - [ 9.35409069e-01, 2.24664882e-01, 1.91312790e-01, 2.23888934e-01,
          2.73107022e-01, 3.71526867e-01 ]
      - [ 9.35409069e-01, 2.26323307e-01, 1.94117531e-01, 2.26461783e-01,
          2.75324643e-01, 3.73028576e-01 ]
      - [ 9.35409069e-01, 2.16270790e-01, 1.56079799e-01, 1.68717727e-01,
          2.37176031e-01, 2.91075200e-01 ]
      - [ 9.35409069e-01, 2.19806701e-01, 1.73647612e-01, 1.84864759e-01,
          2.45175853e-01, 2.97350764e-01 ]
      - [ 9.35409069e-01, 2.24023104e-01, 1.82066530e-01, 1.99494302e-01,
          2.50912726e-01, 3.07405680e-01 ]
      - [ 9.35409069e-01, 2.26558462e-01, 1.87633529e-01, 2.13227227e-01,
          2.54053891e-01, 3.16877961e-01 ]
      - [ 9.35409069e-01, 2.34839857e-01, 1.97680011e-01, 2.32632264e-01,
          2.82491684e-01, 3.80586833e-01 ]
      - [ 5.37049592e-01, 2.34677374e-01, 1.94509670e-01, 2.29858518e-01,
          2.85238087e-01, 3.83297265e-01 ]
      - [ 9.35409069e-01, 2.15600058e-01, 1.82649180e-01, 2.08877176e-01,
          2.49617249e-01, 3.40453863e-01 ]
      - [ 5.37049592e-01, 2.22850889e-01, 1.85525402e-01, 2.17046529e-01,
          2.66959459e-01, 3.59871894e-01 ]
      - [ 9.35409069e-01, 1.96548492e-01, 1.63084790e-01, 1.88330293e-01,
          2.30859384e-01, 3.09271455e-01 ]
      - [ 9.35409069e-01, 2.01757282e-01, 1.68893099e-01, 1.93686813e-01,
          2.35448718e-01, 3.12441945e-01 ]
      - [ 9.35409069e-01, 2.12152168e-01, 1.81384504e-01, 2.03320667e-01,
          2.44737610e-01, 3.16915393e-01 ]
      - [ 9.35409069e-01, 2.13881567e-01, 1.83237016e-01, 2.05711648e-01,
          2.46334404e-01, 3.18800181e-01 ]
      - [ 9.35409069e-01, 2.15365350e-01, 1.84840173e-01, 2.08086088e-01,
          2.47690111e-01, 3.20671558e-01 ]
      - [ 5.37049592e-01, 2.16415703e-01, 1.66557044e-01, 1.90558091e-01,
          2.52301186e-01, 3.34859133e-01 ]
      - [ 9.35409069e-01, 1.94200978e-01, 1.76525399e-01, 2.02845648e-01,
          2.36240238e-01, 3.20285022e-01 ]
      - [ 5.37049592e-01, 2.22445041e-01, 1.86850458e-01, 2.18424961e-01,
          2.65011877e-01, 3.60973507e-01 ]
      - [ 5.37049592e-01, 2.25765184e-01, 1.86108187e-01, 2.19395831e-01,
          2.76204079e-01, 3.73953700e-01 ]
      - [ 9.35409069e-01, 1.96651474e-01, 1.74084350e-01, 2.06693724e-01,
          2.30572343e-01, 3.18508804e-01 ]
      - [ 9.35409069e-01, 2.02831045e-01, 1.82217047e-01, 2.12893873e-01,
          2.33694404e-01, 3.18792164e-01 ]
      - [ 5.37049592e-01, 2.34572113e-01, 1.97169766e-01, 2.29821011e-01,
          2.81766087e-01, 3.78809124e-01 ]
      - [ 9.35409069e-01, 1.53565243e-01, 1.63926333e-01, 1.79848641e-01,
          1.94545627e-01, 2.54944235e-01 ]
      - [ 9.35409069e-01, 1.42682388e-01, 1.36463314e-01, 1.57879680e-01,
          1.78612366e-01, 2.23497480e-01 ]
      - [ 5.37049592e-01, 1.79405570e-01, 1.49974927e-01, 1.68233350e-01,
          2.07107484e-01, 2.72454351e-01 ]
      - [ 9.35409069e-01, 1.81599170e-01, 1.53903693e-01, 1.75070688e-01,
          2.15807796e-01, 2.84921706e-01 ]
      - [ 9.35409069e-01, 1.87195882e-01, 1.77534848e-01, 2.06117615e-01,
          2.32590422e-01, 3.23852986e-01 ]
      - [ 5.37049592e-01, 2.28527069e-01, 1.79081172e-01, 2.11163729e-01,
          2.79472411e-01, 3.71418178e-01 ]
      - [ 9.35409069e-01, 1.81603029e-01, 1.56768799e-01, 1.78419247e-01,
          2.12922245e-01, 2.85079718e-01 ]
      - [ 9.35409069e-01, 1.76546589e-01, 1.93446115e-01, 2.09436059e-01,
          2.02615485e-01, 2.78023630e-01 ]
      - [ 9.35409069e-01, 2.22254753e-01, 1.93850338e-01, 2.26470828e-01,
          2.53833622e-01, 3.51685673e-01 ]
      - [ 5.37049592e-01, 2.23685458e-01, 1.91693425e-01, 2.25665510e-01,
          2.67760575e-01, 3.69633049e-01 ]
      - [ 9.35409069e-01, 2.27826163e-01, 1.90608770e-01, 2.24447176e-01,
          2.73848414e-01, 3.74720782e-01 ]
      - [ 9.35409069e-01, 2.30674103e-01, 1.93255961e-01, 2.26819307e-01,
          2.75816023e-01, 3.76322806e-01 ]
      - [ 9.35409069e-01, 2.32985869e-01, 1.95540518e-01, 2.28837535e-01,
          2.77443975e-01, 3.77453715e-01 ]
      - [ 5.37049592e-01, 2.20374823e-01, 1.79245085e-01, 2.14091659e-01,
          2.73975372e-01, 3.73441130e-01 ]
      - [ 5.37049592e-01, 0., 0., 0., 0., 0. ]
      - [ 9.35409069e-01, 2.08913833e-01, 1.63527936e-01, 1.91178396e-01,
          2.48333290e-01, 3.32081407e-01 ]
      - [ 9.35409069e-01, 2.10589558e-01, 1.66710287e-01, 1.94090754e-01,
          2.50349939e-01, 3.33391517e-01 ]
      - [ 5.37049592e-01, 1.48885027e-01, 1.48885027e-01, 1.48885027e-01,
          1.48885027e-01, 1.48885027e-01 ]
      - [ 9.35409069e-01, 2.29709730e-01, 2.06893429e-01, 2.06893429e-01,
          2.29709730e-01, 2.45341480e-01 ]
      - [ 5.37049592e-01, 2.19722301e-01, 1.68056756e-01, 1.99838102e-01,
          2.71220803e-01, 3.64658892e-01 ]
      - [ 5.37049592e-01, 2.08192170e-01, 1.63761601e-01, 1.96669772e-01,
          2.66642928e-01, 3.55363131e-01 ]
      - [ 5.37049592e-01, 2.17748255e-01, 1.77151352e-01, 2.03057617e-01,
          2.63775468e-01, 3.51720095e-01 ]
      - [ 9.35409069e-01, 2.45863751e-01, 1.96879506e-01, 2.10776255e-01,
          2.61842191e-01, 3.26753408e-01 ]
      - [ 5.37049592e-01, 2.39161000e-01, 2.17175588e-01, 2.37495810e-01,
          2.59257823e-01, 3.39006543e-01 ]
      - [ 5.37049592e-01, 2.26740763e-01, 1.87808394e-01, 2.22818822e-01,
          2.77385622e-01, 3.78140986e-01 ]
      - [ 5.37049592e-01, 2.32665002e-01, 1.99247465e-01, 2.36582026e-01,
          2.83915490e-01, 3.87622178e-01 ]
      - [ 5.37049592e-01, 2.30365291e-01, 1.72020718e-01, 2.00888917e-01,
          2.83512861e-01, 3.67966920e-01 ]
      - [ 9.35409069e-01, 2.10910797e-01, 1.76154092e-01, 2.07719758e-01,
          2.58997262e-01, 3.55516106e-01 ]
      - [ 5.37049592e-01, 0., 0., 0., 0., 0. ]
      - [ 5.37049592e-01, 2.13261753e-01, 1.75305545e-01, 2.08766967e-01,
          2.61868984e-01, 3.61567646e-01 ]
      - [ 9.35409069e-01, 1.82573780e-01, 1.93620920e-01, 1.93620920e-01,
          1.82573780e-01, 2.39877313e-01 ]
      - [ 9.35409069e-01, 1.80501595e-01, 1.87383488e-01, 1.87383488e-01,
          1.80501595e-01, 2.35140637e-01 ]
      - [ 5.37049592e-01, 1.80700988e-01, 1.48038805e-01, 1.66316256e-01,
          2.08985850e-01, 2.73120791e-01 ]
      - [ 5.37049592e-01, 2.15929732e-01, 1.79369792e-01, 2.13033110e-01,
          2.66776979e-01, 3.67802113e-01 ]
      - [ 5.37049592e-01, 2.10757092e-01, 1.68098956e-01, 2.09539473e-01,
          2.81432629e-01, 3.81443202e-01 ]
      - [ 5.37049592e-01, 2.22582400e-01, 1.91031009e-01, 2.31260717e-01,
          2.80524015e-01, 3.81680012e-01 ]
      - [ 5.37049592e-01, 2.07031235e-01, 1.73358843e-01, 2.16133237e-01,
          2.69490778e-01, 3.75013292e-01 ]
      - [ 5.37049592e-01, 2.03859925e-01, 1.59242004e-01, 1.95975319e-01,
          2.73637503e-01, 3.61988515e-01 ]
      - [ 9.35409069e-01, 1.93498135e-01, 1.57786667e-01, 1.86563432e-01,
          2.40407243e-01, 3.23808104e-01 ]
      - [ 5.37049592e-01, 2.00293526e-01, 1.62390336e-01, 1.93491101e-01,
          2.48355672e-01, 3.35784674e-01 ]
      - [ 5.37049592e-01, 2.25098103e-01, 1.83546185e-01, 2.23552719e-01,
          2.90789008e-01, 3.84966999e-01 ]
      - [ 5.37049592e-01, 2.14163795e-01, 1.66094035e-01, 2.03191742e-01,
          2.77306259e-01, 3.73082280e-01 ]
      - [ 9.35409069e-01, 2.16093943e-01, 1.89720467e-01, 2.34775752e-01,
          2.80676901e-01, 3.87733281e-01 ]
      - [ 9.35409069e-01, 2.18926787e-01, 1.93890721e-01, 2.38560900e-01,
          2.83693135e-01, 3.90458912e-01 ]
      - [ 5.37049592e-01, 2.09179863e-01, 1.72842309e-01, 2.16466576e-01,
          2.76124358e-01, 3.81575435e-01 ]
      - [ 5.37049592e-01, 2.15386242e-01, 1.69181019e-01, 2.09762722e-01,
          2.82013535e-01, 3.80882680e-01 ]
      - [ 5.37049592e-01, 1.99363008e-01, 1.75227627e-01, 2.23912179e-01,
          2.65869707e-01, 3.76237035e-01 ]
      - [ 9.35409069e-01, 2.10392997e-01, 1.81452572e-01, 2.27795348e-01,
          2.76330322e-01, 3.85807097e-01 ]
      - [ 5.37049592e-01, 1.90440014e-01, 1.73866346e-01, 2.10669309e-01,
          2.56108373e-01, 3.48805279e-01 ]
      - [ 5.37049592e-01, 2.15711981e-01, 1.75775051e-01, 2.17435062e-01,
          2.80035615e-01, 3.84215683e-01 ]
      - [ 9.35409069e-01, 2.01545253e-01, 1.92462310e-01, 2.26601288e-01,
          2.20806465e-01, 3.27017456e-01 ]
      - [ 5.37049592e-01, 2.14952722e-01, 1.70484394e-01, 2.11041451e-01,
          2.81938076e-01, 3.83445501e-01 ]
      - [ 5.37049592e-01, 2.07620457e-01, 1.66023478e-01, 2.02440977e-01,
          2.68875241e-01, 3.59832227e-01 ]
      - [ 9.35409069e-01, 2.30788574e-01, 1.97348431e-01, 2.40871966e-01,
          2.90665001e-01, 3.95176530e-01 ]
      - [ 5.37049592e-01, 2.09739029e-01, 1.72324002e-01, 2.01759979e-01,
          2.74768382e-01, 3.55972379e-01 ]
      - [ 5.37049592e-01, 2.22978219e-01, 1.82684764e-01, 2.19847530e-01,
          2.85105556e-01, 3.81887317e-01 ]
      - [ 5.37049592e-01, 1.16704337e-01, 1.02497399e-01, 1.07702404e-01,
          1.23849124e-01, 1.51612610e-01 ]
      - [ 5.37049592e-01, 2.09258422e-01, 1.67711481e-01, 1.75441802e-01,
          2.28472352e-01, 2.95222223e-01 ]
      - [ 5.37049592e-01, 2.07285881e-01, 1.66794717e-01, 2.03061372e-01,
          2.69073188e-01, 3.62126052e-01 ]
      - [ 5.37049592e-01, 1.28826320e-01, 1.28826320e-01, 1.28826320e-01,
          1.28826320e-01, 1.28826320e-01 ]
      - [ 9.35409069e-01, 2.29545340e-01, 2.13429004e-01, 2.46122465e-01,
          2.79696524e-01, 3.56435478e-01 ]
      - [ 5.37049592e-01, 2.10288569e-01, 1.75959989e-01, 2.15132713e-01,
          2.73475617e-01, 3.74845982e-01 ]
      - [ 5.37049592e-01, 2.14664221e-01, 1.67472020e-01, 2.05848247e-01,
          2.78953612e-01, 3.77037555e-01 ]
      - [ 5.37049592e-01, 2.08882898e-01, 1.72386929e-01, 2.11651608e-01,
          2.71473110e-01, 3.73922795e-01 ]
      - [ 5.37049592e-01, 1.37011230e-01, 1.37011230e-01, 1.37011230e-01,
          1.37011230e-01, 1.37011230e-01 ]
      - [ 9.35409069e-01, 1.72811091e-01, 1.46029100e-01, 1.72307476e-01,
          2.49528244e-01, 3.16795260e-01 ]
      - [ 9.35409069e-01, 2.37835422e-01, 1.95574537e-01, 2.39258543e-01,
          2.98624516e-01, 3.93188089e-01 ]
      - [ 9.35409069e-01, 2.39008471e-01, 1.98990598e-01, 2.42042407e-01,
          3.01711231e-01, 3.95823717e-01 ]
      - [ 9.35409069e-01, 2.39757463e-01, 2.00882182e-01, 2.46283874e-01,
          3.00926089e-01, 3.96965086e-01 ]
      - [ 9.35409069e-01, 2.41357639e-01, 2.02864587e-01, 2.47819990e-01,
          3.05119425e-01, 4.00019318e-01 ]
      - [ 9.35409069e-01, 2.41567314e-01, 2.03455925e-01, 2.51731247e-01,
          3.07338536e-01, 4.04395938e-01 ]
      - [ 9.35409069e-01, 2.42629334e-01, 2.03142881e-01, 2.50212133e-01,
          3.13875765e-01, 4.08074737e-01 ]
      - [ 9.35409069e-01, 2.42158026e-01, 2.05269292e-01, 2.56622165e-01,
          3.13879967e-01, 4.12673771e-01 ]
      - [ 9.35409069e-01, 2.43350983e-01, 2.06783041e-01, 2.57689834e-01,
          3.17613780e-01, 4.15348500e-01 ]
      - [ 9.35409069e-01, 2.46603280e-01, 2.08064497e-01, 2.61147678e-01,
          3.19291264e-01, 4.19153750e-01 ]
      - [ 9.35409069e-01, 2.47623056e-01, 2.09404632e-01, 2.62047172e-01,
          3.22864801e-01, 4.21694756e-01 ]
      - [ 9.35409069e-01, 2.49047861e-01, 2.11287916e-01, 2.66982734e-01,
          3.23637575e-01, 4.25678700e-01 ]
      - [ 9.35409069e-01, 2.49935284e-01, 2.12478131e-01, 2.67727286e-01,
          3.27090085e-01, 4.28105235e-01 ]
      - [ 9.35409069e-01, 2.51383901e-01, 2.14454979e-01, 2.72284418e-01,
          3.27275485e-01, 4.31670576e-01 ]
      - [ 5.37049592e-01, 2.55414873e-01, 2.18828157e-01, 2.76118815e-01,
          3.30585241e-01, 4.33972299e-01 ]
      - [ 9.35409069e-01, 2.56162792e-01, 2.19853535e-01, 2.76710987e-01,
          3.33846360e-01, 4.36241657e-01 ]
      - [ 9.35409069e-01, 2.56849289e-01, 2.21070305e-01, 2.81130016e-01,
          3.33849460e-01, 4.39732492e-01 ]
      - [ 9.35409069e-01, 2.57510960e-01, 2.21991226e-01, 2.81617373e-01,
          3.36983681e-01, 4.41889405e-01 ]
      - [ 9.35409069e-01, 2.58015096e-01, 2.22747684e-01, 2.85289109e-01,
          3.36676896e-01, 4.44152057e-01 ]
      - [ 9.35409069e-01, 2.58600384e-01, 2.23580733e-01, 2.85684824e-01,
          3.39725375e-01, 4.46232885e-01 ]
      - [ 9.35409069e-01, 2.54829854e-01, 2.20346987e-01, 2.82606721e-01,
          3.34052861e-01, 4.41280633e-01 ]
      - [ 9.35409069e-01, 2.54896700e-01, 2.21666008e-01, 2.83683270e-01,
          3.35923731e-01, 4.42946851e-01 ]
      - [ 9.35409069e-01, 2.54309088e-01, 2.20714137e-01, 2.84498751e-01,
          3.35517853e-01, 4.43670243e-01 ]
      - [ 9.35409069e-01, 2.54418552e-01, 2.20064595e-01, 2.82826334e-01,
          3.39360803e-01, 4.45441425e-01 ]
      - [ 9.35409069e-01, 2.53766537e-01, 2.21678495e-01, 2.87149131e-01,
          3.38033408e-01, 4.47444379e-01 ]
      - [ 9.35409069e-01, 2.54261672e-01, 2.22356498e-01, 2.87456095e-01,
          3.40640843e-01, 4.49238926e-01 ]
      - [ 9.35409069e-01, 2.58963704e-01, 2.24195451e-01, 2.87714899e-01,
          3.42659235e-01, 4.49995995e-01 ]
      - [ 9.35409069e-01, 1.37732267e-01, 1.30600125e-01, 1.46795422e-01,
          1.61828279e-01, 2.05379501e-01 ]
      - [ 5.37049592e-01, 1.48271382e-01, 1.31648645e-01, 1.44022286e-01,
          1.65838167e-01, 2.08397120e-01 ]
      - [ 5.37049592e-01, 2.25916892e-01, 1.82074547e-01, 2.13467866e-01,
          2.78144687e-01, 3.69921207e-01 ]
      - [ 5.37049592e-01, 2.19416872e-01, 1.77261889e-01, 2.13310599e-01,
          2.75557071e-01, 3.75817269e-01 ]
      - [ 5.37049592e-01, 2.22237736e-01, 1.90720573e-01, 2.16949463e-01,
          2.55951285e-01, 3.43504697e-01 ]
      - [ 9.35409069e-01, 1.95976958e-01, 1.74803689e-01, 1.99940428e-01,
          2.45473742e-01, 3.29737633e-01 ]
      - [ 5.37049592e-01, 2.21192136e-01, 1.81233108e-01, 2.15975970e-01,
          2.74301678e-01, 3.74839514e-01 ]
      - [ 5.37049592e-01, 1.95590332e-01, 1.58000290e-01, 1.89145520e-01,
          2.49894381e-01, 3.35131139e-01 ]
      - [ 5.37049592e-01, 1.87308356e-01, 1.55815378e-01, 1.55815378e-01,
          2.13747576e-01, 2.39877313e-01 ]
      - [ 5.37049592e-01, 2.17021331e-01, 1.72707394e-01, 2.06471041e-01,
          2.71585226e-01, 3.68399978e-01 ]
      - [ 5.37049592e-01, 2.20015377e-01, 1.67927906e-01, 1.94544807e-01,
          2.68680036e-01, 3.54284465e-01 ]
      - [ 5.37049592e-01, 2.17230812e-01, 1.77000716e-01, 2.06993803e-01,
          2.58212328e-01, 3.50844949e-01 ]
      - [ 5.37049592e-01, 2.15276554e-01, 1.79751649e-01, 2.12360471e-01,
          2.63986021e-01, 3.62177491e-01 ]
      - [ 5.37049592e-01, 0., 0., 0., 0., 0. ]
      - [ 9.35409069e-01, 9.96679962e-02, 9.96679962e-02, 9.96679962e-02,
          9.96679962e-02, 9.96679962e-02 ]
      - [ 5.37049592e-01, 2.12836683e-01, 1.75779104e-01, 2.09299892e-01,
          2.63897657e-01, 3.60665679e-01 ]
      - [ 5.37049592e-01, 1.99034259e-01, 1.56981155e-01, 1.78618789e-01,
          2.34422907e-01, 3.10423672e-01 ]
      - [ 9.35409069e-01, 2.07413986e-01, 1.69078648e-01, 1.97903231e-01,
          2.52648592e-01, 3.39269906e-01 ]
      - [ 9.35409069e-01, 2.14709729e-01, 1.77021414e-01, 2.05360845e-01,
          2.59164363e-01, 3.44262242e-01 ]
      - [ 5.37049592e-01, 2.13250220e-01, 1.78881645e-01, 2.16280669e-01,
          2.66715139e-01, 3.70659590e-01 ]
      - [ 9.35409069e-01, 2.31546596e-01, 1.90717489e-01, 2.18494937e-01,
          2.74752259e-01, 3.63632977e-01 ]
      - [ 5.37049592e-01, 2.35726357e-01, 1.98415518e-01, 2.32142419e-01,
          2.89303005e-01, 3.83365184e-01 ]
      - [ 5.37049592e-01, 1.48885027e-01, 1.48885027e-01, 1.48885027e-01,
          1.48885027e-01, 1.48885027e-01 ]
      - [ 9.35409069e-01, 2.16247335e-01, 1.85812593e-01, 1.85812593e-01,
          2.16247335e-01, 2.37325624e-01 ]
      - [ 5.37049592e-01, 2.19342262e-01, 1.84080765e-01, 2.19607919e-01,
          2.69008487e-01, 3.71476799e-01 ]
      - [ 5.37049592e-01, 2.03000009e-01, 1.68979645e-01, 1.90427721e-01,
          2.28838980e-01, 3.06128621e-01 ]
      - [ 9.35409069e-01, 1.97072089e-01, 1.64740548e-01, 1.86642304e-01,
          2.29704127e-01, 3.10910583e-01 ]
      - [ 5.37049592e-01, 2.25384966e-01, 1.76961809e-01, 2.07129627e-01,
          2.77665645e-01, 3.68436694e-01 ]
      - [ 5.37049592e-01, 2.17357516e-01, 1.76717877e-01, 2.11642891e-01,
          2.68175185e-01, 3.68465215e-01 ]
      - [ 5.37049592e-01, 1.98711947e-01, 1.89823627e-01, 2.12849513e-01,
          2.30246589e-01, 3.20592582e-01 ]
      - [ 9.35409069e-01, 1.82573780e-01, 1.93620920e-01, 1.93620920e-01,
          1.82573780e-01, 2.39877313e-01 ]
      - [ 9.35409069e-01, 2.08696231e-01, 2.01252267e-01, 2.18632162e-01,
          2.08696231e-01, 2.60228306e-01 ]
      - [ 9.35409069e-01, 2.30925441e-01, 1.97535068e-01, 2.11427942e-01,
          2.30925441e-01, 3.03442746e-01 ]
      - [ 9.35409069e-01, 2.41475686e-01, 2.01136455e-01, 2.15851977e-01,
          2.34812513e-01, 3.11745226e-01 ]
      - [ 9.35409069e-01, 2.40106568e-01, 1.91312522e-01, 2.21376553e-01,
          2.69066930e-01, 3.57185572e-01 ]
      - [ 9.35409069e-01, 2.48569742e-01, 1.93705142e-01, 2.23695174e-01,
          2.70423830e-01, 3.62864137e-01 ]
      - [ 9.35409069e-01, 2.10819840e-01, 1.77623674e-01, 2.13928327e-01,
          2.64479488e-01, 3.65382075e-01 ]
      - [ 5.37049592e-01, 2.24195272e-01, 1.85436547e-01, 2.16935277e-01,
          2.77886778e-01, 3.75228912e-01 ]
      - [ 5.37049592e-01, 1.87308356e-01, 1.75266609e-01, 1.75266609e-01,
          1.87308356e-01, 2.32750043e-01 ]
      - [ 9.35409069e-01, 2.53318965e-01, 1.97342992e-01, 2.13901967e-01,
          2.78693020e-01, 3.45111042e-01 ]
      - [ 5.37049592e-01, 2.03251526e-01, 1.81761697e-01, 1.81761697e-01,
          2.03251526e-01, 2.67815024e-01 ]
      - [ 5.37049592e-01, 1.65505588e-01, 1.68755114e-01, 1.94412723e-01,
          1.98880732e-01, 2.78948754e-01 ]
      - [ 5.37049592e-01, 2.22011715e-01, 1.79837361e-01, 2.12927967e-01,
          2.74174899e-01, 3.70508015e-01 ]
      - [ 5.37049592e-01, 2.18882039e-01, 1.70532435e-01, 2.04494506e-01,
          2.75594592e-01, 3.71150047e-01 ]
      - [ 9.35409069e-01, 1.31452829e-01, 1.60323739e-01, 1.60323739e-01,
          1.31452829e-01, 1.60323739e-01 ]
      - [ 9.35409069e-01, 1.61163956e-01, 1.87383488e-01, 1.87383488e-01,
          1.61163956e-01, 1.87383488e-01 ]
      - [ 9.35409069e-01, 1.59496501e-01, 1.80116594e-01, 2.09794909e-01,
          2.06474155e-01, 2.55765706e-01 ]
      - [ 9.35409069e-01, 1.70106202e-01, 1.89510688e-01, 2.17441529e-01,
          2.24891186e-01, 2.71048397e-01 ]
      - [ 9.35409069e-01, 2.37994641e-01, 2.09662065e-01, 2.43742466e-01,
          2.90802062e-01, 3.85661066e-01 ]
      - [ 9.35409069e-01, 1.18599556e-01, 1.73979133e-01, 1.97108760e-01,
          1.67887896e-01, 2.44970158e-01 ]
      - [ 9.35409069e-01, 1.65345639e-01, 1.91205636e-01, 2.10787028e-01,
          2.06730232e-01, 2.80609101e-01 ]
      - [ 5.37049592e-01, 2.41213635e-01, 1.90748781e-01, 2.21238106e-01,
          2.91560262e-01, 3.78344029e-01 ]
      - [ 9.35409069e-01, 1.23260140e-01, 1.23260140e-01, 1.23260140e-01,
          1.23260140e-01, 1.23260140e-01 ]
      - [ 5.37049592e-01, 2.21487194e-01, 1.80511713e-01, 2.13260666e-01,
          2.72749096e-01, 3.68922919e-01 ]
      - [ 5.37049592e-01, 2.08976611e-01, 1.54979169e-01, 1.84036195e-01,
          2.65663594e-01, 3.46202642e-01 ]
      - [ 5.37049592e-01, 1.91867843e-01, 1.53145283e-01, 1.75929502e-01,
          2.28429854e-01, 3.03130388e-01 ]
      - [ 9.35409069e-01, 2.16989532e-01, 1.81733027e-01, 2.10941508e-01,
          2.54529476e-01, 3.50511283e-01 ]
      - [ 5.37049592e-01, 1.71041802e-01, 1.73568264e-01, 1.73568264e-01,
          1.71041802e-01, 2.18139857e-01 ]
      - [ 5.37049592e-01, 1.94942087e-01, 1.52742311e-01, 1.66812018e-01,
          2.39025757e-01, 2.91075200e-01 ]
      - [ 5.37049592e-01, 2.16011971e-01, 1.70641050e-01, 1.99238151e-01,
          2.64409244e-01, 3.55145991e-01 ]
      - [ 9.35409069e-01, 1.94066733e-01, 1.67209297e-01, 1.67209297e-01,
          1.94066733e-01, 2.37627372e-01 ]
      - [ 5.37049592e-01, 2.38434762e-01, 1.92356229e-01, 2.18917921e-01,
          2.75541604e-01, 3.66610587e-01 ]
      - [ 5.37049592e-01, 0., 0., 0., 0., 0. ]
      - [ 5.37049592e-01, 2.07383156e-01, 1.72610804e-01, 1.86933398e-01,
          2.38901660e-01, 3.14011663e-01 ]
      - [ 5.37049592e-01, 2.07117811e-01, 1.68981358e-01, 1.88950837e-01,
          2.37701282e-01, 3.08540702e-01 ]
      - [ 9.35409069e-01, 2.15389699e-01, 1.75785765e-01, 1.98990390e-01,
          2.47244537e-01, 3.23498845e-01 ]
      - [ 9.35409069e-01, 1.86344549e-01, 1.56590715e-01, 1.56590715e-01,
          1.86344549e-01, 2.28230536e-01 ]
      - [ 9.35409069e-01, 2.04273984e-01, 1.76134661e-01, 1.76134661e-01,
          2.04273984e-01, 2.43864208e-01 ]
      - [ 9.35409069e-01, 2.12087870e-01, 1.85319558e-01, 1.85319558e-01,
          2.12087870e-01, 2.49754995e-01 ]
      - [ 9.35409069e-01, 2.19470203e-01, 1.93952128e-01, 1.93952128e-01,
          2.19470203e-01, 2.55384088e-01 ]
      - [ 5.37049592e-01, 2.34354272e-01, 2.10069194e-01, 2.10069194e-01,
          2.34354272e-01, 2.68522233e-01 ]
      - [ 9.35409069e-01, 2.76037812e-01, 2.45575309e-01, 2.68031716e-01,
          3.15719098e-01, 3.91084969e-01 ]
      - [ 9.35409069e-01, 2.82029808e-01, 2.49552608e-01, 2.71658927e-01,
          3.18603873e-01, 3.95097047e-01 ]
      - [ 9.35409069e-01, 2.61460543e-01, 2.20841140e-01, 2.51250088e-01,
          3.11933637e-01, 3.99886966e-01 ]
      - [ 9.35409069e-01, 1.50362864e-01, 1.34975433e-01, 1.49324492e-01,
          1.77268326e-01, 2.24644229e-01 ]
      - [ 9.35409069e-01, 1.80726334e-01, 1.48300156e-01, 1.69328928e-01,
          2.16528609e-01, 2.80015379e-01 ]
      - [ 5.37049592e-01, 1.89535469e-01, 1.57259047e-01, 1.80014595e-01,
          2.28555664e-01, 2.97496676e-01 ]
      - [ 9.35409069e-01, 2.03977674e-01, 1.77202240e-01, 1.77202240e-01,
          2.03977674e-01, 2.21707806e-01 ]
      - [ 5.37049592e-01, 2.29041934e-01, 1.88453794e-01, 2.21821561e-01,
          2.81754822e-01, 3.77292901e-01 ]
      - [ 5.37049592e-01, 2.23025724e-01, 1.59501433e-01, 1.72669232e-01,
          2.48768345e-01, 3.13580394e-01 ]
      - [ 9.35409069e-01, 1.85492963e-01, 1.36665285e-01, 1.36665285e-01,
          1.85492963e-01, 2.00370356e-01 ]
      - [ 9.35409069e-01, 2.15559334e-01, 1.66415170e-01, 1.89963058e-01,
          2.60912418e-01, 3.27883989e-01 ]
      - [ 5.37049592e-01, 2.24228561e-01, 1.76314190e-01, 2.06345603e-01,
          2.77055144e-01, 3.65347415e-01 ]
      - [ 9.35409069e-01, 1.31731108e-01, 1.61163956e-01, 1.61163956e-01,
          1.31731108e-01, 1.61163956e-01 ]
      - [ 9.35409069e-01, 2.14890644e-01, 1.81038111e-01, 1.94083527e-01,
          2.06928045e-01, 2.76621580e-01 ]
      - [ 5.37049592e-01, 2.59651244e-01, 2.23534331e-01, 2.50650048e-01,
          3.02316904e-01, 3.80816162e-01 ]
      - [ 9.35409069e-01, 2.16120422e-01, 1.82765633e-01, 2.10009232e-01,
          2.62993366e-01, 3.56733859e-01 ]
      - [ 5.37049592e-01, 2.18106031e-01, 1.75730735e-01, 2.09748223e-01,
          2.73219615e-01, 3.69587630e-01 ]
      - [ 9.35409069e-01, 1.86883688e-01, 1.64272234e-01, 1.64272234e-01,
          1.86883688e-01, 2.16247335e-01 ]
      - [ 5.37049592e-01, 2.20732749e-01, 1.74795404e-01, 2.07406089e-01,
          2.74320483e-01, 3.68959159e-01 ]
      - [ 5.37049592e-01, 1.56054601e-01, 1.47762805e-01, 1.47762805e-01,
          1.56054601e-01, 1.80309579e-01 ]
      - [ 9.35409069e-01, 1.90650865e-01, 1.67209297e-01, 1.67209297e-01,
          1.90650865e-01, 2.11409733e-01 ]
      - [ 9.35409069e-01, 2.20939815e-01, 1.89601779e-01, 1.89601779e-01,
          2.11407214e-01, 2.56345391e-01 ]
      - [ 5.37049592e-01, 2.18890399e-01, 1.75570592e-01, 2.10207507e-01,
          2.72783846e-01, 3.69474888e-01 ]
      - [ 5.37049592e-01, 2.30374902e-01, 1.89090788e-01, 2.18158782e-01,
          2.74879813e-01, 3.58947545e-01 ]
      - [ 5.37049592e-01, 1.76903576e-01, 1.52647644e-01, 1.83007792e-01,
          2.26724073e-01, 3.02286029e-01 ]
      - [ 5.37049592e-01, 2.03355402e-01, 1.79812655e-01, 2.06388786e-01,
          2.43881166e-01, 3.35763484e-01 ]
      - [ 9.35409069e-01, 2.25402996e-01, 1.96385145e-01, 2.30345890e-01,
          2.76605338e-01, 3.77758741e-01 ]
      - [ 9.35409069e-01, 2.20212296e-01, 1.97507977e-01, 2.27068454e-01,
          2.65686244e-01, 3.63105088e-01 ]
      - [ 9.35409069e-01, 2.22532287e-01, 1.96286246e-01, 2.27018267e-01,
          2.74728745e-01, 3.70276004e-01 ]
      - [ 9.35409069e-01, 2.24416286e-01, 1.99573517e-01, 2.30028108e-01,
          2.77303368e-01, 3.71976316e-01 ]
      - [ 9.35409069e-01, 2.26400331e-01, 2.01372191e-01, 2.31347769e-01,
          2.80509591e-01, 3.73597920e-01 ]
      - [ 9.35409069e-01, 2.27856755e-01, 2.04564691e-01, 2.35685110e-01,
          2.82997310e-01, 3.76533329e-01 ]
      - [ 9.35409069e-01, 2.31078759e-01, 2.05614865e-01, 2.38304898e-01,
          2.86443293e-01, 3.81240636e-01 ]
      - [ 5.37049592e-01, 2.10339502e-01, 1.79824397e-01, 2.14814454e-01,
          2.60567129e-01, 3.60292614e-01 ]
      - [ 9.35409069e-01, 1.75784007e-01, 1.75466359e-01, 1.82911634e-01,
          1.75784007e-01, 2.40912288e-01 ]
      - [ 5.37049592e-01, 2.14393914e-01, 1.91950023e-01, 2.22841799e-01,
          2.49492615e-01, 3.44526350e-01 ]
      - [ 5.37049592e-01, 1.71731055e-01, 1.99605808e-01, 2.12794334e-01,
          1.71731055e-01, 2.59988815e-01 ]
      - [ 9.35409069e-01, 1.27371624e-01, 1.27371624e-01, 1.27371624e-01,
          1.27371624e-01, 1.27371624e-01 ]
      - [ 5.37049592e-01, 1.39875159e-01, 1.59156024e-01, 1.59156024e-01,
          1.39875159e-01, 1.59156024e-01 ]
      - [ 5.37049592e-01, 2.11318508e-01, 1.63708046e-01, 1.93914294e-01,
          2.63291985e-01, 3.47830802e-01 ]
      - [ 5.37049592e-01, 1.97766468e-01, 1.54917821e-01, 1.73943400e-01,
          2.30201349e-01, 2.99030244e-01 ]
      - [ 9.35409069e-01, 1.89126343e-01, 1.51981533e-01, 1.70712844e-01,
          2.19800144e-01, 2.85398960e-01 ]
      - [ 9.35409069e-01, 1.88651100e-01, 1.50635272e-01, 1.67838812e-01,
          2.18564153e-01, 2.81855136e-01 ]
      - [ 5.37049592e-01, 2.19166517e-01, 1.72148496e-01, 2.11909726e-01,
          2.79652745e-01, 3.79887998e-01 ]
      - [ 9.35409069e-01, 2.01448902e-01, 1.79380834e-01, 2.21552640e-01,
          2.68740028e-01, 3.66890013e-01 ]
      - [ 9.35409069e-01, 2.03762725e-01, 1.86167642e-01, 2.30780795e-01,
          2.72003263e-01, 3.75472963e-01 ]
      - [ 5.37049592e-01, 1.74603939e-01, 1.44895852e-01, 1.85379222e-01,
          2.48948738e-01, 3.29886168e-01 ]
      - [ 9.35409069e-01, 1.82159573e-01, 1.51658922e-01, 1.93065077e-01,
          2.56588906e-01, 3.42309952e-01 ]
      - [ 9.35409069e-01, 2.24059373e-01, 1.68013275e-01, 1.79681599e-01,
          2.37781212e-01, 3.03301841e-01 ]
      - [ 5.37049592e-01, 2.05945507e-01, 1.69654906e-01, 2.13564873e-01,
          2.79102892e-01, 3.77958387e-01 ]
