%YAML:1.0
---
opencv_ml_svm:
   format: 3
   svmType: C_SVC
   kernel:
      type: SIGMOID
      gamma: 1.
      coef0: 0.
   C: 1.
   term_criteria: { iterations:100 }
   var_count: 6
   class_count: 2
   class_labels: !!opencv-matrix
      rows: 2
      cols: 1
      dt: i
      data: [ 0, 1 ]
   sv_total: 200
   support_vectors:
      - [ 5.37049592e-01, 0., 0., 0., 0., 0. ]
      - [ 5.37049592e-01, 0., 0., 0., 0., 0. ]
      - [ 9.35409069e-01, 0., 0., 0., 0., 0. ]
      - [ 9.35409069e-01, 0., 0., 0., 0., 0. ]
      - [ 9.35409069e-01, 0., 0., 0., 0., 0. ]
      - [ 5.37049592e-01, 2.21515462e-01, 1.75424233e-01, 2.07232922e-01,
          2.71648228e-01, 3.66527617e-01 ]
      - [ 5.37049592e-01, 2.46838942e-01, 2.07371190e-01, 2.40685135e-01,
          3.02877367e-01, 3.91704410e-01 ]
      - [ 5.37049592e-01, 2.66468644e-01, 2.10803956e-01, 2.42922634e-01,
          3.03935707e-01, 4.00952309e-01 ]
      - [ 5.37049592e-01, 2.28961855e-01, 1.81384891e-01, 2.23698527e-01,
          2.98387617e-01, 3.99336487e-01 ]
      - [ 5.37049592e-01, 2.24109069e-01, 1.78866461e-01, 2.24577025e-01,
          2.99371094e-01, 3.99756223e-01 ]
      - [ 9.35409069e-01, 0., 0., 0., 0., 0. ]
      - [ 9.35409069e-01, 0., 0., 0., 0., 0. ]
      - [ 9.35409069e-01, 0., 0., 0., 0., 0. ]
      - [ 5.37049592e-01, 2.30956823e-01, 1.87385544e-01, 2.27527633e-01,
          2.96579689e-01, 3.95723224e-01 ]
      - [ 9.35409069e-01, 0., 0., 0., 0., 0. ]
      - [ 5.37049592e-01, 2.46225074e-01, 1.89693555e-01, 2.23891109e-01,
          3.11006665e-01, 3.94430339e-01 ]
      - [ 5.37049592e-01, 2.43917927e-01, 1.90440550e-01, 2.31372178e-01,
          3.13501865e-01, 4.01998132e-01 ]
      - [ 5.37049592e-01, 2.48848423e-01, 1.97059140e-01, 2.38117844e-01,
          3.18685919e-01, 4.06103849e-01 ]
      - [ 5.37049592e-01, 2.27894813e-01, 1.97836667e-01, 2.38948733e-01,
          2.91171581e-01, 3.94845575e-01 ]
      - [ 9.35409069e-01, 0., 0., 0., 0., 0. ]
      - [ 5.37049592e-01, 2.65669286e-01, 2.34430492e-01, 2.78683096e-01,
          3.23399067e-01, 4.19287562e-01 ]
      - [ 5.37049592e-01, 2.36346245e-01, 2.02537149e-01, 2.37664595e-01,
          2.88647890e-01, 3.86211455e-01 ]
      - [ 9.35409069e-01, 0., 0., 0., 0., 0. ]
      - [ 5.37049592e-01, 2.45506436e-01, 2.06783786e-01, 2.37816870e-01,
          2.94345170e-01, 3.85506898e-01 ]
      - [ 9.35409069e-01, 0., 0., 0., 0., 0. ]
      - [ 5.37049592e-01, 2.47306347e-01, 2.04252973e-01, 2.37091154e-01,
          2.95864135e-01, 3.88884604e-01 ]
      - [ 5.37049592e-01, 2.47483686e-01, 2.13684097e-01, 2.51233369e-01,
          3.01443815e-01, 3.99393618e-01 ]
      - [ 5.37049592e-01, 2.35998541e-01, 2.00754568e-01, 2.34104052e-01,
          2.89023489e-01, 3.86764854e-01 ]
      - [ 5.37049592e-01, 2.47049198e-01, 2.11818561e-01, 2.48552471e-01,
          2.94219047e-01, 3.91199410e-01 ]
      - [ 5.37049592e-01, 2.55414873e-01, 2.18828157e-01, 2.76118815e-01,
          3.30585241e-01, 4.33972299e-01 ]
      - [ 5.37049592e-01, 2.59651244e-01, 2.23534331e-01, 2.50650048e-01,
          3.02316904e-01, 3.80816162e-01 ]
      - [ 5.37049592e-01, 2.23992035e-01, 1.81848168e-01, 2.28299007e-01,
          2.93427557e-01, 4.01047915e-01 ]
      - [ 5.37049592e-01, 2.43532062e-01, 2.09530160e-01, 2.53583044e-01,
          3.08236063e-01, 4.08106238e-01 ]
      - [ 5.37049592e-01, 2.24696055e-01, 1.82628363e-01, 2.30627626e-01,
          2.96069205e-01, 4.01204705e-01 ]
      - [ 5.37049592e-01, 2.31166303e-01, 1.96065709e-01, 2.37328500e-01,
          2.86170781e-01, 3.92358512e-01 ]
      - [ 5.37049592e-01, 2.36137345e-01, 2.02955663e-01, 2.43607819e-01,
          2.90149897e-01, 3.95368457e-01 ]
      - [ 5.37049592e-01, 2.56312460e-01, 2.09013894e-01, 2.42920175e-01,
          3.17577273e-01, 3.94185841e-01 ]
      - [ 9.35409069e-01, 0., 0., 0., 0., 0. ]
      - [ 5.37049592e-01, 2.80631036e-01, 2.47282326e-01, 2.85558075e-01,
          3.37031335e-01, 4.15538907e-01 ]
      - [ 5.37049592e-01, 2.71814346e-01, 2.38396615e-01, 2.71454841e-01,
          3.18102688e-01, 3.98056269e-01 ]
      - [ 5.37049592e-01, 2.69093871e-01, 2.24880636e-01, 2.53575921e-01,
          3.09418052e-01, 4.11345303e-01 ]
      - [ 9.35409069e-01, 0., 0., 0., 0., 0. ]
      - [ 9.35409069e-01, 0., 0., 0., 0., 0. ]
      - [ 9.35409069e-01, 9.15723294e-02, 9.15723294e-02, 0., 0.,
          9.15723294e-02 ]
      - [ 5.37049592e-01, 2.41570294e-01, 2.03089491e-01, 2.36561090e-01,
          2.93403178e-01, 3.87383282e-01 ]
      - [ 9.35409069e-01, 0., 0., 0., 0., 0. ]
      - [ 9.35409069e-01, 0., 0., 0., 0., 0. ]
      - [ 9.35409069e-01, 0., 0., 0., 0., 0. ]
      - [ 9.35409069e-01, 0., 0., 0., 0., 0. ]
      - [ 9.35409069e-01, 0., 0., 0., 0., 0. ]
      - [ 9.35409069e-01, 0., 0., 0., 0., 0. ]
      - [ 5.37049592e-01, 2.38966018e-01, 1.95553929e-01, 2.33180255e-01,
          3.00628841e-01, 3.95975977e-01 ]
      - [ 5.37049592e-01, 2.40213260e-01, 2.10228652e-01, 2.50656068e-01,
          2.96435148e-01, 4.01064992e-01 ]
      - [ 5.37049592e-01, 2.22509652e-01, 1.93504691e-01, 2.39247620e-01,
          2.89609641e-01, 3.95124346e-01 ]
      - [ 5.37049592e-01, 2.34701946e-01, 2.02763930e-01, 3.14574987e-01,
          2.95312375e-01, 4.47821796e-01 ]
      - [ 5.37049592e-01, 2.48250246e-01, 2.16728196e-01, 2.58816779e-01,
          3.02272528e-01, 4.03965384e-01 ]
      - [ 9.35409069e-01, 0., 0., 0., 0., 0. ]
      - [ 9.35409069e-01, 0., 0., 0., 0., 0. ]
      - [ 5.37049592e-01, 2.21287057e-01, 1.88317686e-01, 2.32482374e-01,
          2.97271669e-01, 3.98712933e-01 ]
      - [ 5.37049592e-01, 2.22344801e-01, 1.88505381e-01, 2.27968514e-01,
          3.01176608e-01, 3.97603869e-01 ]
      - [ 5.37049592e-01, 2.31587201e-01, 1.84262097e-01, 2.26854637e-01,
          2.97149777e-01, 3.99514943e-01 ]
      - [ 9.35409069e-01, 0., 0., 0., 0., 0. ]
      - [ 5.37049592e-01, 2.42397308e-01, 2.09444091e-01, 2.42863402e-01,
          2.88745940e-01, 3.83468926e-01 ]
      - [ 9.35409069e-01, 0., 0., 0., 0., 0. ]
      - [ 5.37049592e-01, 2.59692639e-01, 2.30465680e-01, 2.55441636e-01,
          2.97245353e-01, 3.75424325e-01 ]
      - [ 9.35409069e-01, 0., 0., 0., 0., 0. ]
      - [ 5.37049592e-01, 2.50100732e-01, 1.99018180e-01, 2.26872295e-01,
          3.02438527e-01, 3.79097521e-01 ]
      - [ 5.37049592e-01, 2.58008152e-01, 1.93960607e-01, 2.24662021e-01,
          2.94051588e-01, 3.95662725e-01 ]
      - [ 5.37049592e-01, 2.82511443e-01, 2.49038592e-01, 3.12030524e-01,
          3.52639049e-01, 4.56225246e-01 ]
      - [ 5.37049592e-01, 2.67967850e-01, 2.23145053e-01, 2.55568981e-01,
          3.17679584e-01, 3.93903166e-01 ]
      - [ 9.35409069e-01, 0., 0., 0., 0., 0. ]
      - [ 5.37049592e-01, 2.44037122e-01, 1.98999152e-01, 2.32555881e-01,
          2.94743836e-01, 3.84279877e-01 ]
      - [ 5.37049592e-01, 2.37677082e-01, 2.07304344e-01, 2.49737859e-01,
          3.01414818e-01, 4.02858138e-01 ]
      - [ 5.37049592e-01, 2.33845502e-01, 1.95950016e-01, 2.40904793e-01,
          2.97492683e-01, 4.06764895e-01 ]
      - [ 5.37049592e-01, 2.27470428e-01, 1.84837833e-01, 2.33406991e-01,
          3.00447583e-01, 4.08407927e-01 ]
      - [ 5.37049592e-01, 2.28891239e-01, 1.92358255e-01, 2.37465277e-01,
          3.01204443e-01, 4.03483927e-01 ]
      - [ 5.37049592e-01, 2.22127765e-01, 1.89036593e-01, 2.40987152e-01,
          2.94379383e-01, 4.08801198e-01 ]
      - [ 5.37049592e-01, 2.33747259e-01, 1.91316143e-01, 2.30425149e-01,
          2.92685956e-01, 3.91091079e-01 ]
      - [ 9.35409069e-01, 0., 0., 0., 0., 0. ]
      - [ 9.35409069e-01, 0., 0., 0., 0., 0. ]
      - [ 9.35409069e-01, 0., 0., 0., 0., 0. ]
      - [ 5.37049592e-01, 2.47559115e-01, 2.06743881e-01, 2.50855774e-01,
          3.02228510e-01, 4.08952951e-01 ]
      - [ 9.35409069e-01, 0., 0., 0., 0., 0. ]
      - [ 5.37049592e-01, 2.32574031e-01, 1.95924580e-01, 2.37847969e-01,
          2.98478961e-01, 3.96903217e-01 ]
      - [ 5.37049592e-01, 2.55781084e-01, 2.23957911e-01, 2.53804147e-01,
          3.02307636e-01, 3.91817987e-01 ]
      - [ 9.35409069e-01, 0., 0., 0., 0., 0. ]
      - [ 5.37049592e-01, 2.65327126e-01, 2.31068045e-01, 2.53720433e-01,
          2.99342185e-01, 3.66558760e-01 ]
      - [ 9.35409069e-01, 0., 0., 0., 0., 0. ]
      - [ 5.37049592e-01, 2.42360383e-01, 2.11404219e-01, 2.41011083e-01,
          2.87952423e-01, 3.77373040e-01 ]
      - [ 9.35409069e-01, 0., 0., 0., 0., 0. ]
      - [ 5.37049592e-01, 2.33967468e-01, 2.06284180e-01, 2.46869832e-01,
          2.90287703e-01, 3.93016815e-01 ]
      - [ 5.37049592e-01, 2.40881354e-01, 2.13514626e-01, 2.46740058e-01,
          2.94840157e-01, 3.91302228e-01 ]
      - [ 5.37049592e-01, 2.25155160e-01, 1.96626753e-01, 2.41984129e-01,
          2.88216472e-01, 3.98435295e-01 ]
      - [ 5.37049592e-01, 2.57092267e-01, 2.27593347e-01, 2.58649290e-01,
          2.96701998e-01, 3.91659886e-01 ]
      - [ 5.37049592e-01, 2.41481856e-01, 2.23404795e-01, 2.55410612e-01,
          2.79483467e-01, 3.81885529e-01 ]
      - [ 5.37049592e-01, 2.42153734e-01, 2.18143195e-01, 3.78117383e-01,
          2.91368753e-01, 4.87627864e-01 ]
      - [ 5.37049592e-01, 2.54397392e-01, 2.16107443e-01, 3.51961195e-01,
          2.99121678e-01, 4.75844771e-01 ]
      - [ 5.37049592e-01, 2.51224846e-01, 2.20929772e-01, 2.54858315e-01,
          3.02280188e-01, 3.91969234e-01 ]
      - [ 5.37049592e-01, 2.28391588e-01, 1.94825679e-01, 2.35702947e-01,
          2.88995922e-01, 3.91216427e-01 ]
      - [ 9.35409069e-01, 0., 0., 0., 0., 0. ]
      - [ 9.35409069e-01, 0., 0., 0., 0., 0. ]
      - [ 9.35409069e-01, 0., 0., 0., 0., 0. ]
      - [ 9.35409069e-01, 0., 0., 0., 0., 0. ]
      - [ 9.35409069e-01, 0., 0., 0., 0., 0. ]
      - [ 5.37049592e-01, 2.37023845e-01, 2.03775778e-01, 2.45190546e-01,
          2.91660845e-01, 3.97737205e-01 ]
      - [ 9.35409069e-01, 0., 0., 0., 0., 0. ]
      - [ 9.35409069e-01, 0., 0., 0., 0., 0. ]
      - [ 9.35409069e-01, 0., 0., 0., 0., 0. ]
      - [ 5.37049592e-01, 2.67747223e-01, 2.40545824e-01, 2.62709111e-01,
          3.00465375e-01, 3.68616641e-01 ]
      - [ 5.37049592e-01, 2.54001290e-01, 2.18398586e-01, 2.45748654e-01,
          3.00150275e-01, 3.86553019e-01 ]
      - [ 9.35409069e-01, 0., 0., 0., 0., 0. ]
      - [ 9.35409069e-01, 0., 0., 0., 0., 0. ]
      - [ 5.37049592e-01, 2.43397757e-01, 2.15969592e-01, 2.52342820e-01,
          2.87713647e-01, 3.88725281e-01 ]
      - [ 5.37049592e-01, 2.58381754e-01, 2.22192436e-01, 2.49505237e-01,
          2.98960805e-01, 3.77409488e-01 ]
      - [ 5.37049592e-01, 2.32247084e-01, 1.89759120e-01, 2.31860355e-01,
          2.94437706e-01, 3.94827187e-01 ]
      - [ 9.35409069e-01, 0., 0., 0., 0., 0. ]
      - [ 9.35409069e-01, 0., 0., 0., 0., 0. ]
      - [ 9.35409069e-01, 5.43029718e-02, 5.43029718e-02, 5.43029718e-02,
          5.43029718e-02, 5.43029718e-02 ]
      - [ 9.35409069e-01, 5.65904230e-02, 5.65904230e-02, 5.65904230e-02,
          5.65904230e-02, 5.65904230e-02 ]
      - [ 9.35409069e-01, 5.43029718e-02, 5.43029718e-02, 5.43029718e-02,
          5.43029718e-02, 5.43029718e-02 ]
      - [ 9.35409069e-01, 5.22084236e-02, 5.22084236e-02, 5.22084236e-02,
          5.22084236e-02, 5.22084236e-02 ]
      - [ 9.35409069e-01, 5.02833910e-02, 5.02833910e-02, 5.02833910e-02,
          5.02833910e-02, 5.02833910e-02 ]
      - [ 9.35409069e-01, 4.85079773e-02, 4.85079773e-02, 4.85079773e-02,
          4.85079773e-02, 4.85079773e-02 ]
      - [ 9.35409069e-01, 4.68652025e-02, 4.68652025e-02, 4.68652025e-02,
          4.68652025e-02, 4.68652025e-02 ]
      - [ 9.35409069e-01, 4.53405268e-02, 4.53405268e-02, 4.53405268e-02,
          4.53405268e-02, 4.53405268e-02 ]
      - [ 9.35409069e-01, 5.58049008e-02, 5.58049008e-02, 5.58049008e-02,
          5.58049008e-02, 5.58049008e-02 ]
      - [ 9.35409069e-01, 5.43029718e-02, 5.43029718e-02, 5.43029718e-02,
          5.43029718e-02, 5.43029718e-02 ]
      - [ 9.35409069e-01, 5.28866947e-02, 5.28866947e-02, 5.28866947e-02,
          5.28866947e-02, 5.28866947e-02 ]
      - [ 9.35409069e-01, 5.15489615e-02, 5.15489615e-02, 5.15489615e-02,
          5.15489615e-02, 5.15489615e-02 ]
      - [ 9.35409069e-01, 5.02833910e-02, 5.02833910e-02, 5.02833910e-02,
          5.02833910e-02, 5.02833910e-02 ]
      - [ 9.35409069e-01, 4.90842573e-02, 4.90842573e-02, 4.90842573e-02,
          4.90842573e-02, 4.90842573e-02 ]
      - [ 9.35409069e-01, 5.65904230e-02, 5.65904230e-02, 5.65904230e-02,
          5.65904230e-02, 5.65904230e-02 ]
      - [ 9.35409069e-01, 5.54209687e-02, 5.54209687e-02, 5.54209687e-02,
          5.54209687e-02, 5.54209687e-02 ]
      - [ 9.35409069e-01, 5.43029718e-02, 5.43029718e-02, 5.43029718e-02,
          5.43029718e-02, 5.43029718e-02 ]
      - [ 9.35409069e-01, 5.32331355e-02, 5.32331355e-02, 5.32331355e-02,
          5.32331355e-02, 5.32331355e-02 ]
      - [ 9.35409069e-01, 5.22084236e-02, 5.22084236e-02, 5.22084236e-02,
          5.22084236e-02, 5.22084236e-02 ]
      - [ 9.35409069e-01, 5.12260348e-02, 5.12260348e-02, 5.12260348e-02,
          5.12260348e-02, 5.12260348e-02 ]
      - [ 9.35409069e-01, 5.63259199e-02, 5.63259199e-02, 5.63259199e-02,
          5.63259199e-02, 5.63259199e-02 ]
      - [ 9.35409069e-01, 5.58049008e-02, 5.58049008e-02, 5.58049008e-02,
          5.58049008e-02, 5.58049008e-02 ]
      - [ 9.35409069e-01, 5.52942678e-02, 5.52942678e-02, 5.52942678e-02,
          5.52942678e-02, 5.52942678e-02 ]
      - [ 9.35409069e-01, 5.47937267e-02, 5.47937267e-02, 5.47937267e-02,
          5.47937267e-02, 5.47937267e-02 ]
      - [ 9.35409069e-01, 5.43029718e-02, 5.43029718e-02, 5.43029718e-02,
          5.43029718e-02, 5.43029718e-02 ]
      - [ 9.35409069e-01, 5.65904230e-02, 5.65904230e-02, 5.65904230e-02,
          5.65904230e-02, 5.65904230e-02 ]
      - [ 9.35409069e-01, 5.61162457e-02, 5.61162457e-02, 5.61162457e-02,
          5.61162457e-02, 5.61162457e-02 ]
      - [ 9.35409069e-01, 5.56506328e-02, 5.56506328e-02, 5.56506328e-02,
          5.56506328e-02, 5.56506328e-02 ]
      - [ 9.35409069e-01, 5.51933646e-02, 5.51933646e-02, 5.51933646e-02,
          5.51933646e-02, 5.51933646e-02 ]
      - [ 9.35409069e-01, 5.47442138e-02, 5.47442138e-02, 5.47442138e-02,
          5.47442138e-02, 5.47442138e-02 ]
      - [ 9.35409069e-01, 5.63738123e-02, 5.63738123e-02, 5.63738123e-02,
          5.63738123e-02, 5.63738123e-02 ]
      - [ 9.35409069e-01, 5.59459515e-02, 5.59459515e-02, 5.59459515e-02,
          5.59459515e-02, 5.59459515e-02 ]
      - [ 9.35409069e-01, 5.55251054e-02, 5.55251054e-02, 5.55251054e-02,
          5.55251054e-02, 5.55251054e-02 ]
      - [ 9.35409069e-01, 5.51111028e-02, 5.51111028e-02, 5.51111028e-02,
          5.51111028e-02, 5.51111028e-02 ]
      - [ 9.35409069e-01, 5.47037758e-02, 5.47037758e-02, 5.47037758e-02,
          5.47037758e-02, 5.47037758e-02 ]
      - [ 9.35409069e-01, 5.43029718e-02, 5.43029718e-02, 5.43029718e-02,
          5.43029718e-02, 5.43029718e-02 ]
      - [ 9.35409069e-01, 5.39085343e-02, 5.39085343e-02, 5.39085343e-02,
          5.39085343e-02, 5.39085343e-02 ]
      - [ 9.35409069e-01, 5.35203107e-02, 5.35203107e-02, 5.35203107e-02,
          5.35203107e-02, 5.35203107e-02 ]
      - [ 9.35409069e-01, 5.31381592e-02, 5.31381592e-02, 5.31381592e-02,
          5.31381592e-02, 5.31381592e-02 ]
      - [ 9.35409069e-01, 5.27619384e-02, 5.27619384e-02, 5.27619384e-02,
          5.27619384e-02, 5.27619384e-02 ]
      - [ 9.35409069e-01, 5.23915105e-02, 5.23915105e-02, 5.23915105e-02,
          5.23915105e-02, 5.23915105e-02 ]
      - [ 9.35409069e-01, 5.50427549e-02, 5.50427549e-02, 5.50427549e-02,
          5.50427549e-02, 5.50427549e-02 ]
      - [ 9.35409069e-01, 5.46701290e-02, 5.46701290e-02, 5.46701290e-02,
          5.46701290e-02, 5.46701290e-02 ]
      - [ 9.35409069e-01, 5.43029718e-02, 5.43029718e-02, 5.43029718e-02,
          5.43029718e-02, 5.43029718e-02 ]
      - [ 9.35409069e-01, 5.39411642e-02, 5.39411642e-02, 5.39411642e-02,
          5.39411642e-02, 5.39411642e-02 ]
      - [ 9.35409069e-01, 5.35845906e-02, 5.35845906e-02, 5.35845906e-02,
          5.35845906e-02, 5.35845906e-02 ]
      - [ 9.35409069e-01, 5.32331355e-02, 5.32331355e-02, 5.32331355e-02,
          5.32331355e-02, 5.32331355e-02 ]
      - [ 9.35409069e-01, 5.28866947e-02, 5.28866947e-02, 5.28866947e-02,
          5.28866947e-02, 5.28866947e-02 ]
      - [ 9.35409069e-01, 5.53331859e-02, 5.53331859e-02, 5.53331859e-02,
          5.53331859e-02, 5.53331859e-02 ]
      - [ 9.96679962e-02, 2.06362814e-01, 1.89085990e-01, 2.02089816e-01,
          2.30335489e-01, 2.91560173e-01 ]
      - [ 9.96679962e-02, 1.69485554e-01, 1.40257090e-01, 1.51288465e-01,
          1.85111880e-01, 2.35133022e-01 ]
      - [ 9.96679962e-02, 2.21729383e-01, 1.76349506e-01, 2.07789108e-01,
          2.65203834e-01, 3.61993939e-01 ]
      - [ 9.96679962e-02, 2.23630235e-01, 1.75866872e-01, 2.07557872e-01,
          2.75850445e-01, 3.68087053e-01 ]
      - [ 9.96679962e-02, 1.80559054e-01, 1.54220566e-01, 1.72097027e-01,
          2.11676210e-01, 2.59578556e-01 ]
      - [ 9.35409069e-01, 0., 0., 0., 0., 0. ]
      - [ 9.96679962e-02, 2.23207533e-01, 1.74765155e-01, 2.05364794e-01,
          2.71498442e-01, 3.64366859e-01 ]
      - [ 9.96679962e-02, 2.33518988e-01, 1.91822216e-01, 2.21614167e-01,
          2.81579196e-01, 3.68459046e-01 ]
      - [ 9.96679962e-02, 2.05106109e-01, 1.63090244e-01, 1.99423730e-01,
          2.76538938e-01, 3.65801334e-01 ]
      - [ 9.96679962e-02, 2.30406120e-01, 1.82769477e-01, 2.11210176e-01,
          2.72829980e-01, 3.61839801e-01 ]
      - [ 9.96679962e-02, 2.16468528e-01, 1.65418625e-01, 1.97120488e-01,
          2.69781888e-01, 3.59716624e-01 ]
      - [ 9.96679962e-02, 1.48584589e-01, 1.44038036e-01, 1.44038036e-01,
          1.48584589e-01, 1.70939922e-01 ]
      - [ 9.96679962e-02, 2.23444611e-01, 1.72077641e-01, 2.02932537e-01,
          2.76330411e-01, 3.68217319e-01 ]
      - [ 9.96679962e-02, 2.19519064e-01, 1.76667288e-01, 2.09537834e-01,
          2.67611116e-01, 3.66357416e-01 ]
      - [ 9.96679962e-02, 2.18442082e-01, 1.76692575e-01, 2.11240038e-01,
          2.70244002e-01, 3.71022999e-01 ]
      - [ 9.35409069e-01, 0., 0., 0., 0., 0. ]
      - [ 9.96679962e-02, 2.04655647e-01, 1.85921669e-01, 1.85921669e-01,
          2.04655647e-01, 2.60013252e-01 ]
      - [ 9.96679962e-02, 2.17192739e-01, 1.77449346e-01, 2.08324254e-01,
          2.64531791e-01, 3.60371262e-01 ]
      - [ 9.96679962e-02, 2.33904317e-01, 1.85036004e-01, 2.16685921e-01,
          2.87284702e-01, 3.76431286e-01 ]
      - [ 9.96679962e-02, 2.32254460e-01, 1.82575449e-01, 2.12778524e-01,
          2.83038050e-01, 3.72317702e-01 ]
      - [ 9.96679962e-02, 1.82458833e-01, 1.48416370e-01, 1.68544814e-01,
          2.01354846e-01, 2.64836252e-01 ]
      - [ 9.96679962e-02, 2.22255930e-01, 1.76493123e-01, 2.07185477e-01,
          2.68599778e-01, 3.61901373e-01 ]
      - [ 9.96679962e-02, 2.24308044e-01, 1.80992812e-01, 2.12734982e-01,
          2.70960122e-01, 3.66606832e-01 ]
      - [ 9.96679962e-02, 2.20727414e-01, 1.78245768e-01, 2.07894504e-01,
          2.66946048e-01, 3.62018466e-01 ]
      - [ 9.96679962e-02, 2.38993704e-01, 2.11176455e-01, 2.34955505e-01,
          2.52616763e-01, 3.37358296e-01 ]
      - [ 9.35409069e-01, 0., 0., 0., 0., 0. ]
      - [ 9.35409069e-01, 0., 0., 0., 0., 0. ]
      - [ 9.96679962e-02, 2.21559495e-01, 1.80369988e-01, 2.22954378e-01,
          2.82358199e-01, 3.73961747e-01 ]
      - [ 9.96679962e-02, 2.32703462e-01, 1.79844722e-01, 2.13004485e-01,
          2.82252640e-01, 3.73646826e-01 ]
      - [ 9.96679962e-02, 2.15593457e-01, 1.73565090e-01, 1.95184559e-01,
          2.34273583e-01, 3.14471483e-01 ]
      - [ 9.96679962e-02, 2.26922631e-01, 1.84363097e-01, 2.10827231e-01,
          2.71552593e-01, 3.68552148e-01 ]
      - [ 9.96679962e-02, 2.12127194e-01, 1.58684582e-01, 1.84024751e-01,
          2.56828904e-01, 3.35172713e-01 ]
      - [ 9.96679962e-02, 2.62468457e-01, 2.16859460e-01, 2.35693529e-01,
          3.01555753e-01, 3.86589438e-01 ]
      - [ 9.96679962e-02, 2.19571248e-01, 1.68201521e-01, 2.00394198e-01,
          2.71202803e-01, 3.63831520e-01 ]
   decision_functions:
      -
         sv_count: 200
         rho: -1.2391012437641621e+01
         alpha: [ 1., 1., 1., 1., 1., 1., 1., 1., 1., 1., 1., 1., 1., 1.,
             1., 1., 1., 1., 1., 1., 1., 1., 1., 1., 1., 1., 1., 1., 1.,
             1., 1., 1., 1., 1., 1., 1., 1., 1., 1., 1., 1., 1., 1., 1.,
             1., 1., 1., 1., 1., 1., 1., 1., 1., 1., 1., 1., 1., 1., 1.,
             1., 1., 1., 1., 1., 1., 1., 1., 1., 1., 1., 1., 1., 1., 1.,
             1., 1., 1., 1., 1., 1., 1., 1., 1., 1., 1., 1., 1., 1., 1.,
             1., 1., 1., 1., 1., 1., 1., 1., 1., 1., 1., -1., -1., -1.,
             -1., -1., -1., -1., -1., -1., -1., -1., -1., -1., -1., -1.,
             -1., -1., -1., -1., -1., -1., -1., -1., -1., -1., -1., -1.,
             -1., -1., -1., -1., -1., -1., -1., -1., -1., -1., -1., -1.,
             -1., -1., -1., -1., -1., -1., -1., -1., -1., -1., -1., -1.,
             -1., -1., -1., -1., -1., -1., -1., -1., -1., -1., -1., -1.,
             -1., -1., -1., -1., -1., -1., -1., -1., -1., -1., -1., -1.,
             -1., -1., -1., -1., -1., -1., -1., -1., -1., -1., -1., -1.,
             -1., -1., -1., -1., -1., -1., -1., -1., -1., -1., -1., -1.,
             -1. ]
         index: [ 0, 1, 2, 3, 4, 10, 11, 12, 14, 19, 22, 24, 37, 41, 42,
             43, 45, 46, 47, 48, 49, 50, 56, 57, 61, 63, 65, 70, 78, 79,
             80, 82, 85, 87, 89, 99, 100, 101, 102, 103, 105, 106, 107,
             110, 111, 115, 116, 117, 118, 119, 120, 121, 122, 123, 124,
             125, 126, 127, 128, 129, 130, 131, 132, 133, 134, 135, 136,
             137, 138, 139, 140, 141, 142, 143, 144, 145, 146, 147, 148,
             149, 150, 151, 152, 153, 154, 155, 156, 157, 158, 159, 160,
             161, 162, 163, 164, 165, 171, 181, 191, 192, 5, 6, 7, 8, 9,
             13, 15, 16, 17, 18, 20, 21, 23, 25, 26, 27, 28, 29, 30, 31,
             32, 33, 34, 35, 36, 38, 39, 40, 44, 51, 52, 53, 54, 55, 58,
             59, 60, 62, 64, 66, 67, 68, 69, 114, 91, 198, 175, 73, 168,
             81, 199, 72, 184, 93, 169, 176, 185, 177, 97, 86, 96, 170,
             74, 90, 186, 104, 178, 172, 88, 187, 193, 179, 98, 71, 173,
             83, 188, 76, 75, 95, 194, 77, 180, 84, 113, 189, 109, 195,
             166, 182, 196, 108, 190, 112, 94, 174, 197, 167, 92, 183 ]
