%YAML:1.0
---
opencv_ml_svm:
   format: 3
   svmType: C_SVC
   kernel:
      type: LINEAR
   C: 1.
   term_criteria: { epsilon:2.2204460492503131e-16, iterations:10000 }
   var_count: 6
   class_count: 2
   class_labels: !!opencv-matrix
      rows: 2
      cols: 1
      dt: i
      data: [ 0, 1 ]
   sv_total: 1
   support_vectors:
      - [ -5.08703804e+00, 2.29338932e+00, -4.08939123e+00,
          7.21671200e+00, 1.51379073e+00, -6.69290495e+00 ]
   uncompressed_sv_total: 11857
   uncompressed_support_vectors:
      - [ 5.37049592e-01, 1.10080197e-01, 6.14309423e-02, 6.14309423e-02,
          1.10080197e-01, 1.10080197e-01 ]
      - [ 5.37049592e-01, 7.57816210e-02, 3.22403349e-02, 3.22403349e-02,
          7.57816210e-02, 7.57816210e-02 ]
      - [ 5.37049592e-01, 1.07253842e-01, 8.83965660e-03, 8.83965660e-03,
          1.07253842e-01, 1.07253842e-01 ]
      - [ 5.37049592e-01, 8.93587694e-02, -1.02655692e-02,
          -1.02655692e-02, 8.93587694e-02, 8.93587694e-02 ]
      - [ 5.37049592e-01, 8.21173042e-02, 1.15507141e-01, 1.15507141e-01,
          8.21173042e-02, 1.12308361e-01 ]
      - [ 5.37049592e-01, 6.81307167e-02, 8.04946199e-02, 8.04946199e-02,
          6.81307167e-02, 8.89256448e-02 ]
      - [ 5.37049592e-01, 5.30634113e-02, 5.40785491e-02, 5.40785491e-02,
          5.30634113e-02, 6.86183870e-02 ]
      - [ 5.37049592e-01, 2.50561181e-02, 1.79285407e-02, 1.79285407e-02,
          6.05905876e-02, 6.35531545e-02 ]
      - [ 5.37049592e-01, 3.23716290e-02, 5.18316813e-02, 8.71500969e-02,
          7.39365593e-02, 9.83231738e-02 ]
      - [ 5.37049592e-01, 3.25669236e-02, 3.64766754e-02, 6.80871680e-02,
          7.83884600e-02, 9.58101749e-02 ]
      - [ 5.37049592e-01, 2.72167344e-02, 5.51832542e-02, 8.87170061e-02,
          1.06399029e-01, 1.20521814e-01 ]
      - [ 5.37049592e-01, 2.02373508e-02, 4.12644856e-02, 7.17961863e-02,
          1.14334628e-01, 1.21324152e-01 ]
      - [ 5.37049592e-01, 1.50320912e-02, 6.12598062e-02, 1.16864458e-01,
          1.06545910e-01, 1.28846601e-01 ]
      - [ 5.37049592e-01, 1.54838711e-02, 1.35461777e-01, 1.67557344e-01,
          9.73895565e-02, 1.39943182e-01 ]
      - [ 5.37049592e-01, 9.46887303e-03, 1.16158351e-01, 1.43469810e-01,
          9.69041437e-02, 1.30407542e-01 ]
      - [ 5.37049592e-01, 9.39547457e-03, 1.31667718e-01, 1.61831647e-01,
          8.85495543e-02, 1.29390389e-01 ]
      - [ 5.37049592e-01, 8.11438356e-03, 1.39683798e-01, 1.67880327e-01,
          8.02694559e-02, 1.24702156e-01 ]
      - [ 5.37049592e-01, 4.86748889e-02, 1.33129105e-01, 1.56805485e-01,
          9.76969451e-02, 1.33647799e-01 ]
      - [ 5.37049592e-01, 6.41282275e-02, 1.64288983e-01, 1.67366087e-01,
          9.69768018e-02, 1.39347315e-01 ]
      - [ 5.37049592e-01, 7.73445517e-02, 1.46350458e-01, 1.49175018e-01,
          1.01371713e-01, 1.34136766e-01 ]
      - [ 5.37049592e-01, 8.54615048e-02, 1.30993903e-01, 1.33728683e-01,
          1.02471352e-01, 1.27833262e-01 ]
      - [ 5.37049592e-01, 7.91077465e-02, 1.52038977e-01, 1.46064550e-01,
          9.36050117e-02, 1.27087831e-01 ]
      - [ 5.37049592e-01, 8.44233632e-02, 1.36936128e-01, 1.31856874e-01,
          9.35854018e-02, 1.20644972e-01 ]
      - [ 5.37049592e-01, 8.72540250e-02, 1.23673014e-01, 1.19338453e-01,
          9.21256244e-02, 1.14041850e-01 ]
      - [ 5.37049592e-01, 8.82513225e-02, 1.11796059e-01, 1.08108893e-01,
          8.96653906e-02, 1.07436813e-01 ]
      - [ 5.37049592e-01, 8.24442506e-02, 1.27026781e-01, 1.17592081e-01,
          8.25708285e-02, 1.06256768e-01 ]
      - [ 5.37049592e-01, 7.65654743e-02, 1.36590138e-01, 1.23187073e-01,
          7.56553039e-02, 1.03652470e-01 ]
      - [ 5.37049592e-01, 7.74402097e-02, 1.24712728e-01, 1.12618834e-01,
          7.38223195e-02, 9.78426412e-02 ]
      - [ 5.37049592e-01, 7.72111192e-02, 1.13965087e-01, 1.02963522e-01,
          7.13715330e-02, 9.20666531e-02 ]
      - [ 5.37049592e-01, 6.64921924e-02, 1.16992705e-01, 1.19261101e-01,
          8.02258104e-02, 1.05859838e-01 ]
      - [ 5.37049592e-01, 9.10639837e-02, 1.01161711e-01, 1.06948279e-01,
          1.08848035e-01, 1.17300771e-01 ]
      - [ 5.37049592e-01, 9.38952714e-02, 9.13502425e-02, 9.94821265e-02,
          1.13719113e-01, 1.15908332e-01 ]
      - [ 5.37049592e-01, 8.98129120e-02, 8.84708390e-02, 9.59845111e-02,
          1.10601053e-01, 1.12140119e-01 ]
      - [ 5.37049592e-01, 8.48134384e-02, 9.69564319e-02, 1.03414349e-01,
          1.03997990e-01, 1.11517012e-01 ]
      - [ 5.37049592e-01, 8.35295394e-02, 9.06535015e-02, 9.69125032e-02,
          1.05573885e-01, 1.09263420e-01 ]
      - [ 9.35409069e-01, 6.52325973e-02, 7.21951202e-02, 6.72252029e-02,
          6.22199140e-02, 6.11014366e-02 ]
      - [ 9.35409069e-01, 7.18682185e-02, 6.75237328e-02, 6.27948269e-02,
          6.37680590e-02, 5.93455508e-02 ]
      - [ 9.35409069e-01, 5.92914708e-02, 4.36326452e-02, 3.92039828e-02,
          4.88143787e-02, 4.27705534e-02 ]
      - [ 9.35409069e-01, 6.14491291e-02, 5.13690338e-02, 4.43149842e-02,
          5.03825694e-02, 4.23484482e-02 ]
      - [ 5.37049592e-01, 1.49735680e-03, 4.51928843e-03, 6.68023340e-03,
          9.56771430e-03, 1.19392266e-02 ]
      - [ 5.37049592e-01, 1.46595470e-03, 4.79776319e-03, 7.50715612e-03,
          9.97802056e-03, 1.27271675e-02 ]
      - [ 5.37049592e-01, 1.49252138e-03, 4.03967919e-03, 6.75674574e-03,
          9.97291692e-03, 1.24010909e-02 ]
      - [ 5.37049592e-01, 9.14276869e-04, 5.11741126e-03, 7.67668849e-03,
          9.28784069e-03, 1.23648429e-02 ]
      - [ 5.37049592e-01, 3.61805345e-04, 5.42901363e-03, 7.83749484e-03,
          8.59712251e-03, 1.19978450e-02 ]
      - [ 5.37049592e-01, 3.84888001e-04, 4.67207050e-03, 7.08839437e-03,
          8.58799554e-03, 1.16698267e-02 ]
      - [ 5.37049592e-01, 4.04706952e-04, 3.91583703e-03, 6.34011673e-03,
          8.57549347e-03, 1.13403425e-02 ]
      - [ 5.37049592e-01, -1.71507199e-04, 4.98063769e-03,
          7.24522350e-03, 7.89316278e-03, 1.12979785e-02 ]
      - [ 5.37049592e-01, -1.53386034e-04, 4.22497978e-03,
          6.49760710e-03, 7.87871052e-03, 1.09675638e-02 ]
      - [ 5.37049592e-01, -1.38488453e-04, 3.47002945e-03,
          5.75080933e-03, 7.86093622e-03, 1.06357122e-02 ]
      - [ 5.37049592e-01, -7.13145069e-04, 4.52912273e-03,
          6.64923480e-03, 7.18041230e-03, 1.05907517e-02 ]
      - [ 5.37049592e-01, -1.84791058e-03, 6.52150763e-03,
          8.72736890e-03, 6.38278062e-03, 1.10794390e-02 ]
      - [ 5.37049592e-01, -1.83478650e-03, 5.76684112e-03,
          7.98053388e-03, 6.93708705e-03, 1.10825524e-02 ]
      - [ 5.37049592e-01, -2.39756447e-03, 6.06373046e-03,
          8.70331097e-03, 6.80386927e-03, 1.13535244e-02 ]
      - [ 5.37049592e-01, -2.38922331e-03, 5.31034684e-03,
          7.95727968e-03, 7.34192738e-03, 1.13474531e-02 ]
      - [ 5.37049592e-01, -2.96192477e-03, 6.35575037e-03,
          9.41023044e-03, 6.66248426e-03, 1.16110286e-02 ]
      - [ 5.37049592e-01, -2.00551609e-03, 5.60295209e-03,
          8.66420753e-03, 7.49375718e-03, 1.17767584e-02 ]
      - [ 5.37049592e-01, -2.57884176e-03, 7.04300590e-03,
          9.95269511e-03, 6.81425584e-03, 1.19498959e-02 ]
      - [ 5.37049592e-01, -1.63132872e-03, 6.29032915e-03,
          9.20687150e-03, 7.63353193e-03, 1.21085402e-02 ]
      - [ 5.37049592e-01, -1.36565720e-03, 5.53834764e-03,
          8.46185815e-03, 7.87145738e-03, 1.19267637e-02 ]
      - [ 5.37049592e-01, -1.10455079e-03, 4.78706136e-03,
          7.71765225e-03, 8.10412411e-03, 1.17424075e-02 ]
      - [ 5.37049592e-01, -1.67695200e-03, 6.04442460e-03,
          8.80831853e-03, 7.42569380e-03, 1.18065588e-02 ]
      - [ 5.37049592e-01, -1.41895900e-03, 5.29346894e-03,
          8.06453917e-03, 7.65442662e-03, 1.16199804e-02 ]
      - [ 5.37049592e-01, -1.03992666e-03, 4.54320572e-03,
          7.32156355e-03, 8.41549318e-03, 1.17460908e-02 ]
      - [ 5.37049592e-01, -6.66163338e-04, 3.79363401e-03,
          6.57939073e-03, 9.16478317e-03, 1.18658002e-02 ]
      - [ 5.37049592e-01, -1.23710651e-03, 5.08961780e-03,
          8.08553584e-03, 8.48689303e-03, 1.21593121e-02 ]
      - [ 5.37049592e-01, -9.81582678e-04, 4.34032734e-03,
          7.34330062e-03, 8.71090870e-03, 1.19707845e-02 ]
      - [ 5.37049592e-01, -1.55233103e-03, 5.59127098e-03,
          8.42520129e-03, 8.03366397e-03, 1.20308315e-02 ]
      - [ 5.37049592e-01, -1.29986787e-03, 4.84231254e-03,
          7.68339634e-03, 8.25384445e-03, 1.18401432e-02 ]
      - [ 5.37049592e-01, -1.05184806e-03, 4.09404188e-03,
          6.94239000e-03, 8.46896693e-03, 1.16469879e-02 ]
      - [ 5.37049592e-01, -1.62162178e-03, 5.33746416e-03,
          8.01519398e-03, 7.79294362e-03, 1.17027555e-02 ]
      - [ 5.37049592e-01, -1.37660571e-03, 4.58953111e-03,
          7.27462349e-03, 8.00432637e-03, 1.15074990e-02 ]
      - [ 5.37049592e-01, -1.13597431e-03, 3.84228351e-03,
          6.53484883e-03, 8.21074471e-03, 1.13098295e-02 ]
      - [ 5.37049592e-01, -1.70476118e-03, 5.07827848e-03,
          7.59871211e-03, 7.53595680e-03, 1.13614127e-02 ]
      - [ 5.37049592e-01, -1.32872968e-03, 4.33137408e-03,
          6.85938075e-03, 8.27802811e-03, 1.14779631e-02 ]
      - [ 5.37049592e-01, -3.83832026e-04, 3.58515210e-03,
          6.12084055e-03, 9.12429299e-03, 1.16561148e-02 ]
      - [ 5.37049592e-01, -9.52605857e-04, 5.02167922e-03,
          7.68228434e-03, 8.44938308e-03, 1.19823851e-02 ]
      - [ 5.37049592e-01, -1.63808381e-05, 4.27556643e-03,
          6.94361096e-03, 9.28348210e-03, 1.21531710e-02 ]
      - [ 5.37049592e-01, 9.10134811e-04, 3.53013445e-03, 6.20572688e-03,
          1.01046227e-02, 1.23168575e-02 ]
      - [ 5.37049592e-01, 3.40747705e-04, 4.95704124e-03, 7.74838170e-03,
          9.42951441e-03, 1.26326429e-02 ]
      - [ 5.37049592e-01, 5.80528576e-04, 4.21172753e-03, 7.01038539e-03,
          9.99018177e-03, 1.26433624e-02 ]
      - [ 5.37049592e-01, 1.13508722e-05, 5.44125075e-03, 8.53388570e-03,
          9.31532215e-03, 1.29491212e-02 ]
      - [ 5.37049592e-01, 2.48205062e-04, 4.69628116e-03, 7.79579906e-03,
          9.86843463e-03, 1.29552046e-02 ]
      - [ 5.37049592e-01, 4.80763585e-04, 3.95198818e-03, 7.05849798e-03,
          1.04129761e-02, 1.29567571e-02 ]
      - [ 5.37049592e-01, -8.74205143e-05, 5.17426804e-03,
          8.56419373e-03, 9.73855890e-03, 1.32529596e-02 ]
      - [ 5.37049592e-01, -6.56165474e-04, 6.46542851e-03,
          1.00507783e-02, 9.06422362e-03, 1.35394493e-02 ]
      - [ 5.37049592e-01, -6.27070840e-04, 5.72107965e-03,
          9.31257196e-03, 9.06379521e-03, 1.32205645e-02 ]
      - [ 5.37049592e-01, -6.01105101e-04, 4.97740461e-03,
          8.57515074e-03, 9.06009972e-03, 1.29002547e-02 ]
      - [ 5.37049592e-01, -1.16838200e-03, 6.02894975e-03,
          9.47225560e-03, 8.38746596e-03, 1.28623014e-02 ]
      - [ 5.37049592e-01, -1.14405935e-03, 5.28581580e-03,
          8.73545837e-03, 8.38185567e-03, 1.25410706e-02 ]
      - [ 5.37049592e-01, -1.12282846e-03, 4.54335241e-03,
          7.99944066e-03, 8.37302860e-03, 1.22184427e-02 ]
      - [ 5.37049592e-01, -1.10466988e-03, 3.80155956e-03,
          7.26420339e-03, 8.36101081e-03, 1.18944310e-02 ]
      - [ 5.37049592e-01, -1.66945835e-03, 4.84886998e-03,
          8.15594103e-03, 7.69089675e-03, 1.18546495e-02 ]
      - [ 5.37049592e-01, -2.23480305e-03, 5.88828605e-03,
          9.03911889e-03, 7.02085812e-03, 1.18109658e-02 ]
      - [ 5.37049592e-01, -2.21677753e-03, 5.14691323e-03,
          8.30435846e-03, 7.00831367e-03, 1.14865666e-02 ]
      - [ 5.37049592e-01, -2.20178999e-03, 4.40620724e-03,
          7.57037383e-03, 6.99262600e-03, 1.11608095e-02 ]
      - [ 5.37049592e-01, -2.18982133e-03, 3.66616668e-03,
          6.83716219e-03, 6.97381981e-03, 1.08337067e-02 ]
      - [ 5.37049592e-01, -2.75267009e-03, 4.70146770e-03,
          7.71516142e-03, 6.30630553e-03, 1.07883029e-02 ]
      - [ 5.37049592e-01, -2.74224766e-03, 3.96197522e-03,
          6.98258122e-03, 6.28571818e-03, 1.04603628e-02 ]
      - [ 5.37049592e-01, -2.73480895e-03, 3.22314538e-03,
          6.25077076e-03, 6.26205979e-03, 1.01311021e-02 ]
      - [ 5.37049592e-01, -3.29617388e-03, 4.25315043e-03,
          7.12258648e-03, 5.59625681e-03, 1.00833196e-02 ]
      - [ 5.37049592e-01, -2.90541351e-03, 3.51487054e-03,
          6.39140978e-03, 5.85568091e-03, 9.92026366e-03 ]
      - [ 5.37049592e-01, -2.51979707e-03, 2.77725141e-03,
          5.66099957e-03, 6.10988587e-03, 9.75462608e-03 ]
      - [ 5.37049592e-01, -3.08054895e-03, 4.06737067e-03,
          6.81351731e-03, 5.44515578e-03, 9.86248441e-03 ]
      - [ 5.37049592e-01, -2.69873859e-03, 3.33000394e-03,
          6.08342001e-03, 5.69539377e-03, 9.69455019e-03 ]
      - [ 5.37049592e-01, -3.25945346e-03, 4.61118855e-03,
          7.22490950e-03, 5.03124017e-03, 9.79705527e-03 ]
      - [ 5.37049592e-01, -2.88141542e-03, 3.87408282e-03,
          6.49513584e-03, 5.27755776e-03, 9.62685701e-03 ]
      - [ 5.37049592e-01, -3.44208698e-03, 5.29697025e-03,
          7.77750416e-03, 4.61398438e-03, 9.80788283e-03 ]
      - [ 5.37049592e-01, -4.74689575e-03, 7.88144208e-03,
          9.67237074e-03, 2.81053432e-03, 9.55317169e-03 ]
      - [ 5.37049592e-01, -4.72945301e-03, 7.14587281e-03,
          8.94454215e-03, 3.35869286e-03, 9.56017058e-03 ]
      - [ 5.37049592e-01, -5.28897764e-03, 8.17168225e-03,
          1.03818169e-02, 2.69793952e-03, 9.83074494e-03 ]
      - [ 5.37049592e-01, -5.27305948e-03, 7.43665034e-03,
          9.65397246e-03, 3.23900091e-03, 9.83342621e-03 ]
      - [ 5.37049592e-01, -5.26006939e-03, 6.70226524e-03,
          8.92688055e-03, 3.77199776e-03, 9.83184949e-03 ]
      - [ 5.37049592e-01, -5.81814256e-03, 7.72289326e-03,
          1.03485715e-02, 3.11167026e-03, 1.00940876e-02 ]
      - [ 5.37049592e-01, -5.45203593e-03, 6.98904693e-03,
          9.62148048e-03, 3.34195374e-03, 9.91487317e-03 ]
      - [ 5.37049592e-01, -6.01004390e-03, 8.22005793e-03,
          1.07000628e-02, 2.68221763e-03, 9.98839829e-03 ]
      - [ 5.37049592e-01, -5.06412797e-03, 7.48651521e-03,
          9.97335277e-03, 3.50971101e-03, 1.01594143e-02 ]
      - [ 5.37049592e-01, -5.62272174e-03, 8.89950059e-03,
          1.14930607e-02, 2.84990110e-03, 1.04768546e-02 ]
      - [ 5.37049592e-01, -3.68592446e-03, 8.76229722e-03,
          1.11072054e-02, 4.21277946e-03, 1.11415097e-02 ]
      - [ 5.37049592e-01, -3.42256809e-03, 8.03036615e-03,
          1.03822341e-02, 4.44121193e-03, 1.09619144e-02 ]
      - [ 5.37049592e-01, -3.98145057e-03, 9.25480481e-03,
          1.14421258e-02, 3.78224533e-03, 1.10263722e-02 ]
      - [ 5.37049592e-01, -3.72100342e-03, 8.52317736e-03,
          1.07175494e-02, 4.00706567e-03, 1.08447373e-02 ]
      - [ 5.37049592e-01, -3.46474512e-03, 7.79218692e-03,
          9.99371428e-03, 4.22714790e-03, 1.06607890e-02 ]
      - [ 5.37049592e-01, -4.02273843e-03, 9.00956895e-03,
          1.10450517e-02, 3.56929237e-03, 1.07211955e-02 ]
      - [ 5.37049592e-01, -3.76933790e-03, 8.27888772e-03,
          1.03216181e-02, 3.78584652e-03, 1.05352616e-02 ]
      - [ 5.37049592e-01, -3.52007360e-03, 7.54884072e-03,
          9.59892292e-03, 3.99774686e-03, 1.03470609e-02 ]
      - [ 5.37049592e-01, -4.07716632e-03, 8.75924993e-03,
          1.06418496e-02, 3.34101543e-03, 1.04035027e-02 ]
      - [ 5.37049592e-01, -3.83070949e-03, 8.02951679e-03,
          9.91956051e-03, 3.54946963e-03, 1.02133686e-02 ]
      - [ 5.37049592e-01, -3.45957628e-03, 7.30041601e-03,
          9.19800717e-03, 4.30269493e-03, 1.03430888e-02 ]
      - [ 5.37049592e-01, -3.09326826e-03, 6.57194620e-03,
          8.47718678e-03, 5.04499208e-03, 1.04668615e-02 ]
      - [ 5.37049592e-01, -3.64901824e-03, 7.80089479e-03,
          9.94745735e-03, 4.38873610e-03, 1.07591925e-02 ]
      - [ 5.37049592e-01, -3.40478541e-03, 7.07271462e-03,
          9.22657177e-03, 4.59301146e-03, 1.05673485e-02 ]
      - [ 5.37049592e-01, -3.96033935e-03, 8.27736873e-03,
          1.02616828e-02, 3.93736130e-03, 1.06201442e-02 ]
      - [ 5.37049592e-01, -3.59594845e-03, 7.54950382e-03,
          9.54120699e-03, 4.67086211e-03, 1.07386643e-02 ]
      - [ 5.37049592e-01, -2.67721503e-03, 6.82226615e-03,
          8.82146042e-03, 5.48954587e-03, 1.09075820e-02 ]
      - [ 5.37049592e-01, -3.23274150e-03, 8.21176451e-03,
          1.03248050e-02, 4.83377883e-03, 1.12188514e-02 ]
      - [ 5.37049592e-01, -2.32196762e-03, 7.48463720e-03,
          9.60495416e-03, 5.64140454e-03, 1.13810813e-02 ]
      - [ 5.37049592e-01, -1.42011384e-03, 6.75813621e-03,
          8.88583157e-03, 6.43723272e-03, 1.15368506e-02 ]
      - [ 5.37049592e-01, -1.97619433e-03, 8.13882705e-03,
          1.03721721e-02, 5.78129431e-03, 1.18386382e-02 ]
      - [ 5.37049592e-01, -1.73280551e-03, 7.41244480e-03,
          9.65296291e-03, 6.34506019e-03, 1.18581643e-02 ]
      - [ 5.37049592e-01, -1.49344606e-03, 6.68668654e-03,
          8.93447921e-03, 6.90064533e-03, 1.18733495e-02 ]
      - [ 5.37049592e-01, -2.04862352e-03, 7.88642745e-03,
          1.04207471e-02, 6.24506176e-03, 1.21753197e-02 ]
      - [ 5.37049592e-01, -1.81198260e-03, 7.16098165e-03,
          9.70217586e-03, 6.79359958e-03, 1.21861817e-02 ]
      - [ 5.37049592e-01, -1.57932099e-03, 6.43615797e-03,
          8.98432918e-03, 7.33415922e-03, 1.21928221e-02 ]
      - [ 5.37049592e-01, -2.13358528e-03, 7.62916962e-03,
          1.04540354e-02, 6.67896215e-03, 1.24858888e-02 ]
      - [ 5.37049592e-01, -2.09846208e-03, 6.90466352e-03,
          9.73611791e-03, 6.68293936e-03, 1.21777775e-02 ]
      - [ 5.37049592e-01, -2.06625019e-03, 6.18077721e-03,
          9.01892222e-03, 6.68389024e-03, 1.18683446e-02 ]
      - [ 5.37049592e-01, -2.61916756e-03, 7.20930053e-03,
          9.89403948e-03, 6.03025034e-03, 1.18340710e-02 ]
      - [ 5.37049592e-01, -2.58849934e-03, 6.48590690e-03,
          9.17741470e-03, 6.02941541e-03, 1.15237758e-02 ]
      - [ 5.37049592e-01, -2.56070960e-03, 5.76313026e-03,
          8.46150797e-03, 6.02559838e-03, 1.12121822e-02 ]
      - [ 5.37049592e-01, -2.53578112e-03, 5.04097063e-03,
          7.74631836e-03, 6.01882208e-03, 1.08993035e-02 ]
      - [ 5.37049592e-01, -3.08641815e-03, 6.06553536e-03,
          8.61645490e-03, 5.36748860e-03, 1.08633135e-02 ]
      - [ 5.37049592e-01, -3.63756018e-03, 7.08276359e-03,
          9.47866403e-03, 4.71622637e-03, 1.08237043e-02 ]
      - [ 5.37049592e-01, -3.61278607e-03, 6.36098022e-03,
          8.76390841e-03, 4.70893690e-03, 1.05104493e-02 ]
      - [ 5.37049592e-01, -3.59084248e-03, 5.63981012e-03,
          8.04986618e-03, 4.69873007e-03, 1.01959305e-02 ]
      - [ 5.37049592e-01, -3.57171311e-03, 4.91925236e-03,
          7.33653503e-03, 4.68562776e-03, 9.88015998e-03 ]
      - [ 5.37049592e-01, -4.12056781e-03, 5.93262864e-03,
          8.19392968e-03, 4.03667707e-03, 9.83893033e-03 ]
      - [ 5.37049592e-01, -4.10289597e-03, 5.21257007e-03,
          7.48117687e-03, 4.02190676e-03, 9.52237006e-03 ]
      - [ 5.37049592e-01, -4.08800691e-03, 4.49312152e-03,
          6.76913280e-03, 4.00428288e-03, 9.20458138e-03 ]
      - [ 5.37049592e-01, -4.63549979e-03, 5.50155388e-03,
          7.62078306e-03, 3.35690053e-03, 9.16112494e-03 ]
      - [ 5.37049592e-01, -5.18349279e-03, 6.73186546e-03,
          9.07596480e-03, 2.70958641e-03, 9.45164356e-03 ]
      - [ 5.37049592e-01, -5.73198125e-03, 8.10826104e-03,
          1.03234025e-02, 2.06234260e-03, 9.62821860e-03 ]
      - [ 5.37049592e-01, -5.71585121e-03, 7.38846464e-03,
          9.61061474e-03, 2.60629761e-03, 9.63873323e-03 ]
      - [ 5.37049592e-01, -5.70247509e-03, 6.66927593e-03,
          8.89853388e-03, 3.14250751e-03, 9.64514911e-03 ]
      - [ 5.37049592e-01, -6.24959683e-03, 7.67067075e-03,
          1.03062578e-02, 2.49563507e-03, 9.91045870e-03 ]
      - [ 5.37049592e-01, -6.23762794e-03, 6.95198635e-03,
          9.59416199e-03, 3.02519556e-03, 9.91283078e-03 ]
      - [ 5.37049592e-01, -5.85517054e-03, 6.23390730e-03,
          8.88276938e-03, 3.27467197e-03, 9.75145120e-03 ]
      - [ 5.37049592e-01, -5.47743123e-03, 5.51643176e-03,
          8.17208085e-03, 3.51940631e-03, 9.58773308e-03 ]
      - [ 5.37049592e-01, -6.02305448e-03, 6.74086949e-03,
          9.25098918e-03, 2.87368824e-03, 9.67184454e-03 ]
      - [ 5.37049592e-01, -5.64880902e-03, 6.02365658e-03,
          8.54063220e-03, 3.11482325e-03, 9.50606726e-03 ]
      - [ 5.37049592e-01, -5.63723361e-03, 5.30704623e-03,
          7.83097558e-03, 3.63795739e-03, 9.50604212e-03 ]
      - [ 5.37049592e-01, -6.18189014e-03, 6.30601076e-03,
          9.22531169e-03, 2.99294014e-03, 9.76474024e-03 ]
      - [ 5.37049592e-01, -6.72703655e-03, 7.52274040e-03,
          1.02941925e-02, 2.34799273e-03, 9.84449312e-03 ]
      - [ 5.37049592e-01, -6.35446981e-03, 6.80629723e-03,
          9.58416983e-03, 2.58651236e-03, 9.67710279e-03 ]
      - [ 5.37049592e-01, -6.89956872e-03, 8.01516883e-03,
          1.06436415e-02, 1.94210280e-03, 9.75233782e-03 ]
      - [ 5.37049592e-01, -6.53043995e-03, 7.29900040e-03,
          9.93396901e-03, 2.17710203e-03, 9.58294608e-03 ]
      - [ 5.37049592e-01, -7.07548624e-03, 8.50009173e-03,
          1.09841703e-02, 1.53323356e-03, 9.65373963e-03 ]
      - [ 5.37049592e-01, -6.70976704e-03, 7.78420549e-03,
          1.02748545e-02, 1.76475185e-03, 9.48237441e-03 ]
      - [ 5.37049592e-01, -7.25475559e-03, 8.97759385e-03,
          1.13159195e-02, 1.12142751e-03, 9.54880100e-03 ]
      - [ 5.37049592e-01, -6.33799424e-03, 8.26199725e-03,
          1.06069697e-02, 1.93098979e-03, 9.71635431e-03 ]
      - [ 5.37049592e-01, -6.88351551e-03, 9.63152107e-03,
          1.18423179e-02, 1.28759665e-03, 9.89037007e-03 ]
      - [ 5.37049592e-01, -6.52035885e-03, 8.91602598e-03,
          1.11335274e-02, 1.51630980e-03, 9.71738715e-03 ]
      - [ 5.37049592e-01, -7.06581632e-03, 1.01016229e-02,
          1.21653024e-02, 8.73463345e-04, 9.77967866e-03 ]
      - [ 5.37049592e-01, -6.15571719e-03, 9.38642304e-03,
          1.14568854e-02, 1.67332811e-03, 9.94157139e-03 ]
      - [ 5.37049592e-01, -5.79627091e-03, 8.67181830e-03,
          1.07491612e-02, 2.41128635e-03, 1.00676063e-02 ]
      - [ 5.37049592e-01, -5.44132991e-03, 7.95780588e-03,
          1.00421291e-02, 3.13898898e-03, 1.01880608e-02 ]
      - [ 5.37049592e-01, -5.98622439e-03, 9.13796015e-03,
          1.14790630e-02, 2.49596220e-03, 1.04736211e-02 ]
      - [ 5.37049592e-01, -5.72445430e-03, 8.42424575e-03,
          1.07719731e-02, 3.04686138e-03, 1.04902694e-02 ]
      - [ 5.37049592e-01, -5.46661764e-03, 7.71112274e-03,
          1.00655723e-02, 3.59007157e-03, 1.05028404e-02 ]
      - [ 5.37049592e-01, -6.01069722e-03, 8.90756026e-03,
          1.15180155e-02, 2.94738682e-03, 1.07971812e-02 ]
      - [ 5.37049592e-01, -5.65721374e-03, 8.19471478e-03,
          1.08115403e-02, 3.66611336e-03, 1.09124575e-02 ]
      - [ 5.37049592e-01, -5.40181017e-03, 7.48245884e-03,
          1.01057524e-02, 4.20223409e-03, 1.09211262e-02 ]
      - [ 5.37049592e-01, -4.49779397e-03, 6.77079055e-03,
          9.40065086e-03, 5.00039058e-03, 1.10838208e-02 ]
      - [ 5.37049592e-01, -4.24658880e-03, 6.05971040e-03,
          8.69623292e-03, 5.52845793e-03, 1.10886274e-02 ]
      - [ 5.37049592e-01, -4.78934683e-03, 7.25164590e-03,
          1.01346513e-02, 4.88596829e-03, 1.13746636e-02 ]
      - [ 5.37049592e-01, -5.33257937e-03, 8.61627236e-03,
          1.16028311e-02, 4.24355129e-03, 1.16778724e-02 ]
      - [ 5.37049592e-01, -4.43494692e-03, 7.90498126e-03,
          1.08975740e-02, 5.03191259e-03, 1.18344650e-02 ]
      - [ 5.37049592e-01, -3.54571640e-03, 7.19427504e-03,
          1.01929996e-02, 5.80925401e-03, 1.19850263e-02 ]
      - [ 5.37049592e-01, -4.08948306e-03, 8.55058245e-03,
          1.16452659e-02, 5.16668335e-03, 1.22793643e-02 ]
      - [ 5.37049592e-01, -4.06195829e-03, 7.83998147e-03,
          1.09406142e-02, 5.68920188e-03, 1.22803841e-02 ]
      - [ 5.37049592e-01, -4.03714180e-03, 7.12996442e-03,
          1.02366451e-02, 6.20440301e-03, 1.22775435e-02 ]
      - [ 5.37049592e-01, -4.57961531e-03, 8.13084375e-03,
          1.16146170e-02, 5.56222862e-03, 1.25311092e-02 ]
      - [ 5.37049592e-01, -5.12255728e-03, 9.30767413e-03,
          1.30347060e-02, 4.92012966e-03, 1.28086684e-02 ]
      - [ 5.37049592e-01, -5.09787863e-03, 8.59783683e-03,
          1.23300105e-02, 5.43004880e-03, 1.28020123e-02 ]
      - [ 5.37049592e-01, -5.07588079e-03, 7.88857974e-03,
          1.16259959e-02, 5.93282050e-03, 1.27915936e-02 ]
      - [ 5.37049592e-01, -5.61752496e-03, 8.88377707e-03,
          1.29885664e-02, 5.29114297e-03, 1.30376555e-02 ]
      - [ 5.37049592e-01, -6.15963293e-03, 1.02310246e-02,
          1.42116612e-02, 4.64954134e-03, 1.32074477e-02 ]
      - [ 5.37049592e-01, -5.80053357e-03, 9.52177308e-03,
          1.35071408e-02, 4.88045998e-03, 1.30371032e-02 ]
      - [ 5.37049592e-01, -5.44584682e-03, 8.81310087e-03,
          1.28033012e-02, 5.10694645e-03, 1.28645869e-02 ]
      - [ 5.37049592e-01, -5.98736014e-03, 9.98366531e-03,
          1.38283819e-02, 4.46634041e-03, 1.29256509e-02 ]
      - [ 5.37049592e-01, -5.63590555e-03, 9.27528460e-03,
          1.31249065e-02, 4.68949741e-03, 1.27512580e-02 ]
      - [ 5.37049592e-01, -5.28880907e-03, 8.56748130e-03,
          1.24221081e-02, 4.90829814e-03, 1.25747370e-02 ]
      - [ 5.37049592e-01, -5.82971424e-03, 9.73177049e-03,
          1.34394020e-02, 4.26869839e-03, 1.26321092e-02 ]
      - [ 5.37049592e-01, -5.48579590e-03, 9.02426243e-03,
          1.27369734e-02, 4.48424276e-03, 1.24537582e-02 ]
      - [ 5.37049592e-01, -5.14618028e-03, 8.31732992e-03,
          1.20352199e-02, 4.69550397e-03, 1.22733200e-02 ]
      - [ 5.37049592e-01, -5.68646612e-03, 9.47541278e-03,
          1.30448472e-02, 4.05692216e-03, 1.23270750e-02 ]
      - [ 5.37049592e-01, -5.34997601e-03, 8.76877923e-03,
          1.23434681e-02, 4.26499825e-03, 1.21448515e-02 ]
      - [ 5.37049592e-01, -5.01773553e-03, 8.06271937e-03,
          1.16427615e-02, 4.46886290e-03, 1.19605819e-02 ]
      - [ 5.37049592e-01, -5.55738900e-03, 9.21466667e-03,
          1.26448423e-02, 3.83130996e-03, 1.20107913e-02 ]
      - [ 5.37049592e-01, -4.66588559e-03, 8.50890949e-03,
          1.19445138e-02, 4.62466944e-03, 1.21720945e-02 ]
      - [ 5.37049592e-01, -4.40183701e-03, 7.80372461e-03,
          1.12448549e-02, 4.86068241e-03, 1.20071685e-02 ]
      - [ 5.37049592e-01, -4.14162269e-03, 7.09911017e-03,
          1.05458638e-02, 5.09227347e-03, 1.18400697e-02 ]
      - [ 5.37049592e-01, -4.68053482e-03, 8.44275206e-03,
          1.17614344e-02, 4.45555756e-03, 1.20083289e-02 ]
      - [ 5.37049592e-01, -5.21990377e-03, 9.63219814e-03,
          1.27982637e-02, 3.81891453e-03, 1.20786158e-02 ]
      - [ 5.37049592e-01, -4.96116281e-03, 8.92737880e-03,
          1.20991012e-02, 4.04821336e-03, 1.19097801e-02 ]
      - [ 5.37049592e-01, -4.70621185e-03, 8.22312757e-03,
          1.14006037e-02, 4.27316595e-03, 1.17388135e-02 ]
      - [ 5.37049592e-01, -5.24479384e-03, 9.40615684e-03,
          1.24295363e-02, 3.63749801e-03, 1.18053304e-02 ]
      - [ 5.37049592e-01, -4.99244267e-03, 8.70217197e-03,
          1.17313843e-02, 3.85918445e-03, 1.16325170e-02 ]
      - [ 5.37049592e-01, -4.74383589e-03, 7.99875427e-03,
          1.10338954e-02, 4.07659728e-03, 1.14576146e-02 ]
      - [ 5.37049592e-01, -5.28162206e-03, 9.17543750e-03,
          1.20550552e-02, 3.44191585e-03, 1.15204370e-02 ]
      - [ 5.37049592e-01, -4.39372845e-03, 8.47228989e-03,
          1.13579165e-02, 4.22752695e-03, 1.16785988e-02 ]
      - [ 5.37049592e-01, -4.14797571e-03, 7.76970759e-03,
          1.06614381e-02, 4.44132648e-03, 1.15020629e-02 ]
      - [ 5.37049592e-01, -3.90592217e-03, 7.06768967e-03,
          9.96561907e-03, 4.65092575e-03, 1.13234781e-02 ]
      - [ 5.37049592e-01, -4.44293953e-03, 8.23909324e-03,
          1.09800035e-02, 4.01711883e-03, 1.13827614e-02 ]
      - [ 5.37049592e-01, -4.10613045e-03, 7.53734726e-03,
          1.02845365e-02, 4.22359305e-03, 1.12024182e-02 ]
      - [ 5.37049592e-01, -3.86632374e-03, 6.83616428e-03,
          9.58972611e-03, 4.43024607e-03, 1.10225910e-02 ]
      - [ 5.37049592e-01, -4.40263283e-03, 7.98707362e-03,
          1.05883228e-02, 3.79744195e-03, 1.10737653e-02 ]
      - [ 5.37049592e-01, -4.06855345e-03, 7.28618121e-03,
          9.89387836e-03, 4.51635942e-03, 1.11942301e-02 ]
      - [ 5.37049592e-01, -3.73863871e-03, 6.58584945e-03,
          9.20008775e-03, 5.22561790e-03, 1.13094440e-02 ]
      - [ 5.37049592e-01, -4.27433243e-03, 7.73075363e-03,
          1.06081245e-02, 4.59278189e-03, 1.15866661e-02 ]
      - [ 9.35409069e-01, 2.60716793e-03, 1.45998308e-02, 1.55290468e-02,
          8.88971891e-03, 1.38042271e-02 ]
      - [ 9.35409069e-01, 1.01068402e-02, 2.43225135e-02, 2.17767823e-02,
          1.08120954e-02, 1.45159885e-02 ]
      - [ 9.35409069e-01, 1.58664305e-02, 1.33802351e-02, 1.53281419e-02,
          2.41907835e-02, 2.10546274e-02 ]
      - [ 9.35409069e-01, 3.54060568e-02, 3.01440563e-02, 2.65985690e-02,
          3.48781273e-02, 2.63289232e-02 ]
      - [ 9.35409069e-01, 4.18620072e-02, 3.44503559e-02, 2.96858493e-02,
          3.71616259e-02, 2.86222696e-02 ]
      - [ 9.35409069e-01, 3.60870548e-02, 3.14575173e-02, 2.66311653e-02,
          3.05620879e-02, 2.45441664e-02 ]
      - [ 9.35409069e-01, 4.11194488e-02, 3.50554474e-02, 2.89718583e-02,
          3.13316174e-02, 2.58021504e-02 ]
      - [ 9.35409069e-01, 8.72539356e-02, 4.01846617e-02, 3.07508744e-02,
          6.10343479e-02, 3.77582796e-02 ]
      - [ 9.35409069e-01, 5.26327603e-02, 2.85224635e-02, 1.38798123e-02,
          2.95316540e-02, 1.44103477e-02 ]
      - [ 9.35409069e-01, 3.69173288e-02, 1.92260612e-02, 4.56180330e-03,
          1.45821795e-02, 2.03927211e-03 ]
      - [ 9.35409069e-01, 3.73182893e-02, 1.73670817e-02, 2.45782058e-03,
          1.45723745e-02, 1.24336651e-03 ]
      - [ 9.35409069e-01, 4.12338823e-02, 2.09900960e-02, 6.64203987e-03,
          1.79076698e-02, 3.90581065e-03 ]
      - [ 9.35409069e-01, 4.53040563e-02, 2.38436889e-02, 8.82127881e-03,
          1.94935370e-02, 5.65562956e-03 ]
      - [ 9.35409069e-01, 4.69340645e-02, 2.64517274e-02, 1.01895686e-02,
          1.93783790e-02, 4.90287971e-03 ]
      - [ 9.35409069e-01, 4.97626178e-02, 2.94894911e-02, 1.38667673e-02,
          2.45718025e-02, 8.81247781e-03 ]
      - [ 9.35409069e-01, 5.31408712e-02, 3.26948687e-02, 1.64096206e-02,
          2.65174601e-02, 9.68185253e-03 ]
      - [ 9.35409069e-01, 1.04823925e-01, 9.59982947e-02, 6.34360686e-02,
          6.29413873e-02, 2.72372831e-02 ]
      - [ 9.35409069e-01, 1.07449546e-01, 9.78871509e-02, 6.47239015e-02,
          6.45907745e-02, 2.82177478e-02 ]
      - [ 9.35409069e-01, 1.21554174e-01, 1.17337018e-01, 8.00129101e-02,
          7.64453709e-02, 3.38767506e-02 ]
      - [ 9.35409069e-01, 1.25251576e-01, 1.21145822e-01, 8.30093920e-02,
          7.89743066e-02, 3.54905464e-02 ]
      - [ 9.35409069e-01, 1.27195239e-01, 1.23873807e-01, 8.53993893e-02,
          8.11211914e-02, 3.68965119e-02 ]
      - [ 9.35409069e-01, 1.29739150e-01, 1.27108976e-01, 8.81013870e-02,
          8.30232203e-02, 3.81538309e-02 ]
      - [ 9.35409069e-01, 1.32040039e-01, 1.31959781e-01, 9.31779742e-02,
          8.57139081e-02, 4.02365439e-02 ]
      - [ 9.35409069e-01, 1.34414956e-01, 1.34639740e-01, 9.55011547e-02,
          8.76523480e-02, 4.15747538e-02 ]
      - [ 9.35409069e-01, 1.37719274e-01, 1.38304412e-01, 9.78217870e-02,
          8.94260556e-02, 4.29123007e-02 ]
      - [ 9.35409069e-01, 1.44308582e-01, 1.45002976e-01, 1.01978719e-01,
          9.26785991e-02, 4.55853604e-02 ]
      - [ 9.35409069e-01, 1.41747743e-01, 1.41572461e-01, 1.02151245e-01,
          9.45375785e-02, 4.76980470e-02 ]
      - [ 9.35409069e-01, 1.27005920e-01, 1.32359073e-01, 1.00067779e-01,
          8.72917622e-02, 4.70848009e-02 ]
      - [ 9.35409069e-01, 1.26265317e-01, 1.30553737e-01, 9.89605263e-02,
          8.75475034e-02, 4.73240763e-02 ]
      - [ 9.35409069e-01, 1.10652313e-01, 1.12128951e-01, 8.61484557e-02,
          8.00189078e-02, 4.29333039e-02 ]
      - [ 9.35409069e-01, 1.12734839e-01, 1.15114897e-01, 8.80156904e-02,
          8.21078122e-02, 4.41689044e-02 ]
      - [ 9.35409069e-01, 1.14706613e-01, 1.17182635e-01, 9.05698165e-02,
          8.36112648e-02, 4.57083322e-02 ]
      - [ 9.35409069e-01, 1.16668545e-01, 1.19672611e-01, 9.23323780e-02,
          8.56949463e-02, 4.69418876e-02 ]
      - [ 9.35409069e-01, 1.13327079e-01, 1.17514871e-01, 9.09656435e-02,
          8.21599364e-02, 4.51758429e-02 ]
      - [ 9.35409069e-01, 9.79128107e-02, 1.00388750e-01, 7.87704885e-02,
          7.42327124e-02, 4.05761264e-02 ]
      - [ 9.35409069e-01, 9.93790999e-02, 1.01454988e-01, 7.98998699e-02,
          7.54652247e-02, 4.16834317e-02 ]
      - [ 9.35409069e-01, 9.73720178e-02, 9.88011584e-02, 7.75599778e-02,
          7.37178996e-02, 4.07153144e-02 ]
      - [ 9.35409069e-01, 1.04962803e-01, 8.78415480e-02, 6.68894053e-02,
          8.50851536e-02, 4.55307178e-02 ]
      - [ 9.35409069e-01, 9.33763981e-02, 6.39873892e-02, 4.53170724e-02,
          8.86311680e-02, 4.34415936e-02 ]
      - [ 9.35409069e-01, 9.04004797e-02, 6.12210333e-02, 4.28438410e-02,
          8.52361917e-02, 4.16897312e-02 ]
      - [ 9.35409069e-01, 9.01570320e-02, 6.10963292e-02, 4.27817181e-02,
          8.43700096e-02, 4.13984396e-02 ]
      - [ 9.35409069e-01, 9.11783054e-02, 6.23149499e-02, 4.39756066e-02,
          8.46768990e-02, 4.22152132e-02 ]
      - [ 9.35409069e-01, 8.30327272e-02, 5.36796376e-02, 3.70233096e-02,
          7.79455677e-02, 3.87110524e-02 ]
      - [ 9.35409069e-01, 7.81587586e-02, 4.95966077e-02, 3.32900807e-02,
          7.22942725e-02, 3.59163992e-02 ]
      - [ 9.35409069e-01, 7.52223432e-02, 4.58733551e-02, 2.93951519e-02,
          6.92290813e-02, 3.34524959e-02 ]
      - [ 9.35409069e-01, 7.68777058e-02, 4.71493155e-02, 3.04491520e-02,
          7.00377747e-02, 3.42555903e-02 ]
      - [ 9.35409069e-01, 7.82190189e-02, 4.82787080e-02, 3.15233283e-02,
          7.05437213e-02, 3.50918286e-02 ]
      - [ 9.35409069e-01, 8.00011382e-02, 4.95317318e-02, 3.25578488e-02,
          7.13349655e-02, 3.59704457e-02 ]
      - [ 9.35409069e-01, 6.97550699e-02, 3.53992879e-02, 2.19246130e-02,
          7.06503168e-02, 3.57540436e-02 ]
      - [ 9.35409069e-01, 6.87680766e-02, 3.26963365e-02, 1.91515125e-02,
          6.87810928e-02, 3.44140455e-02 ]
      - [ 9.35409069e-01, 7.00292960e-02, 3.43362913e-02, 2.09522564e-02,
          6.96916580e-02, 3.56936902e-02 ]
      - [ 9.35409069e-01, 6.47757575e-02, 3.43296640e-02, 2.28475668e-02,
          6.57067001e-02, 3.52012962e-02 ]
      - [ 9.35409069e-01, 6.50810972e-02, 3.58860157e-02, 2.43244618e-02,
          6.54782578e-02, 3.51593755e-02 ]
      - [ 9.35409069e-01, 6.62176237e-02, 3.70645113e-02, 2.53325701e-02,
          6.64213970e-02, 3.57092433e-02 ]
      - [ 9.35409069e-01, 6.82098046e-02, 3.86874452e-02, 2.67418772e-02,
          6.75240904e-02, 3.67410816e-02 ]
      - [ 9.35409069e-01, 7.02008903e-02, 4.02666591e-02, 2.81055365e-02,
          6.85873553e-02, 3.77726294e-02 ]
      - [ 9.35409069e-01, 7.21908584e-02, 4.18083929e-02, 2.94311829e-02,
          6.96177781e-02, 3.88038792e-02 ]
      - [ 9.35409069e-01, 7.41796866e-02, 4.33172956e-02, 3.07242461e-02,
          7.06200376e-02, 3.98348272e-02 ]
      - [ 9.35409069e-01, 7.60895535e-02, 4.43981811e-02, 3.17844003e-02,
          7.20578209e-02, 4.11987826e-02 ]
      - [ 9.35409069e-01, 7.82334432e-02, 4.56228629e-02, 3.29596065e-02,
          7.34216049e-02, 4.26149480e-02 ]
      - [ 9.35409069e-01, 8.02165642e-02, 4.70515415e-02, 3.41752991e-02,
          7.43563920e-02, 4.36440632e-02 ]
      - [ 9.35409069e-01, 7.90582374e-02, 4.55648527e-02, 3.30707096e-02,
          7.31496289e-02, 4.33663912e-02 ]
      - [ 9.35409069e-01, 7.53974840e-02, 4.48002629e-02, 3.39114927e-02,
          6.96588010e-02, 4.35313731e-02 ]
      - [ 9.35409069e-01, 7.21109807e-02, 4.13514972e-02, 3.11936680e-02,
          6.73782006e-02, 4.17351238e-02 ]
      - [ 9.35409069e-01, 4.90199998e-02, 2.30825227e-02, 1.03212148e-02,
          4.32829708e-02, 1.88769773e-02 ]
      - [ 9.35409069e-01, 4.19745855e-02, 2.05410831e-02, 8.67738482e-03,
          3.80191989e-02, 1.66504253e-02 ]
      - [ 9.35409069e-01, 4.16675434e-02, 2.06724070e-02, 9.15321801e-03,
          3.76116931e-02, 1.68125443e-02 ]
      - [ 9.35409069e-01, 4.34339754e-02, 2.16744430e-02, 1.00685917e-02,
          3.84450182e-02, 1.79338213e-02 ]
      - [ 9.35409069e-01, 4.12388332e-02, 1.89044047e-02, 8.04196857e-03,
          3.67968157e-02, 1.70211364e-02 ]
      - [ 9.35409069e-01, 4.77710702e-02, 1.31236492e-02, 1.53910276e-03,
          3.92160453e-02, 1.83416661e-02 ]
      - [ 9.35409069e-01, 4.83893715e-02, 1.24236224e-02, 6.15724537e-04,
          3.95586528e-02, 1.81214809e-02 ]
      - [ 9.35409069e-01, 4.98635136e-02, 1.43068656e-02, 2.76068924e-03,
          3.98996845e-02, 1.97436288e-02 ]
      - [ 9.35409069e-01, 5.25869839e-02, 1.99206844e-02, 8.79638828e-03,
          4.17680852e-02, 2.26439293e-02 ]
      - [ 9.35409069e-01, 5.00740781e-02, 1.79972835e-02, 8.09941627e-03,
          4.07692306e-02, 2.29056720e-02 ]
      - [ 9.35409069e-01, 4.71876152e-02, 1.48880919e-02, 6.15406828e-03,
          3.92093472e-02, 2.20647808e-02 ]
      - [ 9.35409069e-01, 4.01188135e-02, 1.53118977e-02, 9.53450426e-03,
          3.30616571e-02, 2.14774087e-02 ]
      - [ 9.35409069e-01, 3.86109948e-02, 1.41262570e-02, 9.26399231e-03,
          3.14828642e-02, 2.06615925e-02 ]
      - [ 9.35409069e-01, 3.96271683e-02, 1.56977996e-02, 1.11935949e-02,
          3.19142863e-02, 2.18595266e-02 ]
      - [ 9.35409069e-01, 3.63205262e-02, 1.60400309e-02, 1.29064731e-02,
          3.03352755e-02, 2.15893276e-02 ]
      - [ 9.35409069e-01, 3.54131460e-02, 1.95885040e-02, 1.81552526e-02,
          2.91427989e-02, 2.22645272e-02 ]
      - [ 9.35409069e-01, 3.65756527e-02, 2.11408529e-02, 1.93692967e-02,
          3.04433126e-02, 2.31374931e-02 ]
      - [ 5.37049592e-01, 2.95399167e-02, -3.95278772e-03,
          -3.40426853e-03, 3.57558988e-02, 2.20188405e-02 ]
      - [ 5.37049592e-01, 2.94666737e-02, -3.86361009e-03,
          -3.33502679e-03, 3.56435888e-02, 2.19742469e-02 ]
      - [ 5.37049592e-01, 2.94913501e-02, -4.01783362e-03,
          -3.51127051e-03, 3.56730744e-02, 2.19183788e-02 ]
      - [ 5.37049592e-01, 2.94180363e-02, -3.92875588e-03,
          -3.44216870e-03, 3.55606563e-02, 2.18736157e-02 ]
      - [ 5.37049592e-01, 2.93654874e-02, -3.83980828e-03,
          -3.37324082e-03, 3.55795883e-02, 2.19253078e-02 ]
      - [ 5.37049592e-01, 2.92921700e-02, -3.74539569e-03,
          -3.16961715e-03, 3.55433784e-02, 2.20181849e-02 ]
      - [ 5.37049592e-01, 2.92433724e-02, -3.81075824e-03,
          -3.15763988e-03, 3.56124192e-02, 2.21015289e-02 ]
      - [ 5.37049592e-01, 2.81391200e-02, -4.50224616e-03,
          -3.89840943e-03, 3.41560952e-02, 2.09820457e-02 ]
      - [ 5.37049592e-01, 2.80909389e-02, -4.56713047e-03,
          -3.88625031e-03, 3.42254713e-02, 2.10655816e-02 ]
      - [ 5.37049592e-01, 2.70477012e-02, -4.62361472e-03,
          -3.80062382e-03, 3.33236903e-02, 2.05805469e-02 ]
      - [ 5.37049592e-01, 2.71176938e-02, -4.93720546e-03,
          -4.17999597e-03, 3.31537090e-02, 2.03507394e-02 ]
      - [ 5.37049592e-01, 2.70453319e-02, -4.84803086e-03,
          -4.11062455e-03, 3.30424979e-02, 2.03069132e-02 ]
      - [ 5.37049592e-01, 2.70908829e-02, -5.00155892e-03,
          -4.28611320e-03, 3.30710560e-02, 2.02506296e-02 ]
      - [ 5.37049592e-01, 2.70185042e-02, -4.90722060e-03,
          -4.21778439e-03, 3.29598151e-02, 2.02061478e-02 ]
      - [ 5.37049592e-01, 2.69460976e-02, -4.81813867e-03,
          -4.14854288e-03, 3.28485370e-02, 2.01621912e-02 ]
      - [ 5.37049592e-01, 2.69710608e-02, -4.97164251e-03,
          -4.32399847e-03, 3.28782648e-02, 2.01067794e-02 ]
      - [ 5.37049592e-01, 2.68985834e-02, -4.88265976e-03,
          -4.25489526e-03, 3.27668786e-02, 2.00626571e-02 ]
      - [ 5.37049592e-01, 2.69441511e-02, -5.03614591e-03,
          -4.43032663e-03, 3.29279713e-02, 2.01038402e-02 ]
      - [ 5.37049592e-01, 2.68467572e-02, -4.78838664e-03,
          -4.05127276e-03, 3.27869207e-02, 2.01967694e-02 ]
      - [ 5.37049592e-01, 2.68716589e-02, -4.94186720e-03,
          -4.22670785e-03, 3.28165330e-02, 2.01412775e-02 ]
      - [ 5.37049592e-01, 2.68907323e-02, -4.85297618e-03,
          -4.15775785e-03, 3.28049622e-02, 2.01704465e-02 ]
      - [ 5.37049592e-01, 2.69097108e-02, -4.73441510e-03,
          -3.99984419e-03, 3.27932462e-02, 2.02534795e-02 ]
      - [ 5.37049592e-01, 2.70259790e-02, -4.88787424e-03,
          -4.17525508e-03, 3.29223983e-02, 2.02711783e-02 ]
      - [ 5.37049592e-01, 2.69534830e-02, -4.76944167e-03,
          -4.01762221e-03, 3.28870304e-02, 2.03366484e-02 ]
      - [ 5.37049592e-01, 2.69783307e-02, -4.92288591e-03,
          -4.19301726e-03, 3.29925530e-02, 2.03369856e-02 ]
      - [ 5.37049592e-01, 2.68809516e-02, -4.68062097e-03,
          -3.82998423e-03, 3.28515321e-02, 2.04202235e-02 ]
      - [ 5.37049592e-01, 2.69057658e-02, -4.83405916e-03,
          -4.00538137e-03, 3.29569355e-02, 2.04204656e-02 ]
      - [ 5.37049592e-01, 2.69305296e-02, -4.98748524e-03,
          -4.18076338e-03, 3.30622010e-02, 2.04206146e-02 ]
      - [ 5.37049592e-01, 2.68331654e-02, -4.74533672e-03,
          -3.81808775e-03, 3.29211876e-02, 2.05036420e-02 ]
      - [ 5.37049592e-01, 2.67357938e-02, -4.47359262e-03,
          -3.51067050e-03, 3.27801779e-02, 2.05531642e-02 ]
      - [ 5.37049592e-01, 2.58598533e-02, -5.23959380e-03,
          -4.18046629e-03, 3.19950618e-02, 1.98107660e-02 ]
      - [ 5.37049592e-01, 2.58493740e-02, -5.36259031e-03,
          -4.39327024e-03, 3.18293199e-02, 1.96096003e-02 ]
      - [ 5.37049592e-01, 2.58438308e-02, -5.42118447e-03,
          -4.49984195e-03, 3.17461006e-02, 1.95086468e-02 ]
      - [ 5.37049592e-01, 2.57924106e-02, -5.32671344e-03,
          -4.43144282e-03, 3.17666084e-02, 1.95610225e-02 ]
      - [ 9.35409069e-01, 2.69273259e-02, -3.85207543e-03,
          -2.67127482e-03, 3.24007683e-02, 2.03553159e-02 ]
      - [ 9.35409069e-01, 2.59521250e-02, -2.36568274e-03,
          7.24426704e-04, 3.20139527e-02, 2.14724261e-02 ]
      - [ 9.35409069e-01, 2.70440914e-02, -8.57305829e-04,
          1.87061145e-03, 3.32671106e-02, 2.23172475e-02 ]
      - [ 9.35409069e-01, 2.92380750e-02, 9.75684030e-04, 4.62916633e-03,
          3.54233980e-02, 2.37691924e-02 ]
      - [ 9.35409069e-01, 2.12466139e-02, -5.08889323e-03,
          1.29513524e-03, 3.08543015e-02, 2.21409127e-02 ]
      - [ 9.35409069e-01, 2.24726815e-02, -1.80800899e-03,
          4.74690087e-03, 3.26991566e-02, 2.38956306e-02 ]
      - [ 9.35409069e-01, 2.39935145e-02, -4.40986711e-04,
          6.33336650e-03, 3.39261331e-02, 2.47240514e-02 ]
      - [ 9.35409069e-01, 2.19756830e-02, -9.68196313e-04,
          6.14735251e-03, 3.18195038e-02, 2.34899074e-02 ]
      - [ 9.35409069e-01, 2.32479982e-02, 4.38560164e-05, 7.31667690e-03,
          3.25419866e-02, 2.40914505e-02 ]
      - [ 9.35409069e-01, 2.49451697e-02, 3.48990015e-03, 1.08620590e-02,
          3.37564722e-02, 2.56114881e-02 ]
      - [ 9.35409069e-01, 2.83349287e-02, 7.64364190e-03, 1.43418461e-02,
          3.53935957e-02, 2.69700307e-02 ]
      - [ 9.35409069e-01, 2.75173970e-02, 9.58231371e-03, 1.67642888e-02,
          3.42056006e-02, 2.71429736e-02 ]
      - [ 9.35409069e-01, 2.89922375e-02, 1.06770312e-02, 1.81671474e-02,
          3.54988091e-02, 2.78817192e-02 ]
      - [ 9.35409069e-01, 2.43158471e-02, 7.56881479e-03, 1.36797680e-02,
          2.85620298e-02, 2.07848363e-02 ]
      - [ 9.35409069e-01, 2.31509861e-02, 7.44244317e-03, 1.35863638e-02,
          2.63074785e-02, 2.00732611e-02 ]
      - [ 9.35409069e-01, 1.67743340e-02, 3.64760216e-03, 8.68653227e-03,
          1.80173647e-02, 1.19834365e-02 ]
      - [ 9.35409069e-01, 1.49321835e-02, 3.87289422e-03, 8.99482798e-03,
          1.55681036e-02, 1.08869728e-02 ]
      - [ 9.35409069e-01, 1.98173169e-02, 8.94894358e-03, 1.39219733e-02,
          1.95670631e-02, 1.40345488e-02 ]
      - [ 9.35409069e-01, 1.97853055e-02, 9.37481038e-03, 1.41682345e-02,
          1.89737044e-02, 1.38866100e-02 ]
      - [ 9.35409069e-01, 1.90927479e-02, 8.20500869e-03, 1.22879772e-02,
          1.64067335e-02, 1.15538137e-02 ]
      - [ 9.35409069e-01, 1.99597646e-02, 7.57939648e-03, 1.03719840e-02,
          1.44959819e-02, 9.71021783e-03 ]
      - [ 9.35409069e-01, 1.94210000e-02, 6.22569537e-03, 8.48783273e-03,
          1.23669067e-02, 8.22730362e-03 ]
      - [ 9.35409069e-01, 2.01374255e-02, 6.91382075e-03, 8.60884041e-03,
          1.25909094e-02, 8.60542804e-03 ]
      - [ 9.35409069e-01, 2.06528902e-02, 7.47160893e-03, 8.98714177e-03,
          1.19557260e-02, 8.50263145e-03 ]
      - [ 9.35409069e-01, 1.91635843e-02, 6.66987151e-03, 9.25219059e-03,
          1.12132942e-02, 8.43246747e-03 ]
      - [ 9.35409069e-01, 2.02335697e-02, 7.88240228e-03, 1.05101895e-02,
          1.21750021e-02, 9.20387078e-03 ]
      - [ 9.35409069e-01, 1.89040676e-02, 8.81605782e-03, 1.14942966e-02,
          1.02581242e-02, 8.29679053e-03 ]
      - [ 9.35409069e-01, 1.98784396e-02, 1.01349978e-02, 1.25199873e-02,
          1.13929650e-02, 9.06638335e-03 ]
      - [ 9.35409069e-01, 2.09440459e-02, 1.12892874e-02, 1.37348985e-02,
          1.23019861e-02, 9.82025452e-03 ]
      - [ 9.35409069e-01, 2.04918254e-02, 1.18706282e-02, 1.42636513e-02,
          1.10053821e-02, 9.51044168e-03 ]
      - [ 9.35409069e-01, 2.06688996e-02, 1.22521017e-02, 1.51566723e-02,
          1.17346579e-02, 1.04178861e-02 ]
      - [ 9.35409069e-01, 1.93379372e-02, 1.14053311e-02, 1.42971706e-02,
          1.01026632e-02, 9.65207629e-03 ]
      - [ 9.35409069e-01, 1.97705086e-02, 1.17519060e-02, 1.45507567e-02,
          1.06494650e-02, 9.98232979e-03 ]
      - [ 9.35409069e-01, 2.12063659e-02, 1.44151216e-02, 1.69643797e-02,
          1.15195569e-02, 1.14213824e-02 ]
      - [ 9.35409069e-01, 2.21320260e-02, 1.51498262e-02, 1.75269134e-02,
          1.18889296e-02, 1.18045369e-02 ]
      - [ 9.35409069e-01, 2.13615913e-02, 1.50160426e-02, 1.76119581e-02,
          1.08857527e-02, 1.14474092e-02 ]
      - [ 9.35409069e-01, 1.94396395e-02, 1.44688636e-02, 1.76814161e-02,
          8.43192078e-03, 9.92592797e-03 ]
      - [ 9.35409069e-01, 2.06703208e-02, 1.55559992e-02, 1.88636556e-02,
          9.37321316e-03, 1.10420799e-02 ]
      - [ 9.35409069e-01, 2.17182077e-02, 1.63397938e-02, 1.95023902e-02,
          1.00158295e-02, 1.16219372e-02 ]
      - [ 9.35409069e-01, 2.68247165e-02, 1.50037454e-02, 1.91693138e-02,
          1.39467316e-02, 1.54065117e-02 ]
      - [ 9.35409069e-01, 2.77391858e-02, 1.62945651e-02, 2.01332923e-02,
          1.50564313e-02, 1.61590911e-02 ]
      - [ 9.35409069e-01, 2.99554132e-02, 1.89506132e-02, 2.29601003e-02,
          1.70034207e-02, 1.77004989e-02 ]
      - [ 9.35409069e-01, 3.08532212e-02, 2.01977119e-02, 2.39068922e-02,
          1.81127079e-02, 1.84527989e-02 ]
      - [ 9.35409069e-01, 3.33900936e-02, 2.22195219e-02, 2.61474121e-02,
          2.05434915e-02, 2.02845093e-02 ]
      - [ 9.35409069e-01, 3.08216382e-02, 2.08183341e-02, 2.52522919e-02,
          1.75931305e-02, 1.90238785e-02 ]
      - [ 9.35409069e-01, 3.12225055e-02, 1.86515488e-02, 2.29172725e-02,
          1.96411777e-02, 1.99608225e-02 ]
      - [ 9.35409069e-01, 3.32186557e-02, 1.75291486e-02, 2.18400434e-02,
          2.22357921e-02, 2.19999887e-02 ]
      - [ 9.35409069e-01, 3.49830575e-02, 1.35186920e-02, 1.69130247e-02,
          2.68778093e-02, 2.25796942e-02 ]
      - [ 9.35409069e-01, 3.60071547e-02, 1.46204950e-02, 1.80415846e-02,
          2.77369767e-02, 2.31955517e-02 ]
      - [ 9.35409069e-01, 3.87834758e-02, 1.80408992e-02, 2.10373476e-02,
          3.00562885e-02, 2.49982085e-02 ]
      - [ 9.35409069e-01, 3.97409648e-02, 1.91239621e-02, 2.21140347e-02,
          3.08730081e-02, 2.57354695e-02 ]
      - [ 9.35409069e-01, 3.35873589e-02, 1.23639032e-02, 1.69481672e-02,
          2.88182516e-02, 2.39966456e-02 ]
      - [ 9.35409069e-01, 3.18648517e-02, 1.24405827e-02, 1.75373629e-02,
          2.70143077e-02, 2.32718065e-02 ]
      - [ 9.35409069e-01, 5.17896488e-02, 3.88569906e-02, 4.25143354e-02,
          4.70511615e-02, 3.74721028e-02 ]
      - [ 9.35409069e-01, 4.96242233e-02, 3.82948965e-02, 4.20582928e-02,
          4.46745493e-02, 3.61709930e-02 ]
      - [ 9.35409069e-01, 4.84600961e-02, 3.74032259e-02, 4.10594195e-02,
          4.24505733e-02, 3.51942442e-02 ]
      - [ 9.35409069e-01, 5.09661250e-02, 3.92829962e-02, 4.23698165e-02,
          4.38398756e-02, 3.64066698e-02 ]
      - [ 9.35409069e-01, 5.07620461e-02, 3.86566594e-02, 4.15207483e-02,
          4.31349203e-02, 3.61332633e-02 ]
      - [ 9.35409069e-01, 5.17449901e-02, 3.94121371e-02, 4.21498567e-02,
          4.35872972e-02, 3.67269889e-02 ]
      - [ 9.35409069e-01, 5.26936874e-02, 4.01650891e-02, 4.27767672e-02,
          4.40378934e-02, 3.72764096e-02 ]
      - [ 9.35409069e-01, 5.23222275e-02, 4.25056666e-02, 4.45804112e-02,
          4.24747095e-02, 3.67504619e-02 ]
      - [ 9.35409069e-01, 5.25203086e-02, 4.24220823e-02, 4.41338904e-02,
          4.19109799e-02, 3.64079736e-02 ]
      - [ 9.35409069e-01, 5.36572933e-02, 4.27789241e-02, 4.42992374e-02,
          4.23599519e-02, 3.68688665e-02 ]
      - [ 9.35409069e-01, 5.38827591e-02, 4.30461988e-02, 4.43416685e-02,
          4.19025905e-02, 3.68379056e-02 ]
      - [ 9.35409069e-01, 5.47386296e-02, 4.33127396e-02, 4.45055515e-02,
          4.23826911e-02, 3.71238738e-02 ]
      - [ 9.35409069e-01, 5.55061102e-02, 4.39935140e-02, 4.51366976e-02,
          4.29246165e-02, 3.76395844e-02 ]
      - [ 9.35409069e-01, 5.67821711e-02, 4.47263196e-02, 4.57462855e-02,
          4.33619246e-02, 3.83460969e-02 ]
      - [ 9.35409069e-01, 5.72966114e-02, 4.58853543e-02, 4.69137952e-02,
          4.33087908e-02, 3.85103151e-02 ]
      - [ 9.35409069e-01, 5.85421063e-02, 4.65439633e-02, 4.75912467e-02,
          4.38648723e-02, 3.94403674e-02 ]
      - [ 9.35409069e-01, 5.78012839e-02, 4.67126109e-02, 4.72851209e-02,
          4.24608178e-02, 3.84184457e-02 ]
      - [ 9.35409069e-01, 5.90261184e-02, 4.75047305e-02, 4.79319133e-02,
          4.28011306e-02, 3.90811227e-02 ]
      - [ 9.35409069e-01, 6.00842051e-02, 4.84637618e-02, 4.89208996e-02,
          4.32291143e-02, 3.99013609e-02 ]
      - [ 9.35409069e-01, 5.69719300e-02, 4.54533212e-02, 5.07653393e-02,
          4.40281630e-02, 4.32797372e-02 ]
      - [ 9.35409069e-01, 5.80507480e-02, 4.61679772e-02, 5.13587445e-02,
          4.44536582e-02, 4.38641794e-02 ]
      - [ 9.35409069e-01, 5.38942628e-02, 4.44237776e-02, 5.87548390e-02,
          5.61212450e-02, 5.83787300e-02 ]
      - [ 9.35409069e-01, 5.85045293e-02, 4.99566756e-02, 6.87719807e-02,
          6.63952529e-02, 6.93942606e-02 ]
      - [ 9.35409069e-01, 5.02960980e-02, 4.24837768e-02, 6.98549300e-02,
          6.98423460e-02, 7.58707896e-02 ]
      - [ 9.35409069e-01, 4.90693413e-02, 4.16802652e-02, 7.22161233e-02,
          7.34953210e-02, 8.07306990e-02 ]
      - [ 9.35409069e-01, 4.95859385e-02, 4.17665876e-02, 7.35539049e-02,
          7.55915344e-02, 8.31767470e-02 ]
      - [ 9.35409069e-01, 5.03828675e-02, 4.25698124e-02, 7.42053613e-02,
          7.61815384e-02, 8.35511386e-02 ]
      - [ 9.35409069e-01, 5.04901819e-02, 4.17821333e-02, 8.05301070e-02,
          8.81462470e-02, 9.67316255e-02 ]
      - [ 9.35409069e-01, 5.12888655e-02, 4.24709879e-02, 8.10932741e-02,
          8.85472894e-02, 9.71594974e-02 ]
      - [ 9.35409069e-01, 5.20758368e-02, 4.31579947e-02, 8.16548094e-02,
          8.89470056e-02, 9.75774005e-02 ]
      - [ 9.35409069e-01, 5.09084798e-02, 3.84206101e-02, 8.97872224e-02,
          1.09455988e-01, 1.19576938e-01 ]
      - [ 9.35409069e-01, 5.16797304e-02, 3.89932916e-02, 9.00809169e-02,
          1.09501302e-01, 1.19664244e-01 ]
      - [ 9.35409069e-01, 5.13066612e-02, 3.75611074e-02, 9.02301297e-02,
          1.10783093e-01, 1.21582530e-01 ]
      - [ 9.35409069e-01, 5.22802211e-02, 3.82377543e-02, 9.07779634e-02,
          1.11168720e-01, 1.22083187e-01 ]
      - [ 9.35409069e-01, 5.14401235e-02, 3.90853100e-02, 9.36173275e-02,
          1.11259051e-01, 1.23649821e-01 ]
      - [ 9.35409069e-01, 5.24980389e-02, 4.00758758e-02, 9.52158719e-02,
          1.11940496e-01, 1.24667525e-01 ]
      - [ 9.35409069e-01, 5.24151921e-02, 3.89542095e-02, 9.50428620e-02,
          1.13409474e-01, 1.26093224e-01 ]
      - [ 9.35409069e-01, 5.23881540e-02, 3.91028710e-02, 9.58229378e-02,
          1.14036076e-01, 1.27161443e-01 ]
      - [ 9.35409069e-01, 5.32185063e-02, 3.97720896e-02, 9.63615924e-02,
          1.14414275e-01, 1.27571166e-01 ]
      - [ 9.35409069e-01, 5.18389270e-02, 4.03011814e-02, 9.91123691e-02,
          1.15785882e-01, 1.30580917e-01 ]
      - [ 9.35409069e-01, 4.99623343e-02, 3.93403098e-02, 1.01568356e-01,
          1.18936904e-01, 1.34476081e-01 ]
      - [ 9.35409069e-01, 4.91895452e-02, 3.92645709e-02, 1.03088118e-01,
          1.20936371e-01, 1.37072653e-01 ]
      - [ 9.35409069e-01, 4.94013056e-02, 3.94361131e-02, 1.03282377e-01,
          1.20823130e-01, 1.37121007e-01 ]
      - [ 9.35409069e-01, 4.93891016e-02, 4.08468917e-02, 1.05916731e-01,
          1.21211566e-01, 1.38682351e-01 ]
      - [ 9.35409069e-01, 4.85012978e-02, 4.02326882e-02, 1.07474864e-01,
          1.22326411e-01, 1.40592441e-01 ]
      - [ 9.35409069e-01, 5.03085367e-02, 4.27807644e-02, 1.10603504e-01,
          1.25276178e-01, 1.43114224e-01 ]
      - [ 9.35409069e-01, 5.30411042e-02, 4.65651937e-02, 1.15579776e-01,
          1.28317788e-01, 1.46387562e-01 ]
      - [ 9.35409069e-01, 5.24336919e-02, 4.56841029e-02, 1.14846662e-01,
          1.28331915e-01, 1.46260366e-01 ]
      - [ 9.35409069e-01, 5.12087978e-02, 4.50248867e-02, 1.16390355e-01,
          1.30588710e-01, 1.48766637e-01 ]
      - [ 9.35409069e-01, 4.97125313e-02, 4.29699719e-02, 1.15661211e-01,
          1.31930754e-01, 1.49774864e-01 ]
      - [ 9.35409069e-01, 4.85320799e-02, 4.18274850e-02, 1.15958638e-01,
          1.32752195e-01, 1.50915667e-01 ]
      - [ 9.35409069e-01, 5.09445742e-02, 4.38458361e-02, 1.20343335e-01,
          1.34406373e-01, 1.53538793e-01 ]
      - [ 9.35409069e-01, 5.17317988e-02, 4.44823392e-02, 1.20831557e-01,
          1.34743258e-01, 1.53894708e-01 ]
      - [ 9.35409069e-01, 5.19211702e-02, 4.44968939e-02, 1.21079251e-01,
          1.35404885e-01, 1.54408067e-01 ]
      - [ 9.35409069e-01, 5.19422404e-02, 4.50393371e-02, 1.22109815e-01,
          1.36027768e-01, 1.55065298e-01 ]
      - [ 9.35409069e-01, 5.31940721e-02, 4.02367711e-02, 1.18632272e-01,
          1.40315533e-01, 1.56974256e-01 ]
      - [ 5.37049592e-01, 5.03053553e-02, 2.91552283e-02, 1.10096291e-01,
          1.44825503e-01, 1.57609046e-01 ]
      - [ 5.37049592e-01, 5.03211282e-02, 2.90461034e-02, 1.09975912e-01,
          1.44880369e-01, 1.57596469e-01 ]
      - [ 5.37049592e-01, 5.03368787e-02, 2.89369840e-02, 1.09855540e-01,
          1.44935161e-01, 1.57583848e-01 ]
      - [ 5.37049592e-01, 5.02682775e-02, 2.91051157e-02, 1.10081293e-01,
          1.44837752e-01, 1.57620952e-01 ]
      - [ 5.37049592e-01, 5.02840206e-02, 2.89959982e-02, 1.09960921e-01,
          1.44892529e-01, 1.57608300e-01 ]
      - [ 5.37049592e-01, 5.03675602e-02, 2.88868845e-02, 1.09840564e-01,
          1.44968927e-01, 1.57611147e-01 ]
      - [ 5.37049592e-01, 5.02989627e-02, 2.90781315e-02, 1.10050499e-01,
          1.44871533e-01, 1.57639310e-01 ]
      - [ 5.37049592e-01, 5.03824651e-02, 2.89690197e-02, 1.09930143e-01,
          1.44947872e-01, 1.57642111e-01 ]
      - [ 5.37049592e-01, 5.03138676e-02, 2.91602053e-02, 1.10139959e-01,
          1.44850492e-01, 1.57670215e-01 ]
      - [ 5.37049592e-01, 5.03296033e-02, 2.90510952e-02, 1.10019602e-01,
          1.44905210e-01, 1.57657549e-01 ]
      - [ 5.37049592e-01, 5.01268432e-02, 2.90782358e-02, 1.10192642e-01,
          1.44840464e-01, 1.57711372e-01 ]
      - [ 5.37049592e-01, 5.00597097e-02, 2.90077366e-02, 1.10166244e-01,
          1.44856527e-01, 1.57719523e-01 ]
      - [ 5.37049592e-01, 4.99918424e-02, 2.90462989e-02, 1.10260062e-01,
          1.44815832e-01, 1.57738805e-01 ]
      - [ 5.37049592e-01, 4.99925390e-02, 2.89372206e-02, 1.10139757e-01,
          1.44872412e-01, 1.57727480e-01 ]
      - [ 5.37049592e-01, 4.99239713e-02, 2.91283652e-02, 1.10329784e-01,
          1.44775093e-01, 1.57744452e-01 ]
      - [ 5.37049592e-01, 4.98567782e-02, 2.90578175e-02, 1.10303164e-01,
          1.44790858e-01, 1.57752231e-01 ]
      - [ 5.37049592e-01, 4.99403141e-02, 2.89487466e-02, 1.10182866e-01,
          1.44874290e-01, 1.57760128e-01 ]
      - [ 5.37049592e-01, 4.98045348e-02, 2.90692784e-02, 1.10346064e-01,
          1.44792587e-01, 1.57784641e-01 ]
      - [ 5.37049592e-01, 4.97366376e-02, 2.91077532e-02, 1.10439524e-01,
          1.44751698e-01, 1.57803550e-01 ]
      - [ 5.37049592e-01, 4.97372784e-02, 2.89986972e-02, 1.10319257e-01,
          1.44808024e-01, 1.57792062e-01 ]
      - [ 9.35409069e-01, 5.03985882e-02, 3.00967470e-02, 1.11642316e-01,
          1.45235121e-01, 1.58358306e-01 ]
      - [ 9.35409069e-01, 5.11487499e-02, 3.11377272e-02, 1.12374403e-01,
          1.46056846e-01, 1.58894017e-01 ]
      - [ 9.35409069e-01, 5.16058132e-02, 3.12579013e-02, 1.12929322e-01,
          1.47344276e-01, 1.59810707e-01 ]
      - [ 9.35409069e-01, 5.22762649e-02, 3.24348956e-02, 1.13988638e-01,
          1.47943839e-01, 1.60357952e-01 ]
      - [ 9.35409069e-01, 5.32554984e-02, 3.32720950e-02, 1.14940017e-01,
          1.48395061e-01, 1.60804316e-01 ]
      - [ 9.35409069e-01, 5.13902567e-02, 3.30693014e-02, 1.15854211e-01,
          1.47569716e-01, 1.60658211e-01 ]
      - [ 9.35409069e-01, 5.21075018e-02, 3.36947516e-02, 1.16321482e-01,
          1.47884130e-01, 1.60975337e-01 ]
      - [ 9.35409069e-01, 5.20772226e-02, 3.38257141e-02, 1.16741136e-01,
          1.48260221e-01, 1.61433443e-01 ]
      - [ 9.35409069e-01, 4.99218069e-02, 3.12410239e-02, 1.15349844e-01,
          1.48135796e-01, 1.60995573e-01 ]
      - [ 9.35409069e-01, 5.29896282e-02, 2.95217298e-02, 1.14080288e-01,
          1.49428606e-01, 1.61695614e-01 ]
      - [ 9.35409069e-01, 5.37089258e-02, 3.05500105e-02, 1.14770986e-01,
          1.50212675e-01, 1.62203550e-01 ]
      - [ 9.35409069e-01, 5.44192791e-02, 3.14544886e-02, 1.15844257e-01,
          1.50691867e-01, 1.62711278e-01 ]
      - [ 9.35409069e-01, 5.51295206e-02, 3.24594975e-02, 1.16526082e-01,
          1.51475370e-01, 1.63218796e-01 ]
      - [ 9.35409069e-01, 5.21208793e-02, 2.80241370e-02, 1.16889440e-01,
          1.53452173e-01, 1.65116623e-01 ]
      - [ 9.35409069e-01, 4.96152937e-02, 2.84532867e-02, 1.20048642e-01,
          1.52955323e-01, 1.65815443e-01 ]
      - [ 9.35409069e-01, 4.89839539e-02, 2.93153077e-02, 1.21088296e-01,
          1.52182460e-01, 1.65706202e-01 ]
      - [ 9.35409069e-01, 4.75492105e-02, 2.84864604e-02, 1.21115662e-01,
          1.52026013e-01, 1.65649697e-01 ]
      - [ 9.35409069e-01, 4.82287854e-02, 2.90924348e-02, 1.21547289e-01,
          1.52306542e-01, 1.65920749e-01 ]
      - [ 9.35409069e-01, 4.75052334e-02, 2.96701528e-02, 1.21999823e-01,
          1.51276380e-01, 1.64991781e-01 ]
      - [ 9.35409069e-01, 4.81899753e-02, 3.03351618e-02, 1.22540899e-01,
          1.51518002e-01, 1.65315092e-01 ]
      - [ 9.35409069e-01, 4.80862036e-02, 3.07561606e-02, 1.23514988e-01,
          1.51581079e-01, 1.65638268e-01 ]
      - [ 9.35409069e-01, 4.73734587e-02, 2.98867412e-02, 1.22980826e-01,
          1.51394859e-01, 1.65432036e-01 ]
      - [ 9.35409069e-01, 4.40390669e-02, 2.73891278e-02, 1.17612228e-01,
          1.45496860e-01, 1.58419728e-01 ]
      - [ 9.35409069e-01, 4.02499884e-02, 2.62315236e-02, 1.17989130e-01,
          1.43540636e-01, 1.57377660e-01 ]
      - [ 9.35409069e-01, 4.09500934e-02, 2.68224720e-02, 1.18397996e-01,
          1.43802956e-01, 1.57635882e-01 ]
      - [ 9.35409069e-01, 3.80212627e-02, 2.31144745e-02, 1.13006599e-01,
          1.38828039e-01, 1.51867822e-01 ]
      - [ 9.35409069e-01, 3.78877968e-02, 2.31114347e-02, 1.14812307e-01,
          1.41175240e-01, 1.52966231e-01 ]
      - [ 9.35409069e-01, 3.36390175e-02, 1.65527984e-02, 1.12524055e-01,
          1.43134892e-01, 1.54042125e-01 ]
      - [ 9.35409069e-01, 3.45614515e-02, 1.72762889e-02, 1.13108516e-01,
          1.43604755e-01, 1.54418960e-01 ]
      - [ 9.35409069e-01, 3.36973928e-02, 1.72216203e-02, 1.13582678e-01,
          1.43120497e-01, 1.54151663e-01 ]
      - [ 9.35409069e-01, 3.14023383e-02, 1.72886699e-02, 1.13980666e-01,
          1.41221240e-01, 1.52944982e-01 ]
      - [ 9.35409069e-01, 3.21463048e-02, 1.79862715e-02, 1.14664666e-01,
          1.41905904e-01, 1.53353915e-01 ]
      - [ 9.35409069e-01, 3.46733592e-02, 2.08840612e-02, 1.17513575e-01,
          1.43487662e-01, 1.54521272e-01 ]
      - [ 9.35409069e-01, 2.89723631e-02, 1.85845699e-02, 1.18571959e-01,
          1.39554918e-01, 1.52575329e-01 ]
      - [ 9.35409069e-01, 3.16945538e-02, 2.22967751e-02, 1.23038754e-01,
          1.42699674e-01, 1.54822454e-01 ]
      - [ 9.35409069e-01, 3.51322368e-02, 2.75695641e-02, 1.27336130e-01,
          1.45113781e-01, 1.56176329e-01 ]
      - [ 9.35409069e-01, 3.59726660e-02, 2.84021869e-02, 1.28058806e-01,
          1.45638049e-01, 1.56499952e-01 ]
      - [ 9.35409069e-01, 4.00189757e-02, 3.53211090e-02, 1.33352846e-01,
          1.48635298e-01, 1.58731923e-01 ]
      - [ 9.35409069e-01, 4.22471166e-02, 4.04431894e-02, 1.39332250e-01,
          1.51637286e-01, 1.60794511e-01 ]
      - [ 9.35409069e-01, 4.29495871e-02, 4.22628298e-02, 1.41607404e-01,
          1.52285889e-01, 1.61963105e-01 ]
      - [ 9.35409069e-01, 4.32666615e-02, 4.29873243e-02, 1.42044976e-01,
          1.52424246e-01, 1.61954656e-01 ]
      - [ 5.37049592e-01, 4.26928252e-02, 4.33985367e-02, 1.42369911e-01,
          1.52177602e-01, 1.61849916e-01 ]
      - [ 9.35409069e-01, 4.26550135e-02, 4.36210297e-02, 1.42852709e-01,
          1.51590407e-01, 1.61614627e-01 ]
      - [ 9.35409069e-01, 4.27632630e-02, 4.41506580e-02, 1.43324241e-01,
          1.51384607e-01, 1.61548719e-01 ]
      - [ 9.35409069e-01, 4.29414771e-02, 4.45777364e-02, 1.43840894e-01,
          1.51858389e-01, 1.61828607e-01 ]
      - [ 9.35409069e-01, 4.36136425e-02, 4.53994162e-02, 1.44696429e-01,
          1.52213380e-01, 1.62196249e-01 ]
      - [ 9.35409069e-01, 4.42619026e-02, 4.66851145e-02, 1.45238370e-01,
          1.52801618e-01, 1.62563786e-01 ]
      - [ 9.35409069e-01, 4.49032374e-02, 4.77986038e-02, 1.45774439e-01,
          1.53389648e-01, 1.62931204e-01 ]
      - [ 9.35409069e-01, 4.55063172e-02, 4.87450100e-02, 1.46693468e-01,
          1.53669000e-01, 1.63269043e-01 ]
      - [ 9.35409069e-01, 4.61616963e-02, 4.95510735e-02, 1.47429675e-01,
          1.54015914e-01, 1.63576931e-01 ]
      - [ 9.35409069e-01, 4.67963852e-02, 5.05991727e-02, 1.47959739e-01,
          1.54517055e-01, 1.63884729e-01 ]
      - [ 9.35409069e-01, 4.74249572e-02, 5.16049638e-02, 1.48484617e-01,
          1.55018046e-01, 1.64192438e-01 ]
      - [ 5.37049592e-01, 4.86201197e-02, 5.31212464e-02, 1.49952933e-01,
          1.55696213e-01, 1.64810225e-01 ]
      - [ 5.37049592e-01, 4.74623740e-02, 5.02438359e-02, 1.46913812e-01,
          1.54776707e-01, 1.63212731e-01 ]
      - [ 5.37049592e-01, 4.80504185e-02, 4.27989215e-02, 1.39259562e-01,
          1.56362802e-01, 1.61782011e-01 ]
      - [ 9.35409069e-01, 4.76411395e-02, 4.25755940e-02, 1.39461398e-01,
          1.56666279e-01, 1.62073702e-01 ]
      - [ 9.35409069e-01, 4.77427132e-02, 4.24965322e-02, 1.39199734e-01,
          1.56520158e-01, 1.61993966e-01 ]
      - [ 9.35409069e-01, 4.81861494e-02, 4.29470912e-02, 1.39365390e-01,
          1.56322867e-01, 1.61877304e-01 ]
      - [ 9.35409069e-01, 4.86746207e-02, 4.34085578e-02, 1.40068159e-01,
          1.56654581e-01, 1.62464410e-01 ]
      - [ 9.35409069e-01, 4.94650975e-02, 4.38380577e-02, 1.40298009e-01,
          1.56781942e-01, 1.62625864e-01 ]
      - [ 9.35409069e-01, 4.94903512e-02, 4.48973291e-02, 1.41398951e-01,
          1.55915082e-01, 1.62610173e-01 ]
      - [ 9.35409069e-01, 5.04580177e-02, 4.53317352e-02, 1.41603768e-01,
          1.56226173e-01, 1.62921846e-01 ]
      - [ 5.37049592e-01, 5.00853099e-02, 4.56127562e-02, 1.42272249e-01,
          1.56142697e-01, 1.63112000e-01 ]
      - [ 9.35409069e-01, 5.11717089e-02, 4.58486937e-02, 1.42205372e-01,
          1.56260744e-01, 1.63262457e-01 ]
      - [ 9.35409069e-01, 5.21772504e-02, 4.63988557e-02, 1.42544150e-01,
          1.56470597e-01, 1.63606733e-01 ]
      - [ 9.35409069e-01, 5.25490791e-02, 4.65559438e-02, 1.42720595e-01,
          1.56462237e-01, 1.63824633e-01 ]
      - [ 9.35409069e-01, 5.26996367e-02, 4.69465777e-02, 1.42899200e-01,
          1.55862436e-01, 1.63714334e-01 ]
      - [ 9.35409069e-01, 5.30166179e-02, 4.58822437e-02, 1.42182827e-01,
          1.56507418e-01, 1.64098546e-01 ]
      - [ 9.35409069e-01, 5.34237139e-02, 4.55805808e-02, 1.42352670e-01,
          1.57401428e-01, 1.64977774e-01 ]
      - [ 9.35409069e-01, 5.41158095e-02, 4.61544693e-02, 1.42658979e-01,
          1.57169014e-01, 1.65045634e-01 ]
      - [ 9.35409069e-01, 5.52209280e-02, 4.76039723e-02, 1.43629283e-01,
          1.57648504e-01, 1.65279970e-01 ]
      - [ 9.35409069e-01, 5.57648800e-02, 4.82444167e-02, 1.44072831e-01,
          1.58078119e-01, 1.65570036e-01 ]
      - [ 9.35409069e-01, 5.66733144e-02, 4.87548038e-02, 1.44476220e-01,
          1.58280849e-01, 1.65693983e-01 ]
      - [ 9.35409069e-01, 5.63012324e-02, 4.86456677e-02, 1.44390449e-01,
          1.57624274e-01, 1.65424004e-01 ]
      - [ 5.37049592e-01, 5.70554957e-02, 4.94636670e-02, 1.45276040e-01,
          1.58050448e-01, 1.65856734e-01 ]
      - [ 9.35409069e-01, 5.79757839e-02, 4.99382019e-02, 1.45482212e-01,
          1.58228755e-01, 1.66080832e-01 ]
      - [ 9.35409069e-01, 5.82282282e-02, 5.03230989e-02, 1.45549133e-01,
          1.57877266e-01, 1.65940151e-01 ]
      - [ 5.37049592e-01, 5.78034781e-02, 5.01205139e-02, 1.45268306e-01,
          1.57213897e-01, 1.65282458e-01 ]
      - [ 5.37049592e-01, 5.56242205e-02, 4.88396510e-02, 1.44279450e-01,
          1.55469015e-01, 1.63980708e-01 ]
      - [ 9.35409069e-01, 5.76763153e-02, 5.12080491e-02, 1.45857200e-01,
          1.56678975e-01, 1.64954096e-01 ]
      - [ 9.35409069e-01, 5.81286289e-02, 5.18495627e-02, 1.46411151e-01,
          1.56913728e-01, 1.65175781e-01 ]
      - [ 9.35409069e-01, 5.59418947e-02, 5.23026735e-02, 1.46417946e-01,
          1.55042797e-01, 1.63874656e-01 ]
      - [ 9.35409069e-01, 5.65433167e-02, 5.31428605e-02, 1.46889031e-01,
          1.55565217e-01, 1.64197996e-01 ]
      - [ 5.37049592e-01, 5.89415468e-02, 5.55047393e-02, 1.48413807e-01,
          1.56946227e-01, 1.64634898e-01 ]
      - [ 5.37049592e-01, 5.62563911e-02, 5.51239178e-02, 1.47848085e-01,
          1.54861510e-01, 1.63139731e-01 ]
      - [ 9.35409069e-01, 5.70999160e-02, 5.58852293e-02, 1.48602322e-01,
          1.55187368e-01, 1.63455665e-01 ]
      - [ 9.35409069e-01, 5.69687858e-02, 5.59767410e-02, 1.48520261e-01,
          1.54611036e-01, 1.62963077e-01 ]
      - [ 9.35409069e-01, 6.13936670e-02, 5.40571325e-02, 1.46231145e-01,
          1.55785590e-01, 1.63107604e-01 ]
      - [ 9.35409069e-01, 6.19833209e-02, 5.49279824e-02, 1.46684766e-01,
          1.56290889e-01, 1.63419738e-01 ]
      - [ 5.37049592e-01, 5.95245361e-02, 5.15421890e-02, 1.41136467e-01,
          1.51570678e-01, 1.58129424e-01 ]
      - [ 9.35409069e-01, 5.91809787e-02, 5.15664406e-02, 1.40191391e-01,
          1.50754452e-01, 1.56849533e-01 ]
      - [ 5.37049592e-01, 5.99563867e-02, 5.21557964e-02, 1.40994072e-01,
          1.51248574e-01, 1.57381684e-01 ]
      - [ 5.37049592e-01, 5.24923950e-02, 4.30390537e-02, 1.34221092e-01,
          1.47211194e-01, 1.53053477e-01 ]
      - [ 9.35409069e-01, 5.29023670e-02, 4.34406213e-02, 1.34274021e-01,
          1.46887898e-01, 1.52890250e-01 ]
      - [ 9.35409069e-01, 5.34319878e-02, 4.36607040e-02, 1.34514973e-01,
          1.47076219e-01, 1.53229758e-01 ]
      - [ 9.35409069e-01, 5.36853075e-02, 4.36639264e-02, 1.34228840e-01,
          1.46815047e-01, 1.52946219e-01 ]
      - [ 5.37049592e-01, 5.16819283e-02, 4.23425473e-02, 1.33606926e-01,
          1.44992366e-01, 1.51728347e-01 ]
      - [ 9.35409069e-01, 5.08263260e-02, 4.13733348e-02, 1.32913515e-01,
          1.44437492e-01, 1.51158169e-01 ]
      - [ 5.37049592e-01, 5.03652841e-02, 4.05223966e-02, 1.32022440e-01,
          1.43545762e-01, 1.50317639e-01 ]
      - [ 5.37049592e-01, 6.38499483e-02, 5.80017641e-02, 1.43056959e-01,
          1.49236307e-01, 1.53535441e-01 ]
      - [ 9.35409069e-01, 6.21980019e-02, 5.64667284e-02, 1.41688854e-01,
          1.48142040e-01, 1.52557015e-01 ]
      - [ 5.37049592e-01, 6.09591492e-02, 5.58166131e-02, 1.41069233e-01,
          1.46777257e-01, 1.51642844e-01 ]
      - [ 9.35409069e-01, 6.01854175e-02, 5.51284403e-02, 1.40256017e-01,
          1.45863280e-01, 1.50969252e-01 ]
      - [ 5.37049592e-01, 5.91701604e-02, 5.39386831e-02, 1.39152467e-01,
          1.44861728e-01, 1.50082618e-01 ]
      - [ 9.35409069e-01, 5.85956760e-02, 5.36641181e-02, 1.38771787e-01,
          1.44183680e-01, 1.49637043e-01 ]
      - [ 9.35409069e-01, 5.89072779e-02, 5.46080619e-02, 1.39059752e-01,
          1.44078836e-01, 1.49428919e-01 ]
      - [ 9.35409069e-01, 5.97969517e-02, 5.52106053e-02, 1.39424875e-01,
          1.44469291e-01, 1.49719387e-01 ]
      - [ 9.35409069e-01, 6.05492629e-02, 5.59276417e-02, 1.39892370e-01,
          1.44774213e-01, 1.49992660e-01 ]
      - [ 9.35409069e-01, 6.10640422e-02, 5.65556958e-02, 1.40129209e-01,
          1.44843325e-01, 1.49970144e-01 ]
      - [ 9.35409069e-01, 6.19438253e-02, 5.72355837e-02, 1.40515551e-01,
          1.45132631e-01, 1.50208935e-01 ]
      - [ 9.35409069e-01, 6.27150089e-02, 5.80438487e-02, 1.40980214e-01,
          1.45329833e-01, 1.50417984e-01 ]
      - [ 9.35409069e-01, 6.34860620e-02, 5.86953163e-02, 1.41368672e-01,
          1.45593032e-01, 1.50647521e-01 ]
      - [ 9.35409069e-01, 6.42853379e-02, 5.93844578e-02, 1.41773254e-01,
          1.45853236e-01, 1.50877163e-01 ]
      - [ 9.35409069e-01, 6.50844797e-02, 6.00695536e-02, 1.42174482e-01,
          1.46111071e-01, 1.51106745e-01 ]
      - [ 9.35409069e-01, 6.59515932e-02, 6.12435788e-02, 1.43167853e-01,
          1.46252304e-01, 1.51405066e-01 ]
      - [ 9.35409069e-01, 6.78059906e-02, 6.33408651e-02, 1.44470215e-01,
          1.47190168e-01, 1.52134612e-01 ]
      - [ 9.35409069e-01, 6.84253648e-02, 6.36370406e-02, 1.44548699e-01,
          1.47203892e-01, 1.52233586e-01 ]
      - [ 5.37049592e-01, 7.05537498e-02, 6.59237579e-02, 1.46340355e-01,
          1.48033798e-01, 1.52920842e-01 ]
      - [ 5.37049592e-01, 6.94030896e-02, 6.58339188e-02, 1.45816594e-01,
          1.46926805e-01, 1.51991397e-01 ]
      - [ 9.35409069e-01, 6.95175529e-02, 6.55837655e-02, 1.45466775e-01,
          1.46502018e-01, 1.51560873e-01 ]
      - [ 9.35409069e-01, 6.98687732e-02, 6.54016659e-02, 1.45172134e-01,
          1.46630883e-01, 1.51611060e-01 ]
      - [ 9.35409069e-01, 7.22238123e-02, 6.20724559e-02, 1.41947657e-01,
          1.47625566e-01, 1.51350170e-01 ]
      - [ 9.35409069e-01, 7.28203505e-02, 6.23782985e-02, 1.41977668e-01,
          1.47718355e-01, 1.51379302e-01 ]
      - [ 5.37049592e-01, 7.30672926e-02, 6.29496053e-02, 1.42417043e-01,
          1.47397861e-01, 1.51233852e-01 ]
      - [ 9.35409069e-01, 7.34516308e-02, 5.93975224e-02, 1.39404938e-01,
          1.48098141e-01, 1.50661618e-01 ]
      - [ 9.35409069e-01, 7.34938532e-02, 5.95789254e-02, 1.39410645e-01,
          1.47901386e-01, 1.50591239e-01 ]
      - [ 9.35409069e-01, 7.40802139e-02, 6.03182092e-02, 1.40144050e-01,
          1.48098290e-01, 1.50882348e-01 ]
      - [ 9.35409069e-01, 7.48931170e-02, 6.12037107e-02, 1.40691206e-01,
          1.48342028e-01, 1.50959238e-01 ]
      - [ 9.35409069e-01, 7.53683969e-02, 6.00233413e-02, 1.39768764e-01,
          1.49096951e-01, 1.51064873e-01 ]
      - [ 9.35409069e-01, 7.60648027e-02, 6.05641901e-02, 1.40083998e-01,
          1.49229929e-01, 1.51276365e-01 ]
      - [ 9.35409069e-01, 7.58362487e-02, 6.06431402e-02, 1.40397474e-01,
          1.49348870e-01, 1.51460335e-01 ]
      - [ 9.35409069e-01, 7.62837231e-02, 6.13159239e-02, 1.41004860e-01,
          1.49517372e-01, 1.51672021e-01 ]
      - [ 9.35409069e-01, 7.67546520e-02, 6.20802231e-02, 1.41430363e-01,
          1.49950162e-01, 1.51965916e-01 ]
      - [ 9.35409069e-01, 7.72100464e-02, 6.24281131e-02, 1.41626477e-01,
          1.50066942e-01, 1.51985601e-01 ]
      - [ 9.35409069e-01, 7.76546374e-02, 6.30218461e-02, 1.42033264e-01,
          1.50178313e-01, 1.52064681e-01 ]
      - [ 9.35409069e-01, 7.81472325e-02, 6.38162643e-02, 1.42415345e-01,
          1.50482863e-01, 1.52244270e-01 ]
      - [ 9.35409069e-01, 7.87771121e-02, 6.54784739e-02, 1.43417627e-01,
          1.50631487e-01, 1.52518272e-01 ]
      - [ 9.35409069e-01, 7.88195431e-02, 6.62098080e-02, 1.43896416e-01,
          1.50375947e-01, 1.52447641e-01 ]
      - [ 5.37049592e-01, 7.96249807e-02, 6.68015257e-02, 1.44480482e-01,
          1.50623649e-01, 1.52704373e-01 ]
      - [ 9.35409069e-01, 7.91991651e-02, 6.74293861e-02, 1.44724101e-01,
          1.50150865e-01, 1.52412489e-01 ]
      - [ 9.35409069e-01, 7.95000568e-02, 6.67384788e-02, 1.43940642e-01,
          1.50250658e-01, 1.52110666e-01 ]
      - [ 9.35409069e-01, 7.90557638e-02, 6.64227381e-02, 1.44058436e-01,
          1.50635943e-01, 1.52448878e-01 ]
      - [ 9.35409069e-01, 7.91803822e-02, 6.64402246e-02, 1.44024000e-01,
          1.50763839e-01, 1.52456686e-01 ]
      - [ 9.35409069e-01, 7.94563293e-02, 6.66652992e-02, 1.44085288e-01,
          1.50900900e-01, 1.52508616e-01 ]
      - [ 9.35409069e-01, 7.95152187e-02, 6.71818256e-02, 1.44328162e-01,
          1.50654987e-01, 1.52336702e-01 ]
      - [ 9.35409069e-01, 7.98117369e-02, 6.72491118e-02, 1.44288734e-01,
          1.50797963e-01, 1.52354732e-01 ]
      - [ 9.35409069e-01, 8.03182498e-02, 6.78534880e-02, 1.44690186e-01,
          1.51000246e-01, 1.52503967e-01 ]
      - [ 5.37049592e-01, 8.06459039e-02, 6.85134828e-02, 1.45250723e-01,
          1.50898382e-01, 1.52609825e-01 ]
      - [ 9.35409069e-01, 8.11926425e-02, 6.88987300e-02, 1.45476580e-01,
          1.51159704e-01, 1.52761713e-01 ]
      - [ 9.35409069e-01, 8.14303756e-02, 6.93131909e-02, 1.45652235e-01,
          1.51112065e-01, 1.52703494e-01 ]
      - [ 9.35409069e-01, 8.16300511e-02, 6.94623813e-02, 1.45627201e-01,
          1.50998533e-01, 1.52512833e-01 ]
      - [ 9.35409069e-01, 8.16819966e-02, 6.98584318e-02, 1.45892590e-01,
          1.50974795e-01, 1.52535990e-01 ]
      - [ 9.35409069e-01, 8.15116838e-02, 7.01465383e-02, 1.46160319e-01,
          1.50683835e-01, 1.52430832e-01 ]
      - [ 9.35409069e-01, 8.20461810e-02, 7.09446520e-02, 1.46532193e-01,
          1.51099131e-01, 1.52685881e-01 ]
      - [ 9.35409069e-01, 8.23942795e-02, 7.14090466e-02, 1.46866754e-01,
          1.51071519e-01, 1.52664140e-01 ]
      - [ 9.35409069e-01, 8.28732625e-02, 7.22239837e-02, 1.47233188e-01,
          1.51428252e-01, 1.52879313e-01 ]
      - [ 9.35409069e-01, 8.34445581e-02, 7.33686239e-02, 1.47909999e-01,
          1.51638091e-01, 1.53109223e-01 ]
      - [ 9.35409069e-01, 8.39333832e-02, 7.39586800e-02, 1.48286417e-01,
          1.51833892e-01, 1.53247014e-01 ]
      - [ 9.35409069e-01, 8.39666203e-02, 7.42580295e-02, 1.48712367e-01,
          1.52006254e-01, 1.53315827e-01 ]
      - [ 9.35409069e-01, 8.41230303e-02, 7.48796463e-02, 1.48989603e-01,
          1.51878610e-01, 1.53324708e-01 ]
      - [ 9.35409069e-01, 8.40203241e-02, 7.45870247e-02, 1.48574740e-01,
          1.51714996e-01, 1.53008416e-01 ]
      - [ 9.35409069e-01, 8.45292360e-02, 7.52276629e-02, 1.48961216e-01,
          1.51820511e-01, 1.53188124e-01 ]
      - [ 9.35409069e-01, 8.46408457e-02, 7.56730512e-02, 1.49090499e-01,
          1.51634648e-01, 1.53004453e-01 ]
      - [ 5.37049592e-01, 8.52956995e-02, 7.58506358e-02, 1.49340525e-01,
          1.51864290e-01, 1.53186217e-01 ]
      - [ 9.35409069e-01, 8.57698247e-02, 7.64237940e-02, 1.49689630e-01,
          1.52042583e-01, 1.53322682e-01 ]
      - [ 9.35409069e-01, 8.54884610e-02, 7.67971277e-02, 1.49745286e-01,
          1.51632443e-01, 1.53060004e-01 ]
      - [ 9.35409069e-01, 8.54509175e-02, 7.67013133e-02, 1.49559766e-01,
          1.51524097e-01, 1.52877122e-01 ]
      - [ 9.35409069e-01, 8.59184936e-02, 7.72749111e-02, 1.49914548e-01,
          1.51713192e-01, 1.53005123e-01 ]
      - [ 5.37049592e-01, 8.41690972e-02, 7.56224617e-02, 1.48269460e-01,
          1.50083020e-01, 1.51624545e-01 ]
      - [ 9.35409069e-01, 8.47672150e-02, 7.63635859e-02, 1.48718596e-01,
          1.50153562e-01, 1.51919961e-01 ]
      - [ 9.35409069e-01, 8.52837488e-02, 7.65683949e-02, 1.48614556e-01,
          1.50140420e-01, 1.51837349e-01 ]
      - [ 5.37049592e-01, 8.26482847e-02, 7.45375007e-02, 1.46760225e-01,
          1.47921517e-01, 1.50114566e-01 ]
      - [ 9.35409069e-01, 8.11764076e-02, 7.39379004e-02, 1.45523608e-01,
          1.46366179e-01, 1.48939475e-01 ]
      - [ 9.35409069e-01, 8.16274062e-02, 7.38737509e-02, 1.45354599e-01,
          1.46220773e-01, 1.48927182e-01 ]
      - [ 5.37049592e-01, 8.14642161e-02, 7.35776350e-02, 1.44951314e-01,
          1.45750746e-01, 1.48516431e-01 ]
      - [ 9.35409069e-01, 7.94691071e-02, 7.31566921e-02, 1.43582925e-01,
          1.43544003e-01, 1.46707714e-01 ]
      - [ 5.37049592e-01, 7.87609443e-02, 7.20731094e-02, 1.40771925e-01,
          1.40905768e-01, 1.43742830e-01 ]
      - [ 9.35409069e-01, 7.75488615e-02, 7.19084293e-02, 1.40244693e-01,
          1.39609471e-01, 1.42990664e-01 ]
      - [ 5.37049592e-01, 7.73125738e-02, 7.13636428e-02, 1.39928952e-01,
          1.39187515e-01, 1.42680481e-01 ]
      - [ 9.35409069e-01, 7.37755597e-02, 6.57780915e-02, 1.35057509e-01,
          1.36836335e-01, 1.39754251e-01 ]
      - [ 9.35409069e-01, 7.39010125e-02, 6.62794113e-02, 1.35508940e-01,
          1.36396274e-01, 1.39595106e-01 ]
      - [ 5.37049592e-01, 7.18669593e-02, 6.50464073e-02, 1.34505257e-01,
          1.34767935e-01, 1.38483122e-01 ]
      - [ 9.35409069e-01, 7.24337697e-02, 6.65603876e-02, 1.34937018e-01,
          1.34289905e-01, 1.38136789e-01 ]
      - [ 9.35409069e-01, 7.23931268e-02, 6.72353879e-02, 1.35665521e-01,
          1.34254470e-01, 1.38298571e-01 ]
      - [ 9.35409069e-01, 7.23952651e-02, 6.77858144e-02, 1.36154801e-01,
          1.34429201e-01, 1.38494328e-01 ]
      - [ 9.35409069e-01, 7.23973960e-02, 6.83347136e-02, 1.36615247e-01,
          1.34603336e-01, 1.38676375e-01 ]
      - [ 9.35409069e-01, 7.23995194e-02, 6.88821152e-02, 1.37056962e-01,
          1.34776905e-01, 1.38849512e-01 ]
      - [ 9.35409069e-01, 7.24016353e-02, 6.94280267e-02, 1.37484714e-01,
          1.34949893e-01, 1.39016002e-01 ]
      - [ 9.35409069e-01, 7.24037513e-02, 6.99724779e-02, 1.37901336e-01,
          1.35122299e-01, 1.39177203e-01 ]
      - [ 5.37049592e-01, 7.26905316e-02, 6.97731823e-02, 1.37760147e-01,
          1.34915426e-01, 1.38997301e-01 ]
      - [ 9.35409069e-01, 7.30339885e-02, 7.02785179e-02, 1.38054579e-01,
          1.34983659e-01, 1.39137149e-01 ]
      - [ 9.35409069e-01, 7.36048594e-02, 7.08574578e-02, 1.38511434e-01,
          1.34836972e-01, 1.39123097e-01 ]
      - [ 9.35409069e-01, 7.37238377e-02, 7.03791156e-02, 1.38154611e-01,
          1.35042369e-01, 1.39209867e-01 ]
      - [ 9.35409069e-01, 7.39132613e-02, 7.07226843e-02, 1.38187259e-01,
          1.34712800e-01, 1.39064863e-01 ]
      - [ 9.35409069e-01, 7.58813620e-02, 6.86895251e-02, 1.36049211e-01,
          1.34715751e-01, 1.38771802e-01 ]
      - [ 9.35409069e-01, 7.58835748e-02, 6.92267120e-02, 1.36443287e-01,
          1.34884343e-01, 1.38922676e-01 ]
      - [ 9.35409069e-01, 7.58857727e-02, 6.97625279e-02, 1.36830524e-01,
          1.35052413e-01, 1.39070317e-01 ]
      - [ 9.35409069e-01, 7.58383274e-02, 7.04345182e-02, 1.37300521e-01,
          1.35175705e-01, 1.39220536e-01 ]
      - [ 9.35409069e-01, 7.58405179e-02, 7.09675923e-02, 1.37676165e-01,
          1.35342732e-01, 1.39362693e-01 ]
      - [ 9.35409069e-01, 7.58427083e-02, 7.14993402e-02, 1.38046801e-01,
          1.35509253e-01, 1.39502466e-01 ]
      - [ 5.37049592e-01, 7.57775977e-02, 7.06983060e-02, 1.37408093e-01,
          1.35116696e-01, 1.39051154e-01 ]
      - [ 5.37049592e-01, 7.32748210e-02, 6.93129376e-02, 1.36124253e-01,
          1.32583737e-01, 1.37396336e-01 ]
      - [ 9.35409069e-01, 7.32278079e-02, 6.88502714e-02, 1.35878876e-01,
          1.32531032e-01, 1.37288913e-01 ]
      - [ 5.37049592e-01, 7.29982033e-02, 6.97917864e-02, 1.36101604e-01,
          1.31317794e-01, 1.36488795e-01 ]
      - [ 9.35409069e-01, 7.29751363e-02, 7.05447048e-02, 1.35917976e-01,
          1.30365312e-01, 1.35652289e-01 ]
      - [ 9.35409069e-01, 7.33944997e-02, 7.09825158e-02, 1.36294663e-01,
          1.30295157e-01, 1.35674804e-01 ]
      - [ 5.37049592e-01, 7.41145462e-02, 7.13532493e-02, 1.36745676e-01,
          1.30556151e-01, 1.35972127e-01 ]
      - [ 9.35409069e-01, 7.45613798e-02, 7.16302916e-02, 1.36375621e-01,
          1.30497068e-01, 1.35620356e-01 ]
      - [ 5.37049592e-01, 7.44166151e-02, 7.25858510e-02, 1.36674196e-01,
          1.29794776e-01, 1.35204002e-01 ]
      - [ 9.35409069e-01, 7.39545897e-02, 6.87414259e-02, 1.33019879e-01,
          1.28907904e-01, 1.33597732e-01 ]
      - [ 5.37049592e-01, 7.47408718e-02, 6.93771839e-02, 1.33587226e-01,
          1.29074842e-01, 1.33820191e-01 ]
      - [ 9.35409069e-01, 7.59002939e-02, 6.83293790e-02, 1.32472545e-01,
          1.29415929e-01, 1.33845076e-01 ]
      - [ 9.35409069e-01, 7.60162249e-02, 6.81963861e-02, 1.32571161e-01,
          1.29370049e-01, 1.33828118e-01 ]
      - [ 5.37049592e-01, 7.44463429e-02, 6.13457374e-02, 1.27493605e-01,
          1.29373714e-01, 1.32378787e-01 ]
      - [ 9.35409069e-01, 7.52211660e-02, 6.16150759e-02, 1.27483472e-01,
          1.29446700e-01, 1.32444531e-01 ]
      - [ 9.35409069e-01, 7.26506636e-02, 5.95064349e-02, 1.26260653e-01,
          1.28664955e-01, 1.31840795e-01 ]
      - [ 5.37049592e-01, 7.23141953e-02, 5.95047958e-02, 1.26285449e-01,
          1.28077805e-01, 1.31507367e-01 ]
      - [ 9.35409069e-01, 7.29994327e-02, 6.00287728e-02, 1.26657575e-01,
          1.28133684e-01, 1.31606773e-01 ]
      - [ 9.35409069e-01, 7.32028112e-02, 6.00058287e-02, 1.26687661e-01,
          1.28050476e-01, 1.31536797e-01 ]
      - [ 9.35409069e-01, 7.24135339e-02, 5.84262684e-02, 1.25577837e-01,
          1.27595827e-01, 1.30993783e-01 ]
      - [ 9.35409069e-01, 7.25364313e-02, 5.84178977e-02, 1.25367254e-01,
          1.27366260e-01, 1.30851701e-01 ]
      - [ 5.37049592e-01, 7.27676451e-02, 5.90449125e-02, 1.25907004e-01,
          1.27209291e-01, 1.30929142e-01 ]
      - [ 5.37049592e-01, 7.03642368e-02, 5.73103502e-02, 1.24445945e-01,
          1.25257194e-01, 1.29395977e-01 ]
      - [ 9.35409069e-01, 7.10162446e-02, 5.72549067e-02, 1.24226034e-01,
          1.25385538e-01, 1.29452124e-01 ]
      - [ 9.35409069e-01, 7.04051852e-02, 5.70389442e-02, 1.24214359e-01,
          1.24838896e-01, 1.29154980e-01 ]
      - [ 9.35409069e-01, 6.96839094e-02, 5.70556298e-02, 1.24204241e-01,
          1.24205478e-01, 1.28800899e-01 ]
      - [ 5.37049592e-01, 6.95857257e-02, 5.69825098e-02, 1.24087326e-01,
          1.23649538e-01, 1.28429279e-01 ]
      - [ 9.35409069e-01, 6.99234903e-02, 5.73438145e-02, 1.24247491e-01,
          1.23619087e-01, 1.28510952e-01 ]
      - [ 9.35409069e-01, 6.95399269e-02, 5.71966507e-02, 1.23977125e-01,
          1.23513348e-01, 1.28301799e-01 ]
      - [ 9.35409069e-01, 7.00852573e-02, 5.77366576e-02, 1.24262221e-01,
          1.23687513e-01, 1.28360257e-01 ]
      - [ 9.35409069e-01, 7.04114214e-02, 5.81206046e-02, 1.24561012e-01,
          1.23791486e-01, 1.28443673e-01 ]
      - [ 9.35409069e-01, 7.08468705e-02, 5.87530434e-02, 1.24844030e-01,
          1.24136470e-01, 1.28653288e-01 ]
      - [ 9.35409069e-01, 7.13372454e-02, 5.94066903e-02, 1.25283420e-01,
          1.24332257e-01, 1.28838822e-01 ]
      - [ 9.35409069e-01, 7.10197911e-02, 5.95637746e-02, 1.25394046e-01,
          1.23865061e-01, 1.28622010e-01 ]
      - [ 5.37049592e-01, 7.15874732e-02, 5.98450229e-02, 1.25609711e-01,
          1.23856470e-01, 1.28611192e-01 ]
      - [ 9.35409069e-01, 7.18996599e-02, 6.00209236e-02, 1.25605449e-01,
          1.24111578e-01, 1.28708333e-01 ]
      - [ 9.35409069e-01, 7.14619458e-02, 6.06760010e-02, 1.25596225e-01,
          1.23517454e-01, 1.28355697e-01 ]
      - [ 9.35409069e-01, 7.20480829e-02, 6.12296127e-02, 1.25896499e-01,
          1.23598062e-01, 1.28532544e-01 ]
      - [ 5.37049592e-01, 7.20587596e-02, 6.11967780e-02, 1.25825435e-01,
          1.23256214e-01, 1.28275394e-01 ]
      - [ 9.35409069e-01, 7.25556985e-02, 6.15370870e-02, 1.26127839e-01,
          1.23284958e-01, 1.28362864e-01 ]
      - [ 9.35409069e-01, 7.27606118e-02, 6.17764629e-02, 1.26299754e-01,
          1.23203382e-01, 1.28315046e-01 ]
      - [ 9.35409069e-01, 7.30621070e-02, 6.28841817e-02, 1.26931742e-01,
          1.23115778e-01, 1.28355965e-01 ]
      - [ 9.35409069e-01, 7.27084577e-02, 6.30048364e-02, 1.26948714e-01,
          1.22698896e-01, 1.28067821e-01 ]
      - [ 9.35409069e-01, 7.31760785e-02, 6.37045205e-02, 1.27240762e-01,
          1.23032399e-01, 1.28271163e-01 ]
      - [ 9.35409069e-01, 7.37123117e-02, 6.42917529e-02, 1.27707034e-01,
          1.23243116e-01, 1.28483251e-01 ]
      - [ 9.35409069e-01, 7.41846785e-02, 6.49076700e-02, 1.27943367e-01,
          1.23597607e-01, 1.28681675e-01 ]
      - [ 5.37049592e-01, 7.50511438e-02, 6.55026436e-02, 1.28447711e-01,
          1.23772733e-01, 1.28899455e-01 ]
      - [ 5.37049592e-01, 7.16634393e-02, 6.23095036e-02, 1.24427356e-01,
          1.20262131e-01, 1.25229150e-01 ]
      - [ 5.37049592e-01, 6.54773414e-02, 5.65425381e-02, 1.19416721e-01,
          1.15455769e-01, 1.20797113e-01 ]
      - [ 9.35409069e-01, 6.59534782e-02, 5.64579479e-02, 1.19220592e-01,
          1.15588285e-01, 1.20807417e-01 ]
      - [ 9.35409069e-01, 6.59134239e-02, 5.66335209e-02, 1.19116895e-01,
          1.15295209e-01, 1.20630600e-01 ]
      - [ 9.35409069e-01, 6.61249086e-02, 5.76112084e-02, 1.19649313e-01,
          1.15336716e-01, 1.20697990e-01 ]
      - [ 5.37049592e-01, 6.53017759e-02, 5.72295897e-02, 1.19399078e-01,
          1.14549898e-01, 1.20198838e-01 ]
      - [ 9.35409069e-01, 6.57233000e-02, 5.84181733e-02, 1.19650669e-01,
          1.14375837e-01, 1.20058700e-01 ]
      - [ 9.35409069e-01, 6.47016391e-02, 5.79948947e-02, 1.19178981e-01,
          1.13406181e-01, 1.19366638e-01 ]
      - [ 5.37049592e-01, 6.54626712e-02, 5.84997796e-02, 1.19614035e-01,
          1.13588788e-01, 1.19568884e-01 ]
      - [ 5.37049592e-01, 6.36407658e-02, 5.84045462e-02, 1.22221336e-01,
          1.13961935e-01, 1.21319517e-01 ]
      - [ 9.35409069e-01, 6.06285185e-02, 5.80325276e-02, 1.29014030e-01,
          1.19518422e-01, 1.28539100e-01 ]
      - [ 5.37049592e-01, 5.92458993e-02, 5.78033514e-02, 1.31927252e-01,
          1.21805318e-01, 1.31585136e-01 ]
      - [ 9.35409069e-01, 5.88675439e-02, 5.82454018e-02, 1.34705260e-01,
          1.23966642e-01, 1.34231657e-01 ]
      - [ 9.35409069e-01, 5.67329787e-02, 5.65873943e-02, 1.36315361e-01,
          1.27121538e-01, 1.37518197e-01 ]
      - [ 9.35409069e-01, 5.70538267e-02, 5.71350567e-02, 1.36590391e-01,
          1.27160802e-01, 1.37607560e-01 ]
      - [ 9.35409069e-01, 5.68202734e-02, 5.69047518e-02, 1.37242764e-01,
          1.28354609e-01, 1.38740838e-01 ]
      - [ 5.37049592e-01, 5.59775941e-02, 5.58465831e-02, 1.37774214e-01,
          1.29747167e-01, 1.40063241e-01 ]
      - [ 9.35409069e-01, 5.57123236e-02, 5.52609228e-02, 1.38022825e-01,
          1.30644217e-01, 1.40892729e-01 ]
      - [ 9.35409069e-01, 5.52803017e-02, 5.52213565e-02, 1.38626903e-01,
          1.31437898e-01, 1.41733855e-01 ]
      - [ 9.35409069e-01, 5.56819737e-02, 5.56420237e-02, 1.38813809e-01,
          1.31553501e-01, 1.41836181e-01 ]
      - [ 5.37049592e-01, 5.44243418e-02, 5.46571128e-02, 1.39419496e-01,
          1.32756054e-01, 1.43143371e-01 ]
      - [ 9.35409069e-01, 5.61320223e-02, 5.44514246e-02, 1.41846418e-01,
          1.36853069e-01, 1.47041962e-01 ]
      - [ 5.37049592e-01, 5.64425848e-02, 5.44651523e-02, 1.42216355e-01,
          1.37188822e-01, 1.47407606e-01 ]
      - [ 5.37049592e-01, 5.93055896e-02, 5.40309325e-02, 1.58636630e-01,
          1.54710680e-01, 1.67356864e-01 ]
      - [ 9.35409069e-01, 5.90501614e-02, 5.41566573e-02, 1.59051105e-01,
          1.55165508e-01, 1.67887390e-01 ]
      - [ 9.35409069e-01, 5.96937984e-02, 5.43180816e-02, 1.59173280e-01,
          1.55686617e-01, 1.68316349e-01 ]
      - [ 9.35409069e-01, 6.03498816e-02, 5.47323897e-02, 1.59349948e-01,
          1.55795291e-01, 1.68464348e-01 ]
      - [ 9.35409069e-01, 6.13369979e-02, 5.59199899e-02, 1.59926370e-01,
          1.55991495e-01, 1.68682441e-01 ]
      - [ 9.35409069e-01, 6.06885552e-02, 5.52699827e-02, 1.60889864e-01,
          1.57543719e-01, 1.70337513e-01 ]
      - [ 9.35409069e-01, 6.17889985e-02, 5.33583425e-02, 1.59984320e-01,
          1.59008056e-01, 1.71032324e-01 ]
      - [ 5.37049592e-01, 6.27744272e-02, 5.25619835e-02, 1.60210148e-01,
          1.59972593e-01, 1.71890259e-01 ]
      - [ 9.35409069e-01, 6.32552654e-02, 5.29766232e-02, 1.60369426e-01,
          1.60056338e-01, 1.71999693e-01 ]
      - [ 9.35409069e-01, 6.31459504e-02, 4.93455268e-02, 1.59001634e-01,
          1.62076786e-01, 1.72884360e-01 ]
      - [ 9.35409069e-01, 6.12839758e-02, 4.52362411e-02, 1.57616466e-01,
          1.63802743e-01, 1.73822224e-01 ]
      - [ 9.35409069e-01, 6.09897599e-02, 4.50950079e-02, 1.57867223e-01,
          1.64316595e-01, 1.74277991e-01 ]
      - [ 9.35409069e-01, 6.12964481e-02, 4.55508381e-02, 1.58141091e-01,
          1.64419234e-01, 1.74413621e-01 ]
      - [ 5.37049592e-01, 6.19151853e-02, 4.58345711e-02, 1.58614591e-01,
          1.64746970e-01, 1.74789712e-01 ]
      - [ 9.35409069e-01, 5.95383085e-02, 4.39765006e-02, 1.59160540e-01,
          1.66313499e-01, 1.76183850e-01 ]
      - [ 5.37049592e-01, 5.93874529e-02, 4.33747992e-02, 1.59592897e-01,
          1.67392954e-01, 1.77120715e-01 ]
      - [ 9.35409069e-01, 5.84463701e-02, 4.35988493e-02, 1.61081344e-01,
          1.68714523e-01, 1.78408861e-01 ]
      - [ 5.37049592e-01, 5.81856258e-02, 4.31756414e-02, 1.61925390e-01,
          1.69762507e-01, 1.79425225e-01 ]
      - [ 5.37049592e-01, 6.72052279e-02, 5.61461300e-02, 1.69223160e-01,
          1.75388634e-01, 1.83161199e-01 ]
      - [ 9.35409069e-01, 6.54970482e-02, 5.47097661e-02, 1.69287533e-01,
          1.75769314e-01, 1.83705986e-01 ]
      - [ 9.35409069e-01, 6.49719909e-02, 5.41321449e-02, 1.69015989e-01,
          1.75845459e-01, 1.83766842e-01 ]
      - [ 5.37049592e-01, 6.57058582e-02, 5.46328314e-02, 1.69412434e-01,
          1.75972477e-01, 1.83923006e-01 ]
      - [ 9.35409069e-01, 6.51676655e-02, 5.36864959e-02, 1.69660449e-01,
          1.76851973e-01, 1.84595808e-01 ]
      - [ 5.37049592e-01, 6.42066896e-02, 5.29555269e-02, 1.69807985e-01,
          1.76920116e-01, 1.84803382e-01 ]
      - [ 5.37049592e-01, 6.27524480e-02, 5.12662567e-02, 1.69675797e-01,
          1.77757025e-01, 1.85318708e-01 ]
      - [ 9.35409069e-01, 6.17864467e-02, 5.00021726e-02, 1.69418290e-01,
          1.77779004e-01, 1.85339257e-01 ]
      - [ 9.35409069e-01, 6.29376322e-02, 5.16026951e-02, 1.70627549e-01,
          1.78748176e-01, 1.86071262e-01 ]
      - [ 5.37049592e-01, 6.17440380e-02, 4.99177389e-02, 1.69530019e-01,
          1.78009257e-01, 1.85233414e-01 ]
      - [ 5.37049592e-01, 5.75817600e-02, 4.47979495e-02, 1.65724367e-01,
          1.75309882e-01, 1.82233438e-01 ]
      - [ 5.37049592e-01, 5.53543270e-02, 4.28213924e-02, 1.65296718e-01,
          1.75268754e-01, 1.82149783e-01 ]
      - [ 5.37049592e-01, 4.76389155e-02, 3.64056528e-02, 1.63857698e-01,
          1.75195992e-01, 1.82029068e-01 ]
      - [ 9.35409069e-01, 4.81603779e-02, 3.67002562e-02, 1.64081171e-01,
          1.75281614e-01, 1.82109848e-01 ]
      - [ 9.35409069e-01, 4.60682176e-02, 3.47296670e-02, 1.63485631e-01,
          1.75012976e-01, 1.81851760e-01 ]
      - [ 9.35409069e-01, 4.64880802e-02, 3.53343636e-02, 1.63696751e-01,
          1.75250724e-01, 1.81990862e-01 ]
      - [ 5.37049592e-01, 4.63023633e-02, 3.52601893e-02, 1.63827062e-01,
          1.75055847e-01, 1.81912839e-01 ]
      - [ 9.35409069e-01, 4.53096032e-02, 3.42049189e-02, 1.63463295e-01,
          1.74801052e-01, 1.81754604e-01 ]
      - [ 9.35409069e-01, 4.50898223e-02, 3.34742665e-02, 1.63070872e-01,
          1.74769759e-01, 1.81574538e-01 ]
      - [ 9.35409069e-01, 4.44242433e-02, 3.31216082e-02, 1.63005143e-01,
          1.74718127e-01, 1.81531057e-01 ]
      - [ 9.35409069e-01, 4.42979634e-02, 3.27641107e-02, 1.62811279e-01,
          1.74636215e-01, 1.81385279e-01 ]
      - [ 5.37049592e-01, 4.50226180e-02, 3.34063880e-02, 1.63364768e-01,
          1.74783245e-01, 1.81636572e-01 ]
      - [ 9.35409069e-01, 4.50819805e-02, 3.35474759e-02, 1.63550034e-01,
          1.74803436e-01, 1.81612179e-01 ]
      - [ 9.35409069e-01, 4.54695038e-02, 3.42051797e-02, 1.63755432e-01,
          1.75002381e-01, 1.81725204e-01 ]
      - [ 9.35409069e-01, 4.66168225e-02, 3.60137857e-02, 1.64848998e-01,
          1.75319448e-01, 1.82167098e-01 ]
      - [ 9.35409069e-01, 4.59266230e-02, 3.54892984e-02, 1.64646700e-01,
          1.75157815e-01, 1.81893691e-01 ]
      - [ 5.37049592e-01, 4.51927781e-02, 3.50327902e-02, 1.64809585e-01,
          1.74990296e-01, 1.81893319e-01 ]
      - [ 9.35409069e-01, 4.51369211e-02, 3.47492211e-02, 1.64613649e-01,
          1.74916610e-01, 1.81820929e-01 ]
      - [ 9.35409069e-01, 4.34592552e-02, 3.26494202e-02, 1.63685426e-01,
          1.74673319e-01, 1.81349650e-01 ]
      - [ 5.37049592e-01, 4.33281139e-02, 3.26105095e-02, 1.63861573e-01,
          1.74512789e-01, 1.81298241e-01 ]
      - [ 9.35409069e-01, 4.36945595e-02, 3.27094868e-02, 1.63866460e-01,
          1.74475685e-01, 1.81311741e-01 ]
      - [ 9.35409069e-01, 4.42187972e-02, 3.29167023e-02, 1.63879335e-01,
          1.74583107e-01, 1.81362763e-01 ]
      - [ 9.35409069e-01, 4.46793325e-02, 3.33060510e-02, 1.64018825e-01,
          1.74665526e-01, 1.81440234e-01 ]
      - [ 5.37049592e-01, 4.26932462e-02, 3.14772651e-02, 1.63194358e-01,
          1.74013004e-01, 1.80754155e-01 ]
      - [ 9.35409069e-01, 4.32925262e-02, 3.17871645e-02, 1.63394600e-01,
          1.74136490e-01, 1.80845946e-01 ]
      - [ 5.37049592e-01, 4.05154973e-02, 3.02614756e-02, 1.63099393e-01,
          1.73206627e-01, 1.80293754e-01 ]
      - [ 9.35409069e-01, 3.99755277e-02, 2.92740185e-02, 1.62470073e-01,
          1.73035532e-01, 1.79875925e-01 ]
      - [ 9.35409069e-01, 3.94905694e-02, 2.95200888e-02, 1.62577584e-01,
          1.72886029e-01, 1.79762185e-01 ]
      - [ 9.35409069e-01, 3.95955853e-02, 2.95711663e-02, 1.62691906e-01,
          1.73033774e-01, 1.79827213e-01 ]
      - [ 5.37049592e-01, 4.00503613e-02, 3.00174076e-02, 1.62930951e-01,
          1.72878608e-01, 1.79776758e-01 ]
      - [ 9.35409069e-01, 4.04722467e-02, 3.03877871e-02, 1.63149551e-01,
          1.72909006e-01, 1.79818794e-01 ]
      - [ 9.35409069e-01, 3.96994241e-02, 3.01623866e-02, 1.62935898e-01,
          1.72747135e-01, 1.79511696e-01 ]
      - [ 9.35409069e-01, 3.95602547e-02, 3.06823179e-02, 1.63472489e-01,
          1.72639936e-01, 1.79638937e-01 ]
      - [ 5.37049592e-01, 4.09268737e-02, 3.16472389e-02, 1.63695171e-01,
          1.72897220e-01, 1.79582700e-01 ]
      - [ 9.35409069e-01, 4.09080498e-02, 3.14287581e-02, 1.63688943e-01,
          1.72831893e-01, 1.79505110e-01 ]
      - [ 5.37049592e-01, 3.91935222e-02, 2.82320026e-02, 1.62155941e-01,
          1.72079369e-01, 1.78549543e-01 ]
      - [ 9.35409069e-01, 3.74501310e-02, 2.15562806e-02, 1.58219457e-01,
          1.71875715e-01, 1.77073538e-01 ]
      - [ 5.37049592e-01, 3.81402187e-02, 2.21948177e-02, 1.58665717e-01,
          1.71958327e-01, 1.77238852e-01 ]
      - [ 9.35409069e-01, 3.58354039e-02, 2.06801314e-02, 1.58018038e-01,
          1.71139061e-01, 1.76497832e-01 ]
      - [ 5.37049592e-01, 3.56170274e-02, 2.06495076e-02, 1.58209980e-01,
          1.70891136e-01, 1.76420480e-01 ]
      - [ 5.37049592e-01, 3.36402133e-02, 1.91155877e-02, 1.57427892e-01,
          1.69933707e-01, 1.75512582e-01 ]
      - [ 9.35409069e-01, 3.40358615e-02, 1.96255054e-02, 1.57700717e-01,
          1.69944897e-01, 1.75563514e-01 ]
      - [ 9.35409069e-01, 3.14544849e-02, 1.81467906e-02, 1.57248199e-01,
          1.69031516e-01, 1.74911201e-01 ]
      - [ 5.37049592e-01, 3.19124684e-02, 1.84355695e-02, 1.57314122e-01,
          1.68863833e-01, 1.74776971e-01 ]
      - [ 9.35409069e-01, 3.15267518e-02, 1.79124139e-02, 1.56975731e-01,
          1.68657094e-01, 1.74534872e-01 ]
      - [ 9.35409069e-01, 3.42049859e-02, 1.70994364e-02, 1.58567697e-01,
          1.72406733e-01, 1.77735761e-01 ]
      - [ 5.37049592e-01, 3.35669518e-02, 1.64515823e-02, 1.58486381e-01,
          1.72214597e-01, 1.77619070e-01 ]
      - [ 5.37049592e-01, 3.14692780e-02, 1.43774860e-02, 1.57716274e-01,
          1.71572745e-01, 1.77018136e-01 ]
      - [ 5.37049592e-01, 2.82449722e-02, 1.12100169e-02, 1.56412780e-01,
          1.70521155e-01, 1.75975159e-01 ]
      - [ 9.35409069e-01, 2.80679949e-02, 1.07728345e-02, 1.56288207e-01,
          1.70295313e-01, 1.75775185e-01 ]
      - [ 9.35409069e-01, 2.71393396e-02, 1.04845446e-02, 1.56276569e-01,
          1.69978335e-01, 1.75549820e-01 ]
      - [ 9.35409069e-01, 2.75131185e-02, 1.10927243e-02, 1.56466156e-01,
          1.70154333e-01, 1.75654873e-01 ]
      - [ 9.35409069e-01, 2.78195273e-02, 1.15278885e-02, 1.56695262e-01,
          1.70250118e-01, 1.75732046e-01 ]
      - [ 9.35409069e-01, 2.82169022e-02, 1.21004889e-02, 1.56871632e-01,
          1.70418933e-01, 1.75827965e-01 ]
      - [ 5.37049592e-01, 2.83228233e-02, 1.20587163e-02, 1.56784758e-01,
          1.70238465e-01, 1.75614938e-01 ]
      - [ 5.37049592e-01, 2.62180455e-02, 1.04533145e-02, 1.56160742e-01,
          1.69418797e-01, 1.74918517e-01 ]
      - [ 9.35409069e-01, 2.68823393e-02, 1.05963144e-02, 1.56151488e-01,
          1.69440359e-01, 1.74738467e-01 ]
      - [ 9.35409069e-01, 2.62539592e-02, 9.46736336e-03, 1.55463815e-01,
          1.68996185e-01, 1.74192742e-01 ]
      - [ 9.35409069e-01, 2.70548444e-02, 1.05348267e-02, 1.55822426e-01,
          1.69285670e-01, 1.74365535e-01 ]
      - [ 9.35409069e-01, 2.77134944e-02, 1.14819920e-02, 1.56156525e-01,
          1.69379666e-01, 1.74413770e-01 ]
      - [ 9.35409069e-01, 2.81054247e-02, 1.20673245e-02, 1.56328306e-01,
          1.69572219e-01, 1.74525082e-01 ]
      - [ 9.35409069e-01, 2.72640269e-02, 1.09476782e-02, 1.54874742e-01,
          1.68018654e-01, 1.72975570e-01 ]
      - [ 5.37049592e-01, 2.65952572e-02, 9.81013384e-03, 1.53455615e-01,
          1.66734770e-01, 1.71519428e-01 ]
      - [ 9.35409069e-01, 2.70809550e-02, 1.02100819e-02, 1.53591990e-01,
          1.66677102e-01, 1.71478897e-01 ]
      - [ 5.37049592e-01, 2.55008098e-02, 8.94793496e-03, 1.52903199e-01,
          1.65979147e-01, 1.70676291e-01 ]
      - [ 9.35409069e-01, 1.93006117e-02, 2.94912746e-03, 1.50538430e-01,
          1.64572611e-01, 1.69011146e-01 ]
      - [ 5.37049592e-01, 1.85710359e-02, 1.26455782e-03, 1.49512172e-01,
          1.64137542e-01, 1.68377191e-01 ]
