%YAML:1.0
---
opencv_ml_svm:
   format: 3
   svmType: C_SVC
   kernel:
      type: LINEAR
   C: 1.
   term_criteria: { epsilon:2.2204460492503131e-16, iterations:10000 }
   var_count: 6
   class_count: 2
   class_labels: !!opencv-matrix
      rows: 2
      cols: 1
      dt: i
      data: [ 0, 1 ]
   sv_total: 1
   support_vectors:
      - [ -5.02062702e+00, 1.42194767e-05, -1.06106872e-05,
          6.77673524e-05, 5.92012111e-05, -5.55350744e-05 ]
   uncompressed_sv_total: 11930
   uncompressed_support_vectors:
      - [ 5.37049592e-01, 0., 0., 0., 0., 0. ]
      - [ 9.35409069e-01, 6.52325973e-02, 7.21951202e-02, 6.72252029e-02,
          6.22199140e-02, 6.11014366e-02 ]
      - [ 9.35409069e-01, 1.32104754e-01, 1.58252701e-01, 1.47268280e-01,
          1.16290838e-01, 1.20492242e-01 ]
      - [ 9.35409069e-01, 4.77010682e-02, 4.05710675e-02, 5.67422435e-02,
          5.55926040e-02, 6.20771460e-02 ]
      - [ 9.35409069e-01, 1.27812028e-01, 1.31512329e-01, 1.31512329e-01,
          1.27812028e-01, 1.31512329e-01 ]
      - [ 9.35409069e-01, 0., 0., 0., 0., 0. ]
      - [ 9.35409069e-01, 3.96857820e-02, 8.59328732e-02, 1.07420772e-01,
          7.43580833e-02, 1.18641160e-01 ]
      - [ 9.35409069e-01, 8.98375809e-02, 7.52452612e-02, 7.15797916e-02,
          1.08818911e-01, 8.96039158e-02 ]
      - [ 9.35409069e-01, 1.11205339e-01, 7.44267926e-02, 9.65446159e-02,
          1.38443857e-01, 1.16930820e-01 ]
      - [ 9.35409069e-01, 1.28835022e-01, 9.40803140e-02, 1.12959407e-01,
          1.40800655e-01, 1.23985879e-01 ]
      - [ 9.35409069e-01, 7.38073587e-02, 7.79291689e-02, 9.50086042e-02,
          9.70129222e-02, 9.82914045e-02 ]
      - [ 9.35409069e-01, 7.76159018e-02, 8.64410028e-02, 9.13045704e-02,
          8.11013281e-02, 8.31172541e-02 ]
      - [ 9.35409069e-01, 1.56066976e-02, -1.31159592e-02,
          -1.44801782e-02, 1.55959921e-02, 1.20888585e-02 ]
      - [ 9.35409069e-01, 1.76387101e-01, 1.27531156e-01, 1.26283824e-01,
          1.52701810e-01, 1.43611193e-01 ]
      - [ 9.35409069e-01, 8.05091038e-02, 9.85846370e-02, 9.57562551e-02,
          8.45198408e-02, 7.78432265e-02 ]
      - [ 9.35409069e-01, 7.07517415e-02, 1.04114890e-01, 1.06002830e-01,
          6.63640499e-02, 7.78862536e-02 ]
      - [ 9.35409069e-01, 7.79392794e-02, 1.00300997e-01, 1.01381674e-01,
          7.11538270e-02, 7.76174739e-02 ]
      - [ 9.35409069e-01, 9.03564170e-02, 1.10590249e-01, 1.08032413e-01,
          7.52310306e-02, 8.09956044e-02 ]
      - [ 9.35409069e-01, 7.67459720e-02, 1.00628309e-01, 9.35071111e-02,
          5.85515685e-02, 6.40501603e-02 ]
      - [ 9.35409069e-01, 8.62621665e-02, 1.16836295e-01, 1.50774255e-01,
          1.29034162e-01, 1.38525784e-01 ]
      - [ 9.35409069e-01, 1.16361678e-01, 1.24256112e-01, 1.36567920e-01,
          1.10805035e-01, 1.20548494e-01 ]
      - [ 5.37049592e-01, 2.30365574e-01, 2.30365574e-01, 2.30365574e-01,
          2.30365574e-01, 2.30365574e-01 ]
      - [ 9.35409069e-01, 8.44662860e-02, 8.34593400e-02, 9.74286497e-02,
          1.00359641e-01, 1.16513245e-01 ]
      - [ 9.35409069e-01, 8.99061486e-02, 8.77913237e-02, 1.00026406e-01,
          1.06905013e-01, 1.18477196e-01 ]
      - [ 9.35409069e-01, 7.79041424e-02, 6.80122003e-02, 7.38797411e-02,
          8.20884928e-02, 9.59241316e-02 ]
      - [ 9.35409069e-01, 8.62864256e-02, 7.67014995e-02, 8.86433125e-02,
          9.61747095e-02, 1.11165620e-01 ]
      - [ 9.35409069e-01, 7.95957893e-02, 7.44925514e-02, 8.81241262e-02,
          9.50098038e-02, 1.08931243e-01 ]
      - [ 9.35409069e-01, 8.10297430e-02, 7.94531554e-02, 9.32193771e-02,
          9.57945511e-02, 1.08886957e-01 ]
      - [ 9.35409069e-01, 4.49598022e-02, 4.14414443e-02, 5.59701435e-02,
          6.05306067e-02, 7.33322278e-02 ]
      - [ 9.35409069e-01, 4.95878570e-02, 4.73997593e-02, 6.29535019e-02,
          6.54855892e-02, 7.62434900e-02 ]
      - [ 9.35409069e-01, 5.63514829e-02, 5.58197461e-02, 6.76336884e-02,
          6.85960874e-02, 7.91079998e-02 ]
      - [ 9.35409069e-01, 6.95946813e-02, 6.97906092e-02, 7.46152177e-02,
          7.29338080e-02, 8.46948475e-02 ]
      - [ 9.35409069e-01, 7.71070644e-02, 8.72340798e-02, 7.87741914e-02,
          7.30940029e-02, 6.31756634e-02 ]
      - [ 9.35409069e-01, 7.10605606e-02, 8.94846693e-02, 8.78470019e-02,
          6.91779330e-02, 7.31538087e-02 ]
      - [ 9.35409069e-01, 7.02253133e-02, 7.55783990e-02, 7.36721158e-02,
          6.78760335e-02, 6.61195070e-02 ]
      - [ 9.35409069e-01, 1.44956782e-01, 1.44956782e-01, 1.44956782e-01,
          1.44956782e-01, 1.44956782e-01 ]
      - [ 9.35409069e-01, 1.77473739e-01, 1.77473739e-01, 1.77473739e-01,
          1.77473739e-01, 1.77473739e-01 ]
      - [ 9.35409069e-01, 1.02961697e-01, 1.00281052e-01, 1.34193510e-01,
          1.33452490e-01, 1.59091622e-01 ]
      - [ 9.35409069e-01, 1.10915206e-01, 1.11295342e-01, 1.38482004e-01,
          1.45699814e-01, 1.61131904e-01 ]
      - [ 9.35409069e-01, 2.77978908e-02, 1.26508987e-02, 2.52952483e-02,
          3.61730643e-02, 4.70928065e-02 ]
      - [ 9.35409069e-01, 4.47566696e-02, 1.04865372e-01, 1.45760700e-01,
          9.93930399e-02, 1.20369792e-01 ]
      - [ 9.35409069e-01, 4.12435792e-02, 9.79318246e-02, 1.39154717e-01,
          1.11325607e-01, 1.20803170e-01 ]
      - [ 9.35409069e-01, 7.73689747e-02, 7.58686215e-02, 8.22122619e-02,
          7.72219151e-02, 8.65007415e-02 ]
      - [ 9.35409069e-01, 9.17689949e-02, 1.10779293e-01, 1.42683715e-01,
          1.36989608e-01, 1.46580666e-01 ]
      - [ 9.35409069e-01, 1.87416717e-01, 9.96528715e-02, 9.96528715e-02,
          1.87416717e-01, 1.66535348e-01 ]
      - [ 9.35409069e-01, 6.50917441e-02, 4.76640873e-02, 7.96609968e-02,
          8.75585005e-02, 8.79286453e-02 ]
      - [ 9.35409069e-01, 1.51454762e-01, 1.61395431e-01, 1.65535003e-01,
          1.51560158e-01, 1.58210725e-01 ]
      - [ 9.35409069e-01, 1.17746480e-01, 1.36535093e-01, 1.35696888e-01,
          1.14488751e-01, 1.20321214e-01 ]
      - [ 9.35409069e-01, 1.14864670e-01, 1.30150706e-01, 1.30161256e-01,
          1.10429078e-01, 1.11266240e-01 ]
      - [ 9.35409069e-01, 5.45525998e-02, 6.81112260e-02, 7.39497691e-02,
          5.80631532e-02, 6.11810610e-02 ]
      - [ 9.35409069e-01, 6.17477782e-02, 7.26779029e-02, 7.87927061e-02,
          7.08968416e-02, 7.07607269e-02 ]
      - [ 9.35409069e-01, 6.80811480e-02, 8.41163918e-02, 8.70176181e-02,
          7.49401227e-02, 7.26428479e-02 ]
      - [ 9.35409069e-01, 7.32584298e-02, 8.80032182e-02, 8.97713527e-02,
          7.31274933e-02, 7.37533569e-02 ]
      - [ 9.35409069e-01, 8.16430300e-02, 9.56376120e-02, 9.50860009e-02,
          7.56189376e-02, 7.68110156e-02 ]
      - [ 9.35409069e-01, 1.38114035e-01, 1.26984820e-01, 1.26336634e-01,
          1.36792764e-01, 1.34051368e-01 ]
      - [ 9.35409069e-01, 9.52929631e-02, 9.68529955e-02, 9.68529955e-02,
          9.52929631e-02, 9.37165543e-02 ]
      - [ 9.35409069e-01, 1.04349107e-01, 1.44429430e-01, 1.58426195e-01,
          1.32396311e-01, 1.57325447e-01 ]
      - [ 9.35409069e-01, 1.07543916e-01, 1.36037469e-01, 1.36037469e-01,
          1.07543916e-01, 1.13464877e-01 ]
      - [ 9.35409069e-01, 9.85592753e-02, 1.12904146e-01, 1.14338338e-01,
          1.09115608e-01, 1.13931991e-01 ]
      - [ 9.35409069e-01, 8.14384595e-02, 8.76773521e-02, 9.63317156e-02,
          1.04044370e-01, 1.03440717e-01 ]
      - [ 9.35409069e-01, 9.56043452e-02, 9.64916945e-02, 1.01963334e-01,
          1.06680706e-01, 1.07121721e-01 ]
      - [ 9.35409069e-01, 1.09027363e-01, 1.03310443e-01, 1.06087990e-01,
          1.08191445e-01, 1.10595524e-01 ]
      - [ 9.35409069e-01, 1.21649429e-01, 1.08641811e-01, 1.09109975e-01,
          1.08904980e-01, 1.13867559e-01 ]
      - [ 9.35409069e-01, 1.33423164e-01, 1.12803616e-01, 1.11280195e-01,
          1.09021910e-01, 1.16943792e-01 ]
      - [ 9.35409069e-01, 1.25051096e-01, 9.88828838e-02, 9.94354039e-02,
          1.02752693e-01, 1.10275343e-01 ]
      - [ 9.35409069e-01, 1.18504539e-01, 8.80875662e-02, 8.81121904e-02,
          9.42156613e-02, 1.01508610e-01 ]
      - [ 9.35409069e-01, 1.27944261e-01, 9.11530778e-02, 8.97205546e-02,
          9.40329656e-02, 1.04428641e-01 ]
      - [ 9.35409069e-01, 3.76686342e-02, 3.34413461e-02, 3.96255776e-02,
          5.05069718e-02, 4.73915040e-02 ]
      - [ 9.35409069e-01, 9.40661803e-02, 1.37912139e-01, 1.56498238e-01,
          1.24439470e-01, 1.47011638e-01 ]
      - [ 9.35409069e-01, 6.70114011e-02, 5.22115119e-02, 6.52431250e-02,
          8.29513967e-02, 7.41295144e-02 ]
      - [ 5.37049592e-01, 2.08493248e-01, 1.49255171e-01, 1.75572306e-01,
          2.54548341e-01, 2.58212149e-01 ]
      - [ 5.37049592e-01, 2.23138288e-01, 1.41966432e-01, 1.67185962e-01,
          2.59708732e-01, 2.58553743e-01 ]
      - [ 5.37049592e-01, 2.49210626e-01, 1.84817269e-01, 2.05299750e-01,
          2.73778111e-01, 2.66255736e-01 ]
      - [ 5.37049592e-01, 2.51197249e-01, 1.76040187e-01, 1.95436731e-01,
          2.70133346e-01, 2.60759979e-01 ]
      - [ 5.37049592e-01, 2.59732008e-01, 1.67783394e-01, 1.86263040e-01,
          2.81069398e-01, 2.67000943e-01 ]
      - [ 5.37049592e-01, 2.64646769e-01, 1.59978166e-01, 1.77680388e-01,
          2.83461541e-01, 2.67004788e-01 ]
      - [ 5.37049592e-01, 2.55074412e-01, 1.82143688e-01, 2.11721897e-01,
          2.71321148e-01, 2.71399915e-01 ]
      - [ 5.37049592e-01, 2.58187145e-01, 1.73843935e-01, 2.01855719e-01,
          2.71719903e-01, 2.68512130e-01 ]
      - [ 5.37049592e-01, 2.59501845e-01, 1.66011870e-01, 1.92691475e-01,
          2.70332724e-01, 2.64631063e-01 ]
      - [ 5.37049592e-01, 2.50470161e-01, 1.83895811e-01, 2.13050425e-01,
          2.59708852e-01, 2.63627261e-01 ]
      - [ 5.37049592e-01, 2.51144052e-01, 1.75771371e-01, 2.03433812e-01,
          2.58123159e-01, 2.59166092e-01 ]
      - [ 5.37049592e-01, 2.50801921e-01, 1.68101475e-01, 1.94492921e-01,
          2.55746603e-01, 2.54445434e-01 ]
      - [ 5.37049592e-01, 2.42612243e-01, 1.83003455e-01, 2.09706679e-01,
          2.46624812e-01, 2.52295524e-01 ]
      - [ 5.37049592e-01, 2.42101237e-01, 1.75176710e-01, 2.00615153e-01,
          2.44439438e-01, 2.47582734e-01 ]
      - [ 5.37049592e-01, 2.34638810e-01, 1.87630415e-01, 2.12411746e-01,
          2.36326486e-01, 2.44862631e-01 ]
      - [ 5.37049592e-01, 2.34526724e-01, 1.79766238e-01, 2.03379646e-01,
          2.44332686e-01, 2.48011306e-01 ]
      - [ 5.37049592e-01, 2.33801976e-01, 1.72339410e-01, 1.94956809e-01,
          2.46755317e-01, 2.47155234e-01 ]
      - [ 5.37049592e-01, 2.27042526e-01, 1.89920396e-01, 2.19899133e-01,
          2.38555342e-01, 2.49516755e-01 ]
      - [ 5.37049592e-01, 2.26275995e-01, 1.82176188e-01, 2.10680962e-01,
          2.39418387e-01, 2.46971339e-01 ]
      - [ 9.35409069e-01, 2.06408516e-01, 2.14631766e-01, 2.36387342e-01,
          2.14016840e-01, 2.25699350e-01 ]
      - [ 9.35409069e-01, 9.96679962e-02, 9.96679962e-02, 9.96679962e-02,
          9.96679962e-02, 9.96679962e-02 ]
      - [ 9.35409069e-01, 9.09743831e-02, 9.24562812e-02, 9.46717858e-02,
          9.18478593e-02, 9.60928500e-02 ]
      - [ 9.35409069e-01, 1.02709740e-01, 1.03433236e-01, 1.02352850e-01,
          9.93124545e-02, 1.00301877e-01 ]
      - [ 9.35409069e-01, 9.28314850e-02, 7.58865997e-02, 7.97415450e-02,
          8.64363983e-02, 8.22062492e-02 ]
      - [ 9.35409069e-01, 1.66595608e-01, 1.24756187e-01, 1.68987036e-01,
          1.79234922e-01, 1.88848048e-01 ]
      - [ 9.35409069e-01, 1.34921104e-01, 1.04915932e-01, 1.31759271e-01,
          1.45408660e-01, 1.46576300e-01 ]
      - [ 9.35409069e-01, 1.23787880e-01, 1.25747845e-01, 1.40072331e-01,
          1.17637321e-01, 1.27768159e-01 ]
      - [ 9.35409069e-01, 5.65704554e-02, 6.31221682e-02, 6.12346195e-02,
          5.83166890e-02, 5.49136959e-02 ]
      - [ 9.35409069e-01, 6.01897389e-02, 6.36018440e-02, 6.35797530e-02,
          6.48724139e-02, 6.22338615e-02 ]
      - [ 9.35409069e-01, 7.88018927e-02, 8.91669989e-02, 1.04770787e-01,
          1.03172362e-01, 1.00626178e-01 ]
      - [ 9.35409069e-01, 5.30478284e-02, 8.81073475e-02, 1.08838245e-01,
          8.30802843e-02, 9.15556252e-02 ]
      - [ 9.35409069e-01, 5.55102080e-02, 7.84195289e-02, 8.64211693e-02,
          7.06519857e-02, 7.28769153e-02 ]
      - [ 9.35409069e-01, 6.17525056e-02, 1.07101083e-01, 1.13141015e-01,
          7.09323063e-02, 7.88604319e-02 ]
      - [ 9.35409069e-01, 1.17224298e-01, 1.31059140e-01, 1.22984827e-01,
          1.19582586e-01, 9.81476754e-02 ]
      - [ 9.35409069e-01, 4.49217223e-02, 5.65818176e-02, 6.49200156e-02,
          5.50605133e-02, 6.17685765e-02 ]
      - [ 9.35409069e-01, 5.90755902e-02, 7.12898970e-02, 7.53805339e-02,
          6.37406558e-02, 6.59738332e-02 ]
      - [ 9.35409069e-01, 1.08277708e-01, 6.89512640e-02, 7.61216953e-02,
          1.20668888e-01, 1.01639144e-01 ]
      - [ 9.35409069e-01, 1.13490805e-01, 1.24355428e-01, 1.35813802e-01,
          1.28457338e-01, 1.29886925e-01 ]
      - [ 9.35409069e-01, 1.25818849e-01, 1.42705888e-01, 1.49351418e-01,
          1.36127189e-01, 1.33068144e-01 ]
      - [ 9.35409069e-01, 8.96396711e-02, 8.75193179e-02, 8.91359597e-02,
          8.96339193e-02, 8.74198750e-02 ]
      - [ 9.35409069e-01, 1.14293672e-01, 1.14008598e-01, 1.25664949e-01,
          1.16939388e-01, 1.18200675e-01 ]
      - [ 9.35409069e-01, 8.64917338e-02, 1.06912866e-01, 1.06020048e-01,
          8.17241967e-02, 8.04237723e-02 ]
      - [ 9.35409069e-01, 9.83255878e-02, 1.25313863e-01, 1.19290672e-01,
          8.84205326e-02, 8.41538161e-02 ]
      - [ 9.35409069e-01, 1.05526179e-01, 1.32878453e-01, 1.40418559e-01,
          1.07831091e-01, 1.13482364e-01 ]
      - [ 9.35409069e-01, 1.16715096e-01, 1.54643551e-01, 1.52565971e-01,
          1.13958903e-01, 1.13854468e-01 ]
      - [ 9.35409069e-01, 0., 0., 0., 0., 0. ]
      - [ 9.35409069e-01, 2.84173898e-02, 5.25578158e-03, 4.59849946e-02,
          7.31584802e-02, 8.62383470e-02 ]
      - [ 9.35409069e-01, 9.88533869e-02, 1.27277449e-01, 1.42522842e-01,
          1.05096400e-01, 1.20448835e-01 ]
      - [ 9.35409069e-01, 9.57128182e-02, 1.16818368e-01, 1.41396269e-01,
          1.16271190e-01, 1.27406657e-01 ]
      - [ 9.35409069e-01, 1.32374689e-01, 1.56680539e-01, 1.70063093e-01,
          1.47257984e-01, 1.58278376e-01 ]
      - [ 9.35409069e-01, 1.23758465e-01, 1.70759231e-01, 1.69207484e-01,
          1.26915723e-01, 1.41451254e-01 ]
      - [ 9.35409069e-01, 7.34593868e-02, 1.08215235e-01, 1.05363742e-01,
          7.97897652e-02, 8.49219263e-02 ]
      - [ 9.35409069e-01, 1.00122929e-01, 1.06979735e-01, 1.22179002e-01,
          1.16965890e-01, 1.20567568e-01 ]
      - [ 9.35409069e-01, 9.13866311e-02, 7.61199892e-02, 7.73959160e-02,
          8.87165815e-02, 7.63854533e-02 ]
      - [ 9.35409069e-01, 1.33291811e-01, 1.41695514e-01, 1.41703755e-01,
          1.26223475e-01, 1.34259060e-01 ]
      - [ 9.35409069e-01, 1.21803239e-01, 1.21803239e-01, 1.92041248e-01,
          1.97786018e-01, 2.48132482e-01 ]
      - [ 5.37049592e-01, 2.28112772e-01, 9.90848318e-02, 1.54031575e-01,
          2.56689727e-01, 2.71176696e-01 ]
      - [ 5.37049592e-01, 2.13488638e-01, 1.78798452e-01, 2.13707492e-01,
          2.33842358e-01, 2.79566675e-01 ]
      - [ 5.37049592e-01, 2.25287810e-01, 1.61340207e-01, 1.90958530e-01,
          2.35473856e-01, 2.64126152e-01 ]
      - [ 5.37049592e-01, 2.04764873e-01, 2.11848140e-01, 2.04971477e-01,
          1.96121827e-01, 2.25226820e-01 ]
      - [ 9.35409069e-01, 6.50120825e-02, 7.33599439e-02, 5.96094020e-02,
          5.11665046e-02, 5.27470745e-02 ]
      - [ 9.35409069e-01, 1.36133641e-01, 1.23560682e-01, 1.28357306e-01,
          1.34609222e-01, 1.27694443e-01 ]
      - [ 9.35409069e-01, 4.60180044e-02, 1.81180798e-02, 5.03559522e-02,
          9.90997776e-02, 8.60049427e-02 ]
      - [ 9.35409069e-01, 4.29064222e-02, 2.94918455e-02, 5.60074151e-02,
          6.44553900e-02, 6.77241609e-02 ]
      - [ 9.35409069e-01, 7.77281448e-02, 5.88771030e-02, 5.82946651e-02,
          7.54591152e-02, 6.75327927e-02 ]
      - [ 9.35409069e-01, 8.51953775e-02, 7.63763115e-02, 6.67819157e-02,
          7.99848810e-02, 7.12237284e-02 ]
      - [ 9.35409069e-01, 6.65598288e-02, 7.60291144e-02, 9.20452327e-02,
          8.32658857e-02, 8.22292790e-02 ]
      - [ 9.35409069e-01, 8.64936113e-02, 1.02836788e-01, 1.10292099e-01,
          9.51833352e-02, 8.82762820e-02 ]
      - [ 9.35409069e-01, 1.04788758e-01, 1.18221968e-01, 1.18849039e-01,
          1.07085377e-01, 9.44507122e-02 ]
      - [ 9.35409069e-01, 9.44837481e-02, 1.27707332e-01, 1.23555504e-01,
          1.01704203e-01, 1.04572922e-01 ]
      - [ 9.35409069e-01, 6.61701635e-02, 7.49310181e-02, 9.03999582e-02,
          9.53848138e-02, 9.20273811e-02 ]
      - [ 9.35409069e-01, 4.36537564e-02, 6.67419955e-02, 6.91059008e-02,
          6.10030070e-02, 6.05948120e-02 ]
      - [ 9.35409069e-01, 8.70348439e-02, 1.19607039e-01, 1.19607039e-01,
          8.70348439e-02, 8.89869854e-02 ]
      - [ 9.35409069e-01, 5.54468371e-02, 6.34200349e-02, 6.40432760e-02,
          6.46329075e-02, 6.95867687e-02 ]
      - [ 9.35409069e-01, 6.97218776e-02, 7.46250525e-02, 7.72873238e-02,
          8.27999637e-02, 8.48992243e-02 ]
      - [ 9.35409069e-01, 1.04292378e-01, 1.44227996e-01, 1.53240696e-01,
          1.21210843e-01, 1.38313964e-01 ]
      - [ 9.35409069e-01, 4.78227325e-02, 4.04895246e-02, 6.36857226e-02,
          1.01719789e-01, 7.82717317e-02 ]
      - [ 9.35409069e-01, 8.80767554e-02, 6.93489984e-02, 9.05053318e-02,
          1.10666193e-01, 1.05872005e-01 ]
      - [ 9.35409069e-01, 1.05159640e-01, 8.55495483e-02, 1.00099541e-01,
          1.18929952e-01, 1.08008958e-01 ]
      - [ 9.35409069e-01, 1.85506530e-02, -2.63011493e-02,
          -3.53395976e-02, 4.62454967e-02, -1.64274927e-02 ]
      - [ 9.35409069e-01, 4.91621867e-02, 3.76177224e-04,
          -1.33764781e-02, 7.64307454e-02, -7.98395602e-04 ]
      - [ 9.35409069e-01, 1.39322490e-01, 6.93899170e-02, 4.90692481e-02,
          1.70527741e-01, 5.42001240e-02 ]
      - [ 9.35409069e-01, 1.58756450e-01, 8.78449976e-02, 6.43281862e-02,
          1.95825517e-01, 6.89371079e-02 ]
      - [ 9.35409069e-01, 2.29299605e-01, 1.57833651e-01, 1.47120550e-01,
          2.49915108e-01, 2.12053642e-01 ]
      - [ 9.35409069e-01, 9.51810256e-02, 3.54340561e-02, 3.70717496e-02,
          9.51810256e-02, 6.55656457e-02 ]
      - [ 9.35409069e-01, 6.51122630e-02, 4.12788205e-02, 4.08752300e-02,
          6.23811036e-02, 5.37399612e-02 ]
      - [ 5.37049592e-01, 1.56443909e-01, 9.73802730e-02, 9.73802730e-02,
          1.56443909e-01, 2.22262666e-01 ]
      - [ 5.37049592e-01, 1.41684607e-01, 8.63612145e-02, 8.63612145e-02,
          1.41684607e-01, 1.96503043e-01 ]
      - [ 9.35409069e-01, 1.35416836e-01, 1.34006307e-01, 1.45655915e-01,
          1.46693721e-01, 1.43648505e-01 ]
      - [ 5.37049592e-01, 3.57630044e-01, 0., 0., 3.57630044e-01,
          3.57630044e-01 ]
      - [ 5.37049592e-01, 3.10015619e-01, 0., 0., 3.10015619e-01,
          3.10015619e-01 ]
      - [ 5.37049592e-01, 2.34325767e-01, 0., 0., 2.34325767e-01,
          2.34325767e-01 ]
      - [ 5.37049592e-01, 2.72476673e-01, 3.90432805e-01, 3.90432805e-01,
          2.72476673e-01, 2.72476673e-01 ]
      - [ 5.37049592e-01, 2.16607243e-01, 2.23356038e-01, 2.23356038e-01,
          2.16607243e-01, 2.16607243e-01 ]
      - [ 9.35409069e-01, 1.54632449e-01, 2.04570889e-01, 2.23074436e-01,
          1.67939514e-01, 1.86484396e-01 ]
      - [ 9.35409069e-01, 1.62199274e-01, 2.12243080e-01, 2.33371571e-01,
          1.72873169e-01, 1.87138990e-01 ]
      - [ 9.35409069e-01, 7.55382702e-02, 9.93064120e-02, 9.90725830e-02,
          8.41762871e-02, 8.86575133e-02 ]
      - [ 9.35409069e-01, 7.81693831e-02, 1.03063665e-01, 1.02537066e-01,
          8.61293823e-02, 9.05048326e-02 ]
      - [ 9.35409069e-01, 1.40897721e-01, 1.40897721e-01, 1.40897721e-01,
          1.40897721e-01, 1.40897721e-01 ]
      - [ 9.35409069e-01, 5.52754365e-02, 7.12606311e-02, 6.22297600e-02,
          5.77645749e-02, 5.52210771e-02 ]
      - [ 9.35409069e-01, 4.69711535e-02, 7.42241740e-02, 8.14699605e-02,
          6.64527044e-02, 6.90918192e-02 ]
      - [ 9.35409069e-01, 4.05851416e-02, 5.54741956e-02, 7.11969882e-02,
          7.05084726e-02, 6.83525354e-02 ]
      - [ 9.35409069e-01, 5.59759662e-02, 6.47356659e-02, 6.53083920e-02,
          5.93738332e-02, 5.95521368e-02 ]
      - [ 9.35409069e-01, 1.40610784e-01, 1.40610784e-01, 1.40610784e-01,
          1.40610784e-01, 1.40610784e-01 ]
      - [ 9.35409069e-01, 6.37108162e-02, 6.53179809e-02, 7.37553090e-02,
          6.95476979e-02, 7.55315125e-02 ]
      - [ 9.35409069e-01, 7.06154779e-02, 7.60904923e-02, 8.12314451e-02,
          7.28669167e-02, 7.73259774e-02 ]
      - [ 9.35409069e-01, 7.60580078e-02, 8.52335095e-02, 8.74701962e-02,
          7.54885525e-02, 7.84431919e-02 ]
      - [ 9.35409069e-01, 5.92981242e-02, 7.02685490e-02, 7.61628374e-02,
          7.17280060e-02, 7.08554685e-02 ]
      - [ 9.35409069e-01, 9.01836529e-02, 1.14648826e-01, 1.17294878e-01,
          9.55429152e-02, 9.84356552e-02 ]
      - [ 9.35409069e-01, 9.29435343e-02, 1.02776751e-01, 9.97796059e-02,
          8.84944201e-02, 8.73617604e-02 ]
      - [ 9.35409069e-01, 7.68070295e-02, 8.17987174e-02, 7.75477961e-02,
          6.73980489e-02, 6.90863431e-02 ]
      - [ 9.35409069e-01, 8.50684792e-02, 7.60524645e-02, 7.24786222e-02,
          6.84262365e-02, 6.83264658e-02 ]
      - [ 9.35409069e-01, 9.03062373e-02, 8.26392099e-02, 7.91204274e-02,
          7.30327815e-02, 7.25747198e-02 ]
      - [ 9.35409069e-01, 1.01962171e-01, 9.01899189e-02, 8.39147717e-02,
          7.53209144e-02, 7.63219222e-02 ]
      - [ 9.35409069e-01, 9.60863903e-02, 1.03588618e-01, 8.93019959e-02,
          7.00198039e-02, 7.02088624e-02 ]
      - [ 9.35409069e-01, 1.28787473e-01, 1.56190157e-01, 1.49135858e-01,
          1.16973191e-01, 1.21798456e-01 ]
      - [ 9.35409069e-01, 9.30136070e-02, 8.96231607e-02, 8.84202570e-02,
          8.77574757e-02, 8.53302628e-02 ]
      - [ 9.35409069e-01, 1.01712383e-01, 9.65844318e-02, 9.24620181e-02,
          8.72280002e-02, 8.52456540e-02 ]
      - [ 9.35409069e-01, 1.06219314e-01, 1.00587539e-01, 1.00223131e-01,
          8.90662298e-02, 9.26030651e-02 ]
      - [ 9.35409069e-01, 1.47215873e-02, 8.74355584e-02, 1.05511554e-01,
          7.79746622e-02, 9.96697620e-02 ]
      - [ 9.35409069e-01, 5.80538921e-02, 1.11481197e-01, 1.26196057e-01,
          1.01733230e-01, 1.30523682e-01 ]
      - [ 9.35409069e-01, 4.07018177e-02, 4.81474884e-02, 4.93615717e-02,
          4.16090898e-02, 4.88661602e-02 ]
      - [ 9.35409069e-01, 5.43554761e-02, 6.09832779e-02, 6.64889589e-02,
          7.31772706e-02, 7.87851214e-02 ]
      - [ 9.35409069e-01, 7.87463337e-02, 8.51660520e-02, 9.39079374e-02,
          1.06507234e-01, 9.67069715e-02 ]
      - [ 9.35409069e-01, 9.14677978e-02, 1.43636376e-01, 1.58195570e-01,
          1.13472797e-01, 1.33939058e-01 ]
      - [ 9.35409069e-01, 7.79986158e-02, 8.49818662e-02, 8.66930857e-02,
          8.02145824e-02, 8.29422101e-02 ]
      - [ 9.35409069e-01, 8.64963904e-02, 9.11501944e-02, 8.84202197e-02,
          8.31336901e-02, 8.36608410e-02 ]
      - [ 9.35409069e-01, 5.29195182e-03, -2.06719004e-02,
          -1.91236450e-03, 4.63721938e-02, 2.99248956e-02 ]
      - [ 9.35409069e-01, 1.77043304e-02, -4.41182172e-03,
          1.00017013e-02, 5.33025526e-02, 3.36718783e-02 ]
      - [ 9.35409069e-01, 2.78937519e-02, 9.16089490e-03, 1.97951533e-02,
          5.87450229e-02, 3.64100561e-02 ]
      - [ 9.35409069e-01, -6.98908865e-02, -7.74794817e-02,
          -5.53506427e-02, -1.27176465e-02, -2.65769605e-02 ]
      - [ 9.35409069e-01, -6.49691448e-02, -7.31146783e-02,
          -5.11814617e-02, -1.29092289e-02, -2.58262977e-02 ]
      - [ 9.35409069e-01, 1.02989264e-01, 1.14622444e-01, 1.25816405e-01,
          9.81763303e-02, 1.04979046e-01 ]
      - [ 9.35409069e-01, 1.13153003e-01, 1.27088234e-01, 1.33076072e-01,
          1.01531662e-01, 1.07687682e-01 ]
      - [ 9.35409069e-01, 7.94949532e-02, 9.72684473e-02, 9.45120081e-02,
          6.97086006e-02, 7.61766657e-02 ]
      - [ 9.35409069e-01, 1.18671514e-01, 1.13180071e-01, 1.13180071e-01,
          1.18671514e-01, 1.13180071e-01 ]
      - [ 9.35409069e-01, 5.49717546e-02, 1.92198269e-02, 9.04079676e-02,
          8.67168605e-02, 9.74052325e-02 ]
      - [ 9.35409069e-01, 5.68653382e-02, 3.07784081e-02, 7.79763460e-02,
          5.68699278e-02, 7.00629726e-02 ]
      - [ 9.35409069e-01, 6.76539391e-02, 4.48839329e-02, 8.81938487e-02,
          6.08692393e-02, 7.24507943e-02 ]
      - [ 9.35409069e-01, 6.84053674e-02, 7.92172328e-02, 9.44751650e-02,
          7.81432167e-02, 8.39546025e-02 ]
      - [ 9.35409069e-01, 9.89108533e-02, 3.63988355e-02, 4.13122624e-02,
          9.89108533e-02, 4.30755429e-02 ]
      - [ 9.35409069e-01, 1.19321302e-01, 9.58577693e-02, 1.23845473e-01,
          1.18096158e-01, 1.32713273e-01 ]
      - [ 9.35409069e-01, 8.47448036e-02, 7.00027496e-02, 7.13899285e-02,
          7.19608590e-02, 7.57656917e-02 ]
      - [ 9.35409069e-01, 9.96679962e-02, 9.96679962e-02, 9.96679962e-02,
          9.96679962e-02, 9.96679962e-02 ]
      - [ 9.35409069e-01, 9.16304141e-02, 1.65048968e-02, 3.57835069e-02,
          1.00204684e-01, 8.89463574e-02 ]
      - [ 9.35409069e-01, 1.24048330e-01, 9.66773555e-02, 1.03678949e-01,
          1.19932875e-01, 1.25100091e-01 ]
      - [ 9.35409069e-01, 6.13280050e-02, 6.86350241e-02, 7.80267343e-02,
          6.59072772e-02, 7.14659467e-02 ]
      - [ 9.35409069e-01, 1.28716812e-01, 1.45330206e-01, 1.33396998e-01,
          1.33993283e-01, 1.36856377e-01 ]
      - [ 9.35409069e-01, 7.25926459e-02, 8.10454860e-02, 8.52558017e-02,
          6.91472366e-02, 6.72939345e-02 ]
      - [ 9.35409069e-01, 4.57441993e-02, 4.32231277e-02, 6.07082434e-02,
          5.38105182e-02, 5.35509214e-02 ]
      - [ 9.35409069e-01, 1.26617819e-01, 1.53228849e-01, 1.53228849e-01,
          1.26617819e-01, 1.22013614e-01 ]
      - [ 9.35409069e-01, 3.76057327e-02, 4.12308685e-02, 6.18019812e-02,
          4.82252836e-02, 5.93973994e-02 ]
      - [ 9.35409069e-01, 0., 0., 0., 0., 0. ]
      - [ 9.35409069e-01, 5.51353954e-02, 8.89981687e-02, 1.08056620e-01,
          8.63297433e-02, 9.44328383e-02 ]
      - [ 9.35409069e-01, 3.38710062e-02, 7.54309818e-02, 9.03887376e-02,
          5.57164252e-02, 6.64465874e-02 ]
      - [ 9.35409069e-01, 4.15945351e-02, 6.44350331e-03,
          -1.20284483e-02, 7.30904844e-03, -6.00837823e-03 ]
      - [ 9.35409069e-01, 4.52155843e-02, 3.79898585e-02, 3.31962593e-02,
          4.05356064e-02, 3.45170647e-02 ]
      - [ 9.35409069e-01, 6.01036437e-02, 6.03892133e-02, 4.77763489e-02,
          4.91009690e-02, 3.91207598e-02 ]
      - [ 9.35409069e-01, 6.02119155e-02, 5.23106195e-02, 3.89306210e-02,
          5.01481444e-02, 3.51048373e-02 ]
      - [ 9.35409069e-01, 6.82692081e-02, 7.14163482e-02, 5.29730618e-02,
          5.37311956e-02, 3.81459929e-02 ]
      - [ 9.35409069e-01, 8.15425664e-02, 9.14398655e-02, 6.62718862e-02,
          6.15120642e-02, 4.24608439e-02 ]
      - [ 5.37049592e-01, 5.08747846e-02, 1.44963741e-01, 1.44963741e-01,
          4.55671847e-02, 9.96024609e-02 ]
      - [ 9.35409069e-01, 9.46116894e-02, 1.57192186e-01, 1.72402292e-01,
          7.59649798e-02, 1.27886862e-01 ]
      - [ 9.35409069e-01, 1.32811740e-01, 1.67529061e-01, 1.74768001e-01,
          1.07703224e-01, 1.35268316e-01 ]
      - [ 9.35409069e-01, 6.11795150e-02, 4.28041443e-02, 6.10829480e-02,
          7.24565461e-02, 8.51930156e-02 ]
      - [ 9.35409069e-01, 6.90487251e-02, 5.01846932e-02, 5.29006124e-02,
          8.00732970e-02, 6.77073970e-02 ]
      - [ 9.35409069e-01, 1.70751102e-02, 1.25138992e-02,
          -4.81911842e-03, -8.67225602e-03, -1.46516394e-02 ]
      - [ 9.35409069e-01, 2.78522037e-02, 2.79645994e-02, 5.79983601e-03,
          -1.63663481e-03, -1.06225982e-02 ]
      - [ 9.35409069e-01, 3.57119590e-02, 3.94830070e-02, 1.63516439e-02,
          3.40278260e-03, -6.61752373e-03 ]
      - [ 9.35409069e-01, 4.35133167e-02, 5.09077348e-02, 2.41326950e-02,
          1.03629064e-02, -2.63616582e-03 ]
      - [ 9.35409069e-01, 9.32422653e-02, 1.20943174e-01, 1.26467943e-01,
          1.00455292e-01, 1.05289422e-01 ]
      - [ 9.35409069e-01, 6.26330674e-02, 6.84898868e-02, 9.43012461e-02,
          7.27066696e-02, 7.61267841e-02 ]
      - [ 9.35409069e-01, 4.40789871e-02, 7.65674114e-02, 8.11083987e-02,
          4.36843634e-02, 5.01054004e-02 ]
      - [ 9.35409069e-01, 1.45783648e-01, 3.62219885e-02, 9.09865722e-02,
          1.42441064e-01, 1.35126844e-01 ]
      - [ 9.35409069e-01, 1.64566919e-01, 6.39514625e-02, 1.07979774e-01,
          1.48701012e-01, 1.36191890e-01 ]
      - [ 9.35409069e-01, 1.56192109e-01, 1.54860541e-01, 1.36264905e-01,
          1.42825171e-01, 1.42960086e-01 ]
      - [ 9.35409069e-01, 1.49118125e-01, 1.49106860e-01, 1.46677747e-01,
          1.47774741e-01, 1.50523067e-01 ]
      - [ 9.35409069e-01, 7.87065923e-02, 8.62670615e-02, 8.91581774e-02,
          8.31807330e-02, 8.44841599e-02 ]
      - [ 9.35409069e-01, 1.57585561e-01, 1.75190389e-01, 1.82220697e-01,
          1.42117068e-01, 1.53512985e-01 ]
      - [ 9.35409069e-01, 1.27014905e-01, 8.47516805e-02, 1.27684385e-01,
          1.86261505e-01, 1.73140481e-01 ]
      - [ 9.35409069e-01, 6.62769377e-02, 1.37409687e-01, 1.50790393e-01,
          9.63231176e-02, 1.17472209e-01 ]
      - [ 9.35409069e-01, 7.78501555e-02, 1.51664883e-01, 1.58787802e-01,
          1.01922698e-01, 1.18144676e-01 ]
      - [ 9.35409069e-01, -5.47882169e-02, -1.67140570e-02,
          -2.63790842e-02, -6.51387945e-02, -5.75512312e-02 ]
      - [ 9.35409069e-01, 5.31516857e-02, 5.99946305e-02, 5.90297468e-02,
          5.70290908e-02, 5.92598915e-02 ]
      - [ 9.35409069e-01, 8.46890435e-02, 1.06302999e-01, 8.18434730e-02,
          5.85371740e-02, 6.71061575e-02 ]
      - [ 9.35409069e-01, 9.60325524e-02, 1.24439426e-01, 9.16206017e-02,
          6.66111037e-02, 7.27138370e-02 ]
      - [ 9.35409069e-01, 1.01137280e-01, 1.21508844e-01, 1.21508844e-01,
          1.01137280e-01, 1.04971595e-01 ]
      - [ 9.35409069e-01, 1.12832710e-01, 1.17455103e-01, 1.14162751e-01,
          9.36108604e-02, 9.67958793e-02 ]
      - [ 9.35409069e-01, 1.00442752e-01, 1.08164206e-01, 1.06800102e-01,
          9.97209251e-02, 9.18251425e-02 ]
      - [ 9.35409069e-01, 1.01591744e-01, 1.18595146e-01, 1.09919637e-01,
          9.65343788e-02, 9.80077088e-02 ]
      - [ 9.35409069e-01, 1.08161360e-01, 1.12858854e-01, 1.17339745e-01,
          1.00152008e-01, 1.04462847e-01 ]
      - [ 9.35409069e-01, 7.52800629e-02, 8.06422681e-02, 7.36746863e-02,
          6.88384697e-02, 5.94791472e-02 ]
      - [ 9.35409069e-01, 6.08348064e-02, 6.45445883e-02, 6.94081187e-02,
          7.08219036e-02, 7.10512698e-02 ]
      - [ 9.35409069e-01, 6.94632381e-02, 6.93757236e-02, 7.81402811e-02,
          7.66016841e-02, 7.40833208e-02 ]
      - [ 9.35409069e-01, 4.35086042e-02, 1.24017466e-02, 2.97843087e-02,
          6.29511327e-02, 6.12456836e-02 ]
      - [ 9.35409069e-01, 6.33884221e-02, 3.80513780e-02, 3.90531793e-02,
          9.41059887e-02, 6.69164062e-02 ]
      - [ 9.35409069e-01, 6.18871227e-02, 2.77942363e-02, 3.89209576e-02,
          7.89408013e-02, 7.15218112e-02 ]
      - [ 9.35409069e-01, 1.02195293e-01, 1.04513817e-01, 1.06727935e-01,
          1.12039268e-01, 1.00014679e-01 ]
      - [ 5.37049592e-01, 8.51259604e-02, 5.87442927e-02, 5.95985427e-02,
          1.05150074e-01, 8.36894214e-02 ]
      - [ 9.35409069e-01, 5.12522273e-02, 4.48740646e-02, 4.32165638e-02,
          6.02372326e-02, 4.99913208e-02 ]
      - [ 9.35409069e-01, 8.49828348e-02, 6.78334311e-02, 6.99422807e-02,
          7.70876333e-02, 6.83362633e-02 ]
      - [ 9.35409069e-01, 9.11024660e-02, 1.14803098e-01, 1.06866948e-01,
          9.11024660e-02, 8.78804177e-02 ]
      - [ 9.35409069e-01, 9.84733179e-02, 1.23630241e-01, 1.32538900e-01,
          9.84733179e-02, 9.86914635e-02 ]
      - [ 9.35409069e-01, 1.22328669e-01, 1.49025247e-01, 1.50224864e-01,
          1.22328669e-01, 1.07350610e-01 ]
      - [ 9.35409069e-01, 1.24138504e-01, 1.49231121e-01, 1.47115245e-01,
          1.39893711e-01, 1.14179976e-01 ]
      - [ 9.35409069e-01, 1.07698724e-01, 1.43140137e-01, 1.42451748e-01,
          1.18459687e-01, 1.05256081e-01 ]
      - [ 9.35409069e-01, 1.03263758e-01, 1.35172978e-01, 1.40652999e-01,
          1.12241983e-01, 1.02133565e-01 ]
      - [ 9.35409069e-01, 1.03228055e-01, 1.32215336e-01, 1.34767771e-01,
          1.15526550e-01, 9.96482149e-02 ]
      - [ 9.35409069e-01, 1.00175574e-01, 1.26788571e-01, 1.27364919e-01,
          1.18310854e-01, 9.76711735e-02 ]
      - [ 5.37049592e-01, 3.04326024e-02, 7.43370503e-03, 2.21718960e-02,
          5.21604680e-02, 6.01577684e-02 ]
      - [ 5.37049592e-01, 7.74459392e-02, 1.09859956e-02, 9.97943990e-03,
          6.97103813e-02, 4.63595577e-02 ]
      - [ 5.37049592e-01, 4.04589623e-02, 9.29404125e-02, 6.92753270e-02,
          4.04589623e-02, 1.18457146e-01 ]
      - [ 5.37049592e-01, 6.14372976e-02, 8.53087902e-02, 6.25628605e-02,
          6.14372976e-02, 1.33738935e-01 ]
      - [ 5.37049592e-01, 7.86475614e-02, 7.80850053e-02, 5.61408289e-02,
          7.86475614e-02, 1.44833773e-01 ]
      - [ 5.37049592e-01, 8.81424025e-02, 1.15824789e-01, 8.87111425e-02,
          8.81424025e-02, 1.65358394e-01 ]
      - [ 5.37049592e-01, 9.59993750e-02, 1.43413052e-01, 1.13241017e-01,
          9.59993750e-02, 1.78082407e-01 ]
      - [ 5.37049592e-01, 1.08992659e-01, 1.33631542e-01, 1.05179943e-01,
          1.08992659e-01, 1.81880876e-01 ]
      - [ 5.37049592e-01, 1.19397223e-01, 1.24628238e-01, 9.76105034e-02,
          1.19397223e-01, 1.83595806e-01 ]
      - [ 5.37049592e-01, 1.27622664e-01, 1.16273105e-01, 9.04622525e-02,
          1.27622664e-01, 1.83786154e-01 ]
      - [ 5.37049592e-01, 1.32049546e-01, 1.38112098e-01, 1.10375576e-01,
          1.32049546e-01, 1.89670384e-01 ]
      - [ 5.37049592e-01, 1.38055414e-01, 1.29319862e-01, 1.02936111e-01,
          1.38055414e-01, 1.87981784e-01 ]
      - [ 5.37049592e-01, 1.42560139e-01, 1.21156104e-01, 9.59108025e-02,
          1.42560139e-01, 1.85610756e-01 ]
      - [ 5.37049592e-01, 1.45813167e-01, 1.13524377e-01, 8.92444104e-02,
          1.45813167e-01, 1.82762042e-01 ]
      - [ 5.37049592e-01, 1.48026317e-01, 1.31674513e-01, 1.06108084e-01,
          1.48026317e-01, 1.85793579e-01 ]
      - [ 5.37049592e-01, 1.40486032e-01, 1.10080197e-01, 1.10080197e-01,
          1.40486032e-01, 1.10080197e-01 ]
      - [ 9.35409069e-01, 1.12336136e-01, 3.74332257e-02, 8.10061097e-02,
          1.56488180e-01, 1.67282403e-01 ]
      - [ 9.35409069e-01, 7.75712207e-02, 3.04026343e-02, 8.65136385e-02,
          1.01479977e-01, 1.05989613e-01 ]
      - [ 9.35409069e-01, 7.40569457e-02, 3.69823352e-02, 9.20711756e-02,
          9.42593440e-02, 9.97826234e-02 ]
      - [ 9.35409069e-01, 7.04525337e-02, 4.29718234e-02, 8.49858671e-02,
          7.90464506e-02, 8.53105336e-02 ]
      - [ 9.35409069e-01, 8.11006427e-02, 4.95043285e-02, 8.32607299e-02,
          7.99563453e-02, 8.53776559e-02 ]
      - [ 9.35409069e-01, 8.74789283e-02, 1.04514360e-01, 1.07156835e-01,
          9.17102844e-02, 9.42161009e-02 ]
      - [ 9.35409069e-01, 9.61288139e-02, 1.06513403e-01, 1.05897427e-01,
          9.78277028e-02, 9.46517214e-02 ]
      - [ 5.37049592e-01, 1.15810625e-01, 1.29126251e-01, 1.46824673e-01,
          1.43790185e-01, 1.48987100e-01 ]
      - [ 9.35409069e-01, 1.18271708e-01, 1.22859739e-01, 1.36441723e-01,
          1.34495273e-01, 1.37528539e-01 ]
      - [ 9.35409069e-01, 1.31189629e-01, 1.36085242e-01, 1.45722121e-01,
          1.36548564e-01, 1.40231043e-01 ]
      - [ 9.35409069e-01, 6.75045103e-02, 6.80824742e-02, 7.79665932e-02,
          7.59968162e-02, 8.15433189e-02 ]
      - [ 9.35409069e-01, 3.89357321e-02, 5.05405180e-02, 6.00804985e-02,
          4.39488366e-02, 5.69191910e-02 ]
      - [ 9.35409069e-01, 3.20366323e-02, 8.51273686e-02, 1.13445148e-01,
          7.96280578e-02, 8.47461969e-02 ]
      - [ 9.35409069e-01, 4.17408207e-03, 5.18450774e-02, 6.04948401e-02,
          1.89430490e-02, 2.69605070e-02 ]
      - [ 9.35409069e-01, 5.70088848e-02, 9.52255651e-02, 1.01834141e-01,
          6.89813644e-02, 8.29000473e-02 ]
      - [ 9.35409069e-01, 7.81037956e-02, 1.16276719e-01, 1.28411651e-01,
          1.06120698e-01, 1.13052852e-01 ]
      - [ 9.35409069e-01, 8.14430118e-02, 1.21092156e-01, 1.26836479e-01,
          1.01445474e-01, 1.08193360e-01 ]
      - [ 9.35409069e-01, 9.98748094e-02, 1.27472609e-01, 1.26916826e-01,
          1.10692367e-01, 1.11749433e-01 ]
      - [ 9.35409069e-01, 8.29647183e-02, 9.29156914e-02, 1.11781433e-01,
          9.20354277e-02, 9.45372060e-02 ]
      - [ 5.37049592e-01, 8.18239674e-02, 9.98296067e-02, 1.12929270e-01,
          9.53515992e-02, 9.14189667e-02 ]
      - [ 9.35409069e-01, 1.01782091e-01, 1.07466348e-01, 1.10399447e-01,
          9.76543352e-02, 9.19881538e-02 ]
      - [ 9.35409069e-01, 6.81081116e-02, 7.07185641e-02, 7.27080405e-02,
          6.36033043e-02, 6.54776990e-02 ]
      - [ 5.37049592e-01, 1.27436861e-01, 1.44548833e-01, 1.16410039e-01,
          9.82965380e-02, 9.79901925e-02 ]
      - [ 5.37049592e-01, 1.31512329e-01, 1.64458066e-01, 1.64458066e-01,
          1.31512329e-01, 1.31512329e-01 ]
      - [ 9.35409069e-01, 1.35410964e-01, 1.43218264e-01, 1.56264514e-01,
          1.36514217e-01, 1.51387259e-01 ]
      - [ 9.35409069e-01, 1.22044981e-01, 1.29138708e-01, 1.47441685e-01,
          1.33368894e-01, 1.43841952e-01 ]
      - [ 9.35409069e-01, 1.40610784e-01, 1.40610784e-01, 1.40610784e-01,
          1.40610784e-01, 1.40610784e-01 ]
      - [ 9.35409069e-01, 1.68192253e-01, 1.68192253e-01, 1.68192253e-01,
          1.68192253e-01, 1.68192253e-01 ]
      - [ 5.37049592e-01, 3.70269790e-02, -1.59039709e-03,
          1.46784382e-02, 5.18886261e-02, 5.40180318e-02 ]
      - [ 5.37049592e-01, 8.61823484e-02, 8.40576440e-02, 7.19892308e-02,
          1.38125047e-01, 1.09441176e-01 ]
      - [ 9.35409069e-01, 1.10917114e-01, 1.27896860e-01, 1.04545623e-01,
          1.52588248e-01, 1.17712118e-01 ]
      - [ 9.35409069e-01, 5.39711416e-02, 5.86827919e-02, 6.25395328e-02,
          7.06155598e-02, 7.08663613e-02 ]
      - [ 9.35409069e-01, 1.35795578e-01, 1.93600699e-01, 1.93600699e-01,
          1.35795578e-01, 1.59688964e-01 ]
      - [ 9.35409069e-01, 1.58299118e-01, 2.00361237e-01, 2.00361237e-01,
          1.58299118e-01, 1.65196866e-01 ]
      - [ 5.37049592e-01, 1.13631405e-01, 1.00872532e-01, 1.18738681e-01,
          1.37149751e-01, 1.36607558e-01 ]
      - [ 9.35409069e-01, 5.60429730e-02, 2.00158507e-02, 3.54671441e-02,
          6.19057827e-02, 6.24132864e-02 ]
      - [ 5.37049592e-01, 6.29033521e-02, 3.62808742e-02, 5.01265265e-02,
          6.54890090e-02, 6.79990351e-02 ]
      - [ 5.37049592e-01, 1.50907755e-01, 9.65224281e-02, 9.65224281e-02,
          1.50907755e-01, 2.15713859e-01 ]
      - [ 5.37049592e-01, 1.50096044e-01, 1.04759999e-01, 1.04759999e-01,
          1.50096044e-01, 2.05502465e-01 ]
      - [ 5.37049592e-01, 1.78811967e-01, 9.46799144e-02, 9.46799144e-02,
          1.78811967e-01, 2.20845714e-01 ]
      - [ 5.37049592e-01, 1.24590762e-01, 6.40610280e-03, 6.40610280e-03,
          1.97476625e-01, 1.97476625e-01 ]
      - [ 5.37049592e-01, 1.26366347e-01, 1.16421580e-01, 1.16421580e-01,
          1.77254021e-01, 2.26015314e-01 ]
      - [ 5.37049592e-01, 1.24113239e-01, 1.91519231e-01, 1.91519231e-01,
          1.60539538e-01, 2.34086946e-01 ]
      - [ 5.37049592e-01, 0., 0., 0., 0., 0. ]
      - [ 9.35409069e-01, 3.34463976e-02, 8.93589929e-02, 1.05682813e-01,
          1.14318598e-02, 4.81572896e-02 ]
      - [ 9.35409069e-01, 9.58173797e-02, 5.89970499e-02, 8.46937448e-02,
          1.11858144e-01, 1.17339700e-01 ]
      - [ 9.35409069e-01, 7.13886991e-02, 3.03670205e-02, 5.53032681e-02,
          8.19798931e-02, 8.41968134e-02 ]
      - [ 5.37049592e-01, 8.03232342e-02, 1.02098405e-01, 1.23573929e-01,
          8.22702050e-02, 9.37188491e-02 ]
      - [ 9.35409069e-01, 5.80740310e-02, 8.63934681e-02, 9.97805595e-02,
          7.41877407e-02, 8.08243528e-02 ]
      - [ 5.37049592e-01, 4.23249714e-02, 6.61127716e-02, 7.30049238e-02,
          5.70822284e-02, 5.87976836e-02 ]
      - [ 5.37049592e-01, 0., 0., 0., 0., 0. ]
      - [ 9.35409069e-01, 1.01049811e-01, 8.57346058e-02, 9.14754197e-02,
          1.15690544e-01, 1.06690034e-01 ]
      - [ 5.37049592e-01, 6.04186691e-02, 8.09973627e-02, 8.00606683e-02,
          6.51158318e-02, 6.61914349e-02 ]
      - [ 9.35409069e-01, 7.62504414e-02, 9.43046808e-02, 9.71476957e-02,
          8.73864591e-02, 8.69985074e-02 ]
      - [ 5.37049592e-01, 8.14704970e-02, 6.08479753e-02, 5.77117391e-02,
          8.84385705e-02, 7.46191144e-02 ]
      - [ 9.35409069e-01, 9.96872559e-02, 9.72562730e-02, 1.11827537e-01,
          1.14187106e-01, 1.15575835e-01 ]
      - [ 9.35409069e-01, 5.62302209e-02, 9.32862833e-02, 1.10795885e-01,
          8.62595215e-02, 9.60958600e-02 ]
      - [ 9.35409069e-01, 8.78449753e-02, 9.71116200e-02, 1.15342699e-01,
          1.04613684e-01, 1.00822523e-01 ]
      - [ 9.35409069e-01, 9.83165130e-02, 1.20795317e-01, 1.25596225e-01,
          1.11264788e-01, 1.07564963e-01 ]
      - [ 9.35409069e-01, 8.94686654e-02, 1.05716720e-01, 1.11266069e-01,
          1.04591414e-01, 9.92342681e-02 ]
      - [ 9.35409069e-01, 1.06218114e-01, 1.07180238e-01, 1.14143126e-01,
          1.11967444e-01, 1.08601481e-01 ]
      - [ 9.35409069e-01, 1.11439914e-01, 1.09623060e-01, 1.15784258e-01,
          1.05116390e-01, 1.08356506e-01 ]
      - [ 9.35409069e-01, 1.16608344e-01, 1.06144048e-01, 1.13688454e-01,
          1.02932408e-01, 1.09555870e-01 ]
      - [ 9.35409069e-01, 1.29327297e-01, 1.09906852e-01, 1.16301067e-01,
          1.03727378e-01, 1.14011794e-01 ]
      - [ 9.35409069e-01, 1.41151831e-01, 1.12857848e-01, 1.18155733e-01,
          1.03962764e-01, 1.18213139e-01 ]
      - [ 9.35409069e-01, 9.79913399e-02, 9.21448544e-02, 9.71918032e-02,
          8.52718055e-02, 9.50067639e-02 ]
      - [ 9.35409069e-01, 1.08751111e-01, 1.03342570e-01, 1.07832789e-01,
          9.74252000e-02, 1.02083288e-01 ]
      - [ 9.35409069e-01, 8.19873586e-02, 8.41815546e-02, 8.86049941e-02,
          8.53251889e-02, 8.57197493e-02 ]
      - [ 5.37049592e-01, 6.88880906e-02, 8.04364309e-02, 8.44138041e-02,
          7.86896273e-02, 7.15852901e-02 ]
      - [ 5.37049592e-01, 7.55975321e-02, 6.93017915e-02, 8.02699625e-02,
          1.06927611e-01, 1.13050215e-01 ]
      - [ 9.35409069e-01, 2.92527601e-02, -9.31002479e-03,
          1.78657025e-02, 6.06301315e-02, 6.09694533e-02 ]
      - [ 9.35409069e-01, 3.45087834e-02, -9.52398963e-03,
          1.31711271e-02, 5.75347319e-02, 5.48262112e-02 ]
      - [ 9.35409069e-01, 2.27412786e-02, 4.51729484e-02, 5.14011383e-02,
          2.78732609e-02, 2.94840019e-02 ]
      - [ 9.35409069e-01, 4.17244509e-02, 6.69519454e-02, 6.61949143e-02,
          4.09090817e-02, 3.81843112e-02 ]
      - [ 5.37049592e-01, 6.64517581e-02, 7.89961889e-02, 1.12893328e-01,
          1.04542859e-01, 1.04982458e-01 ]
      - [ 9.35409069e-01, 2.00129785e-02, -1.90179944e-02,
          -2.07141531e-03, 4.26089168e-02, 3.03642787e-02 ]
      - [ 9.35409069e-01, 5.35644740e-02, 1.70821808e-02, 2.61867531e-02,
          5.84531091e-02, 4.75326367e-02 ]
      - [ 9.35409069e-01, 6.43060803e-02, 3.37525681e-02, 4.40984592e-02,
          6.47448674e-02, 5.53203635e-02 ]
      - [ 9.35409069e-01, 1.22371577e-01, 1.34424388e-01, 1.21816643e-01,
          1.16561189e-01, 1.14305913e-01 ]
      - [ 9.35409069e-01, 7.93260559e-02, 2.97891218e-02, 3.58728729e-02,
          9.05851275e-02, 7.38514364e-02 ]
      - [ 9.35409069e-01, 1.03356451e-01, 6.04617298e-02, 5.75783625e-02,
          1.01320483e-01, 7.99772888e-02 ]
      - [ 9.35409069e-01, 8.11359137e-02, 6.92761913e-02, 7.50858709e-02,
          8.34503770e-02, 8.23074654e-02 ]
      - [ 9.35409069e-01, 9.86239314e-02, 8.75587687e-02, 8.85050595e-02,
          9.40225199e-02, 8.89956281e-02 ]
      - [ 9.35409069e-01, 1.11687914e-01, 1.05494544e-01, 1.01537392e-01,
          1.02184244e-01, 9.41930935e-02 ]
      - [ 9.35409069e-01, 1.03624508e-01, 9.96361077e-02, 9.81015414e-02,
          1.07020028e-01, 9.55469683e-02 ]
      - [ 9.35409069e-01, 1.00385942e-01, 1.04317971e-01, 1.02616131e-01,
          1.08352646e-01, 9.57609415e-02 ]
      - [ 9.35409069e-01, 1.05123818e-01, 1.15766905e-01, 1.11827940e-01,
          1.10758521e-01, 9.73445252e-02 ]
      - [ 9.35409069e-01, 1.00684166e-01, 1.10093556e-01, 1.07604757e-01,
          9.98112410e-02, 9.46091563e-02 ]
      - [ 9.35409069e-01, 9.01808366e-02, 1.36397332e-01, 1.13038093e-01,
          6.71041906e-02, 7.69307911e-02 ]
      - [ 5.37049592e-01, 9.39229205e-02, 1.26650184e-01, 1.31143972e-01,
          1.18055284e-01, 1.10724322e-01 ]
      - [ 9.35409069e-01, 1.30722672e-01, 1.31237775e-01, 1.23252712e-01,
          1.17694564e-01, 1.17872596e-01 ]
      - [ 9.35409069e-01, 8.09049755e-02, 8.80705100e-03, 1.75348930e-02,
          9.94722769e-02, 7.23703727e-02 ]
      - [ 9.35409069e-01, 2.32401676e-02, 1.58348791e-02, 3.26165855e-02,
          4.41546924e-02, 4.49792631e-02 ]
      - [ 9.35409069e-01, 3.28140371e-02, 2.79785823e-02, 4.41297963e-02,
          4.36498299e-02, 4.98854034e-02 ]
      - [ 9.35409069e-01, 4.15098481e-02, 3.80152129e-02, 5.16065173e-02,
          5.31694517e-02, 5.96843027e-02 ]
      - [ 9.35409069e-01, 9.73635763e-02, 1.08604416e-01, 1.32548138e-01,
          1.40518948e-01, 1.42458126e-01 ]
      - [ 9.35409069e-01, 8.48843753e-02, 6.15132079e-02, 9.54925790e-02,
          1.09808251e-01, 1.10856593e-01 ]
      - [ 9.35409069e-01, 9.07223150e-02, 7.33007640e-02, 1.03380620e-01,
          1.12083025e-01, 1.10593744e-01 ]
      - [ 5.37049592e-01, 7.18146861e-02, 7.51861259e-02, 8.83566886e-02,
          7.78838843e-02, 8.02059844e-02 ]
      - [ 9.35409069e-01, 7.48454332e-02, 6.86093867e-02, 8.11288729e-02,
          8.03182125e-02, 7.90090412e-02 ]
      - [ 9.35409069e-01, 6.19323701e-02, 5.57400361e-02, 7.20528737e-02,
          7.30965808e-02, 7.24554807e-02 ]
      - [ 9.35409069e-01, 9.67563689e-02, 1.15812019e-01, 1.15812019e-01,
          9.67563689e-02, 9.39727351e-02 ]
      - [ 9.35409069e-01, 9.18825641e-02, 9.54061896e-02, 1.29422531e-01,
          1.32292509e-01, 1.39384195e-01 ]
      - [ 9.35409069e-01, 5.79784997e-02, 7.25493357e-02, 8.75591412e-02,
          7.44817853e-02, 8.09586272e-02 ]
      - [ 9.35409069e-01, 6.85078353e-02, 8.75060111e-02, 9.82820466e-02,
          8.09980556e-02, 8.42759907e-02 ]
      - [ 9.35409069e-01, 6.50991872e-02, 8.37999582e-02, 9.10536796e-02,
          7.05599785e-02, 7.28518963e-02 ]
      - [ 9.35409069e-01, 6.94903806e-02, 9.25570428e-02, 9.60859358e-02,
          7.40545914e-02, 7.39014670e-02 ]
      - [ 5.37049592e-01, 0., 1.10080197e-01, 1.10080197e-01, 0.,
          1.10080197e-01 ]
      - [ 9.35409069e-01, 1.49011552e-01, 1.13574825e-01, 1.13574825e-01,
          1.49011552e-01, 1.13574825e-01 ]
      - [ 9.35409069e-01, 1.37175158e-01, 9.66197103e-02, 9.66197103e-02,
          1.37175158e-01, 9.66197103e-02 ]
      - [ 9.35409069e-01, 8.20389912e-02, -8.44872207e-04,
          5.60433120e-02, 1.17761604e-01, 1.19413361e-01 ]
      - [ 9.35409069e-01, 7.39022121e-02, -7.53884949e-03,
          3.37007381e-02, 8.61993730e-02, 8.92464221e-02 ]
      - [ 9.35409069e-01, 5.58710247e-02, -3.31862085e-02,
          -1.22855920e-02, 6.06707335e-02, 5.56433871e-02 ]
      - [ 9.35409069e-01, 5.88916838e-02, -7.27802422e-03,
          1.66352652e-02, 6.63823709e-02, 6.35150447e-02 ]
      - [ 9.35409069e-01, 6.66013882e-02, 1.12309605e-01, 1.12309605e-01,
          6.66013882e-02, 5.84301054e-02 ]
      - [ 5.37049592e-01, 1.35612696e-01, 1.30177468e-01, 1.51881456e-01,
          1.42365128e-01, 1.51007593e-01 ]
      - [ 9.35409069e-01, 1.25056103e-01, 1.29988775e-01, 1.40817687e-01,
          1.31487161e-01, 1.34877637e-01 ]
      - [ 9.35409069e-01, 5.88470809e-02, 6.69030920e-02, 7.64037967e-02,
          6.60920218e-02, 7.36982301e-02 ]
      - [ 9.35409069e-01, 4.63835672e-02, 4.31357548e-02, 5.16149588e-02,
          5.32768667e-02, 5.64773679e-02 ]
      - [ 9.35409069e-01, 5.11000045e-02, 5.07316254e-02, 5.65349869e-02,
          5.58146611e-02, 5.73380105e-02 ]
      - [ 5.37049592e-01, 7.60829672e-02, 6.91261142e-02, 7.75041878e-02,
          9.91205126e-02, 8.97460133e-02 ]
      - [ 9.35409069e-01, 7.78660774e-02, 8.59164819e-02, 9.58318636e-02,
          8.75336379e-02, 8.38356242e-02 ]
      - [ 9.35409069e-01, 8.16787630e-02, 7.47580826e-02, 7.49263465e-02,
          7.86175057e-02, 7.07105398e-02 ]
      - [ 5.37049592e-01, 6.67921752e-02, 5.19646928e-02, 9.07178894e-02,
          8.09756741e-02, 8.49389359e-02 ]
      - [ 9.35409069e-01, 1.21557623e-01, 1.36809960e-01, 1.33705035e-01,
          1.22168787e-01, 1.23954713e-01 ]
      - [ 9.35409069e-01, 8.42532143e-02, 8.34321156e-02, 9.30907279e-02,
          8.88475105e-02, 9.14704576e-02 ]
      - [ 5.37049592e-01, 6.15895800e-02, 1.14187978e-01, 1.45865425e-01,
          1.11657195e-01, 1.20582469e-01 ]
      - [ 9.35409069e-01, 3.49634476e-02, 5.36932424e-02, 4.93089855e-02,
          3.11579611e-02, 3.39636542e-02 ]
      - [ 5.37049592e-01, 9.32962820e-02, 7.55053535e-02, 5.13395704e-02,
          5.66020943e-02, 5.61984703e-02 ]
      - [ 9.35409069e-01, 1.07375167e-01, 7.42725581e-02, 7.92319030e-02,
          1.61374360e-01, 1.29702806e-01 ]
      - [ 5.37049592e-01, 5.33339195e-02, 3.50006595e-02, 4.47527915e-02,
          6.28959760e-02, 5.69545627e-02 ]
      - [ 9.35409069e-01, 1.17729761e-01, 7.85720944e-02, 7.71635324e-02,
          1.25787646e-01, 1.10313624e-01 ]
      - [ 9.35409069e-01, 1.14103265e-01, 9.57654789e-02, 9.78984535e-02,
          1.20571680e-01, 1.13021731e-01 ]
      - [ 5.37049592e-01, 6.83557987e-02, 4.28952202e-02, 5.35409562e-02,
          8.63148198e-02, 7.82235935e-02 ]
      - [ 5.37049592e-01, 8.89410824e-02, 6.38360605e-02, 6.97465464e-02,
          9.72242430e-02, 8.34246054e-02 ]
      - [ 9.35409069e-01, 9.37379897e-02, 8.54394138e-02, 8.46087337e-02,
          7.75663182e-02, 7.84799233e-02 ]
      - [ 9.35409069e-01, 5.11294864e-02, 6.44439310e-02, 7.09972605e-02,
          7.20427409e-02, 7.64555261e-02 ]
      - [ 9.35409069e-01, 5.01945317e-02, 7.28688911e-02, 7.72077516e-02,
          7.68838972e-02, 7.84489214e-02 ]
      - [ 9.35409069e-01, 4.91935499e-02, 7.95971453e-02, 8.20501298e-02,
          8.04416910e-02, 7.96248093e-02 ]
      - [ 9.35409069e-01, 4.81314287e-02, 8.51963088e-02, 8.59892815e-02,
          8.31637681e-02, 8.02792609e-02 ]
      - [ 9.35409069e-01, 4.70126420e-02, 8.99434388e-02, 8.92525464e-02,
          8.52688104e-02, 8.05563703e-02 ]
      - [ 9.35409069e-01, 4.58413064e-02, 9.40066054e-02, 9.19778198e-02,
          8.68891254e-02, 8.05427134e-02 ]
      - [ 5.37049592e-01, 1.73344955e-01, 1.77707747e-01, 1.77707747e-01,
          1.73344955e-01, 1.95443556e-01 ]
      - [ 9.35409069e-01, 8.47112015e-02, 1.60007462e-01, 1.76387817e-01,
          1.05031177e-01, 1.35105908e-01 ]
      - [ 9.35409069e-01, 8.31478536e-02, 1.22942604e-01, 1.30562797e-01,
          8.09319094e-02, 9.97458398e-02 ]
      - [ 9.35409069e-01, 4.80367579e-02, 3.77515033e-02, 4.98737656e-02,
          6.39576837e-02, 6.63336664e-02 ]
      - [ 9.35409069e-01, 4.14910316e-02, 3.56406122e-02, 4.47874740e-02,
          4.86588292e-02, 5.49226552e-02 ]
      - [ 9.35409069e-01, 9.34559926e-02, 1.52706757e-01, 1.67784512e-01,
          1.25231683e-01, 1.49903536e-01 ]
      - [ 9.35409069e-01, 1.06161766e-01, 1.56298950e-01, 1.65269211e-01,
          1.30935684e-01, 1.43427461e-01 ]
      - [ 9.35409069e-01, 1.10137343e-01, 1.52471602e-01, 1.57645330e-01,
          1.29421324e-01, 1.34336337e-01 ]
      - [ 9.35409069e-01, 1.01836838e-01, 1.38621241e-01, 1.47937983e-01,
          1.14409335e-01, 1.22488379e-01 ]
      - [ 9.35409069e-01, 1.00380860e-01, 1.32637620e-01, 1.39086872e-01,
          1.10294439e-01, 1.13821633e-01 ]
      - [ 9.35409069e-01, 9.73300487e-02, 1.26083538e-01, 1.30479917e-01,
          1.05184533e-01, 1.05406165e-01 ]
      - [ 5.37049592e-01, 6.01945743e-02, 1.15613611e-02, 2.27606203e-02,
          7.23813176e-02, 6.47710934e-02 ]
      - [ 5.37049592e-01, 1.18923299e-01, 1.31760180e-01, 1.50246009e-01,
          1.16857208e-01, 1.24801099e-01 ]
      - [ 9.35409069e-01, 6.49250299e-02, 6.63065314e-02, 7.93503523e-02,
          7.98091218e-02, 7.77351335e-02 ]
      - [ 5.37049592e-01, 5.38570136e-02, 3.06492411e-02, 6.03559092e-02,
          9.29044783e-02, 7.36842677e-02 ]
      - [ 9.35409069e-01, 5.75854816e-02, 6.51330650e-02, 6.98066950e-02,
          5.96251339e-02, 6.11307435e-02 ]
      - [ 9.35409069e-01, 6.61212057e-02, 1.47413105e-01, 1.72895417e-01,
          1.35716349e-01, 1.63834184e-01 ]
      - [ 5.37049592e-01, 1.19543836e-01, 8.76972675e-02, 9.60759446e-02,
          1.12592034e-01, 1.08106934e-01 ]
      - [ 9.35409069e-01, 1.63637429e-01, 1.16798341e-01, 1.12132251e-01,
          1.45321250e-01, 1.30738422e-01 ]
      - [ 5.37049592e-01, 8.21023881e-02, 1.19561836e-01, 1.27601221e-01,
          9.69850421e-02, 1.00110538e-01 ]
      - [ 9.35409069e-01, 4.74800915e-02, 1.61831398e-02, 1.92746129e-02,
          4.95696291e-02, 3.80201489e-02 ]
      - [ 5.37049592e-01, 5.55802956e-02, 3.34122218e-02, 3.32838707e-02,
          5.50362840e-02, 4.22854498e-02 ]
      - [ 5.37049592e-01, 1.60202160e-01, 1.21779181e-01, 1.21779181e-01,
          1.60202160e-01, 2.18146384e-01 ]
      - [ 9.35409069e-01, 1.01657391e-01, 1.21312417e-01, 1.20270438e-01,
          1.04787357e-01, 1.05670080e-01 ]
      - [ 9.35409069e-01, 9.09706503e-02, 1.06312618e-01, 1.06897511e-01,
          9.61747989e-02, 9.49259028e-02 ]
      - [ 5.37049592e-01, 7.70538375e-02, 9.42451805e-02, 1.08387440e-01,
          1.02986991e-01, 1.03631638e-01 ]
      - [ 9.35409069e-01, 9.25208628e-02, 9.72483903e-02, 1.00094475e-01,
          1.00484796e-01, 9.44697112e-02 ]
      - [ 9.35409069e-01, 1.35268480e-01, 1.42238349e-01, 1.42238349e-01,
          1.35268480e-01, 1.34644896e-01 ]
      - [ 5.37049592e-01, 4.51009683e-02, 6.45702109e-02, 7.34824911e-02,
          5.29097989e-02, 6.46461099e-02 ]
      - [ 9.35409069e-01, 5.51008806e-02, 7.82072693e-02, 8.04462209e-02,
          5.59799299e-02, 6.40669912e-02 ]
      - [ 9.35409069e-01, 1.38142511e-01, 1.38142511e-01, 1.38142511e-01,
          1.38142511e-01, 1.38142511e-01 ]
      - [ 9.35409069e-01, 1.23649977e-01, 1.35922611e-01, 1.67787775e-01,
          1.69352293e-01, 1.75436512e-01 ]
      - [ 9.35409069e-01, 7.97227100e-02, 8.60240906e-02, 9.14029256e-02,
          8.70084390e-02, 8.87703001e-02 ]
      - [ 5.37049592e-01, 6.13043793e-02, 7.86588341e-02, 8.23685080e-02,
          6.51646107e-02, 7.10527673e-02 ]
      - [ 5.37049592e-01, 5.14325649e-02, 6.83938116e-02, 6.14445023e-02,
          4.20026518e-02, 4.51652035e-02 ]
      - [ 9.35409069e-01, 6.16744980e-02, 1.08668342e-01, 1.37635857e-01,
          1.24819249e-01, 1.36633426e-01 ]
      - [ 9.35409069e-01, 4.92260754e-02, 6.20102994e-02, 6.42253831e-02,
          5.78035451e-02, 6.22212216e-02 ]
      - [ 9.35409069e-01, 8.69164392e-02, 5.46819344e-02, 6.69560954e-02,
          9.98245627e-02, 8.79507661e-02 ]
      - [ 5.37049592e-01, 1.20261416e-01, 1.01732597e-01, 8.52340162e-02,
          9.82247144e-02, 8.93535912e-02 ]
      - [ 9.35409069e-01, 7.59914145e-02, 7.46279806e-02, 7.46566728e-02,
          8.89572725e-02, 8.06065723e-02 ]
      - [ 9.35409069e-01, 1.34548694e-01, 1.21758960e-01, 1.21758960e-01,
          1.34548694e-01, 1.21758960e-01 ]
      - [ 9.35409069e-01, 1.34305567e-01, 9.17579830e-02, 1.07150443e-01,
          1.34305567e-01, 1.19703703e-01 ]
      - [ 9.35409069e-01, 1.21007554e-01, 6.25668168e-02, 6.23616353e-02,
          1.21007554e-01, 9.86516178e-02 ]
      - [ 9.35409069e-01, 1.17271371e-01, 7.46585578e-02, 8.09856579e-02,
          1.47066504e-01, 1.21968426e-01 ]
      - [ 9.35409069e-01, 1.21502332e-01, 8.27165321e-02, 9.35353488e-02,
          1.46515056e-01, 1.34342402e-01 ]
      - [ 9.35409069e-01, 3.14384587e-02, 4.43628058e-03, 3.41234058e-02,
          4.59676459e-02, 5.80812283e-02 ]
      - [ 5.37049592e-01, 3.29962261e-02, 5.22387866e-03, 2.74237432e-02,
          4.31846306e-02, 4.99137864e-02 ]
      - [ 9.35409069e-01, 1.15142092e-01, 1.05151005e-01, 1.14889957e-01,
          9.29773152e-02, 9.56985429e-02 ]
      - [ 9.35409069e-01, 3.36396396e-02, 1.87530145e-02, 2.81902980e-02,
          5.27960360e-02, 4.78569381e-02 ]
      - [ 9.35409069e-01, 1.15539096e-01, 1.48686290e-01, 1.66774437e-01,
          1.15539096e-01, 1.39975011e-01 ]
      - [ 5.37049592e-01, 5.21795303e-02, 5.30932471e-02, 6.22509010e-02,
          6.91853836e-02, 6.97006881e-02 ]
      - [ 9.35409069e-01, 5.42520210e-02, 5.64685278e-02, 5.76058291e-02,
          5.94300330e-02, 5.78637160e-02 ]
      - [ 9.35409069e-01, 4.93390523e-02, 5.02988771e-02, 5.59398532e-02,
          5.40907234e-02, 5.32814898e-02 ]
      - [ 9.35409069e-01, 7.12212175e-02, 5.30125089e-02, 5.84550500e-02,
          7.67691955e-02, 6.74399808e-02 ]
      - [ 9.35409069e-01, 4.20182720e-02, 9.48613435e-02, 1.19376600e-01,
          1.00583896e-01, 1.03030972e-01 ]
      - [ 9.35409069e-01, 7.27537572e-02, 1.28797665e-01, 1.44709110e-01,
          1.24627657e-01, 1.13503478e-01 ]
      - [ 9.35409069e-01, 1.02636687e-01, 1.29544869e-01, 1.48480967e-01,
          1.46005645e-01, 1.30968392e-01 ]
      - [ 9.35409069e-01, 1.18477121e-01, 1.31981820e-01, 1.43633813e-01,
          1.72985405e-01, 1.42598540e-01 ]
      - [ 5.37049592e-01, 1.27892002e-01, 1.35082364e-01, 1.40455514e-01,
          1.56324714e-01, 1.33937225e-01 ]
      - [ 5.37049592e-01, 3.11338045e-02, 1.41446158e-01, 1.41446158e-01,
          3.11338045e-02, 1.41446158e-01 ]
      - [ 5.37049592e-01, 4.03255820e-02, 4.21305606e-03,
          -1.89250242e-03, 2.78373677e-02, -2.03176076e-03 ]
      - [ 5.37049592e-01, 1.59340277e-01, 6.19733185e-02, 1.09868288e-01,
          2.62883246e-01, 2.77988285e-01 ]
      - [ 5.37049592e-01, 2.21622586e-01, 5.73651157e-02, 1.04006991e-01,
          3.04429352e-01, 3.01555723e-01 ]
      - [ 5.37049592e-01, 2.56385893e-01, 5.28157726e-02, 9.83213633e-02,
          3.21010709e-01, 3.08628082e-01 ]
      - [ 5.37049592e-01, 2.48979464e-01, 9.10089761e-02, 1.33580714e-01,
          3.04034561e-01, 3.13121200e-01 ]
      - [ 5.37049592e-01, 2.76658505e-01, 8.57988968e-02, 1.27014875e-01,
          3.28907490e-01, 3.24266881e-01 ]
      - [ 5.37049592e-01, 2.92945474e-01, 8.07018504e-02, 1.20709665e-01,
          3.35164219e-01, 3.23454857e-01 ]
      - [ 5.37049592e-01, 2.80629724e-01, 1.32174864e-01, 1.67643949e-01,
          3.15702826e-01, 3.29218924e-01 ]
      - [ 5.37049592e-01, 2.90617138e-01, 1.25768691e-01, 1.59713015e-01,
          3.17827612e-01, 3.22751045e-01 ]
      - [ 5.37049592e-01, 2.95830339e-01, 1.19604826e-01, 1.52220592e-01,
          3.16246867e-01, 3.15062255e-01 ]
      - [ 5.37049592e-01, 2.82943338e-01, 1.52882218e-01, 1.81370661e-01,
          2.99744278e-01, 3.12055290e-01 ]
      - [ 5.37049592e-01, 2.86099017e-01, 1.45802528e-01, 1.72950208e-01,
          2.98029333e-01, 3.03973913e-01 ]
      - [ 5.37049592e-01, 2.94009387e-01, 1.39051631e-01, 1.65043324e-01,
          2.99408764e-01, 2.99206942e-01 ]
      - [ 5.37049592e-01, 3.03363264e-01, 1.32590517e-01, 1.57581866e-01,
          3.02689791e-01, 2.96749353e-01 ]
      - [ 5.37049592e-01, 2.89438009e-01, 1.58423901e-01, 1.79756001e-01,
          2.88207352e-01, 2.92133212e-01 ]
      - [ 5.37049592e-01, 2.94139624e-01, 1.51324004e-01, 1.71739310e-01,
          2.88973510e-01, 2.87764579e-01 ]
      - [ 5.37049592e-01, 2.91627884e-01, 1.44562870e-01, 1.64190695e-01,
          2.85260677e-01, 2.80852914e-01 ]
      - [ 5.37049592e-01, 2.79189706e-01, 1.68653667e-01, 1.84753120e-01,
          2.73023605e-01, 2.77275801e-01 ]
      - [ 5.37049592e-01, 2.77035922e-01, 1.61290213e-01, 1.76718324e-01,
          2.69920230e-01, 2.70727336e-01 ]
      - [ 5.37049592e-01, 2.74149179e-01, 1.54305145e-01, 1.69161618e-01,
          2.66305089e-01, 2.64335692e-01 ]
      - [ 5.37049592e-01, 2.63734788e-01, 1.73815370e-01, 1.85636848e-01,
          2.56220847e-01, 2.60854065e-01 ]
      - [ 5.37049592e-01, 2.61302531e-01, 1.66423947e-01, 1.77804470e-01,
          2.53187239e-01, 2.54935861e-01 ]
      - [ 5.37049592e-01, 2.52181321e-01, 1.82464838e-01, 1.91194102e-01,
          2.44391218e-01, 2.51354426e-01 ]
      - [ 5.37049592e-01, 2.43851021e-01, 2.01800063e-01, 2.07563713e-01,
          2.36338437e-01, 2.49629810e-01 ]
      - [ 5.37049592e-01, 2.42407769e-01, 1.93232626e-01, 1.98800623e-01,
          2.41407529e-01, 2.49291256e-01 ]
      - [ 5.37049592e-01, 2.34926507e-01, 2.04920828e-01, 2.26554677e-01,
          2.33626336e-01, 2.52344817e-01 ]
      - [ 5.37049592e-01, 2.33607590e-01, 1.96379006e-01, 2.16737658e-01,
          2.36451268e-01, 2.49999151e-01 ]
      - [ 5.37049592e-01, 2.31929451e-01, 1.88393414e-01, 2.07668975e-01,
          2.37609118e-01, 2.46895075e-01 ]
      - [ 5.37049592e-01, 2.25337416e-01, 1.98440671e-01, 2.23887444e-01,
          2.30215549e-01, 2.45986596e-01 ]
      - [ 5.37049592e-01, 2.19185665e-01, 2.11815923e-01, 2.33044803e-01,
          2.23364204e-01, 2.43012309e-01 ]
      - [ 5.37049592e-01, 2.23529845e-01, 2.03254685e-01, 2.23218054e-01,
          2.32292980e-01, 2.45181993e-01 ]
      - [ 5.37049592e-01, 2.26327583e-01, 1.95262760e-01, 2.14150473e-01,
          2.35784203e-01, 2.43924722e-01 ]
      - [ 5.37049592e-01, 2.22111940e-01, 1.99832052e-01, 2.25854561e-01,
          2.30392173e-01, 2.42868334e-01 ]
      - [ 5.37049592e-01, 2.23167509e-01, 1.92263335e-01, 2.16881678e-01,
          2.30897024e-01, 2.39671543e-01 ]
      - [ 5.37049592e-01, 2.18026444e-01, 1.88060820e-01, 2.11815611e-01,
          2.23542511e-01, 2.31237188e-01 ]
      - [ 5.37049592e-01, 2.12446645e-01, 1.89922348e-01, 2.12686613e-01,
          2.16629639e-01, 2.25678861e-01 ]
      - [ 5.37049592e-01, 1.28681883e-01, 1.30620182e-01, 1.40810549e-01,
          1.30349860e-01, 1.31849959e-01 ]
      - [ 9.35409069e-01, 1.28626019e-01, 1.26128629e-01, 1.31337017e-01,
          1.32682681e-01, 1.28153905e-01 ]
      - [ 9.35409069e-01, 1.10423252e-01, 1.97386313e-02, 1.87824722e-02,
          1.29277989e-01, 1.07797191e-01 ]
      - [ 9.35409069e-01, 6.21697083e-02, 2.09455173e-02, 3.13790217e-02,
          7.64135271e-02, 7.07678422e-02 ]
      - [ 5.37049592e-01, 5.63643016e-02, 7.70434439e-02, 7.53795281e-02,
          5.83795682e-02, 6.20140918e-02 ]
      - [ 9.35409069e-01, 6.35795891e-02, 5.22731394e-02, 5.59166744e-02,
          6.81856051e-02, 6.64887428e-02 ]
      - [ 9.35409069e-01, 5.82355186e-02, 7.37951994e-02, 7.03469366e-02,
          5.25614284e-02, 5.49283922e-02 ]
      - [ 5.37049592e-01, 6.77564666e-02, 8.67343396e-02, 7.94763267e-02,
          6.31948858e-02, 6.02532141e-02 ]
      - [ 5.37049592e-01, 6.52198642e-02, 8.37733746e-02, 8.19207355e-02,
          6.67554066e-02, 6.86216503e-02 ]
      - [ 9.35409069e-01, 2.28067458e-01, 1.83794603e-01, 1.51347667e-01,
          1.67349681e-01, 1.76649272e-01 ]
      - [ 5.37049592e-01, 1.29596978e-01, 1.29596978e-01, 1.22013927e-01,
          7.79935792e-02, 8.26099515e-02 ]
      - [ 9.35409069e-01, 1.42549843e-01, 1.40246302e-01, 1.74681440e-01,
          1.36216000e-01, 1.42562583e-01 ]
      - [ 9.35409069e-01, 1.13405742e-01, 1.38060972e-01, 1.39960289e-01,
          1.18519999e-01, 1.25746429e-01 ]
      - [ 9.35409069e-01, 1.18267410e-01, 1.47184715e-01, 1.47248521e-01,
          1.12378851e-01, 1.22696236e-01 ]
      - [ 9.35409069e-01, 4.78735678e-02, 4.88728508e-02, 5.98049462e-02,
          6.62378296e-02, 6.35805875e-02 ]
      - [ 5.37049592e-01, 1.30981833e-01, 1.39089614e-01, 1.22572273e-01,
          1.16940431e-01, 1.13294408e-01 ]
      - [ 9.35409069e-01, 4.37234640e-02, 4.66142073e-02, 6.25719652e-02,
          6.50758296e-02, 6.42772019e-02 ]
      - [ 9.35409069e-01, 1.67214703e-02, 3.92328165e-02, 5.37814572e-02,
          3.64564918e-02, 4.27889116e-02 ]
      - [ 9.35409069e-01, 2.50538923e-02, 5.00854552e-02, 6.12924509e-02,
          4.04230841e-02, 4.51158509e-02 ]
      - [ 5.37049592e-01, 4.53176498e-02, 6.21874183e-02, 7.25648105e-02,
          6.66532815e-02, 6.76063672e-02 ]
      - [ 9.35409069e-01, 2.81196088e-02, 2.31095161e-02, 1.13162501e-02,
          1.27418172e-02, 5.28144371e-03 ]
      - [ 5.37049592e-01, 4.70135957e-02, 3.97439934e-02, 2.87265517e-02,
          3.02788578e-02, 2.47994289e-02 ]
      - [ 5.37049592e-01, 1.12478532e-01, 5.59416898e-02, 5.68341464e-02,
          1.07558958e-01, 9.32181925e-02 ]
      - [ 9.35409069e-01, 9.96679962e-02, 9.96679962e-02, 9.96679962e-02,
          9.96679962e-02, 9.96679962e-02 ]
      - [ 9.35409069e-01, 9.45744067e-02, 1.27583280e-01, 1.25424013e-01,
          6.78153783e-02, 1.01414934e-01 ]
      - [ 9.35409069e-01, 1.17293470e-01, 1.38937846e-01, 1.33253083e-01,
          7.20536634e-02, 1.08544134e-01 ]
      - [ 9.35409069e-01, 5.81557453e-02, 8.10989588e-02, 9.27672237e-02,
          6.05661832e-02, 8.02095309e-02 ]
      - [ 9.35409069e-01, -1.59788001e-02, 6.39539585e-03,
          3.91144268e-02, 2.78128237e-02, 4.56330441e-02 ]
      - [ 9.35409069e-01, 5.18385358e-02, 1.21042253e-02, 1.77652743e-02,
          6.26329258e-02, 4.57387604e-02 ]
      - [ 5.37049592e-01, 5.46938069e-02, 5.88461757e-02, 6.82489350e-02,
          6.18494637e-02, 6.32631183e-02 ]
      - [ 9.35409069e-01, 1.29517883e-01, 1.31419763e-01, 1.31419763e-01,
          1.29517883e-01, 1.27361685e-01 ]
      - [ 9.35409069e-01, 7.39572421e-02, -3.79272066e-02,
          -3.30091156e-02, 5.40464856e-02, 3.73651348e-02 ]
      - [ 9.35409069e-01, 6.72006682e-02, 5.10082580e-02, 4.81283814e-02,
          6.08444028e-02, 5.64797819e-02 ]
      - [ 9.35409069e-01, 5.38942963e-02, 6.23576939e-02, 6.62914142e-02,
          7.22005367e-02, 6.98677823e-02 ]
      - [ 9.35409069e-01, 5.77967726e-02, 7.27696344e-02, 7.44601265e-02,
          7.33318552e-02, 7.12277517e-02 ]
      - [ 5.37049592e-01, 9.85797867e-02, 1.39241531e-01, 1.77302316e-01,
          1.04253292e-01, 1.24710508e-01 ]
      - [ 9.35409069e-01, 6.55062422e-02, 7.45588541e-02, 6.80526718e-02,
          7.64756054e-02, 6.83790296e-02 ]
      - [ 5.37049592e-01, 8.01730901e-02, 9.55046937e-02, 1.03046797e-01,
          9.12216678e-02, 9.09120440e-02 ]
      - [ 9.35409069e-01, 7.43941516e-02, 7.96927363e-02, 8.21472630e-02,
          8.02561343e-02, 7.97546208e-02 ]
      - [ 5.37049592e-01, 7.73191527e-02, 6.70772493e-02, 7.54391924e-02,
          1.07289553e-01, 9.89718959e-02 ]
      - [ 5.37049592e-01, 4.01275605e-02, 1.74985752e-02, 3.53421308e-02,
          7.35681802e-02, 6.31054193e-02 ]
      - [ 9.35409069e-01, 7.70583078e-02, 6.18987121e-02, 6.86056465e-02,
          7.33449534e-02, 7.19733760e-02 ]
      - [ 9.35409069e-01, 1.59229904e-01, 1.44559503e-01, 1.50451928e-01,
          1.61802530e-01, 1.66107684e-01 ]
      - [ 5.37049592e-01, 1.71344116e-01, 1.64550632e-01, 1.63271591e-01,
          1.68994367e-01, 1.68508947e-01 ]
      - [ 5.37049592e-01, 8.83965660e-03, 1.14193618e-01, 1.14193618e-01,
          8.83965660e-03, 1.14193618e-01 ]
      - [ 9.35409069e-01, 8.57170746e-02, -2.77415812e-02,
          2.90282094e-03, 9.53374058e-02, 7.86279812e-02 ]
      - [ 5.37049592e-01, 1.38594255e-01, 1.90623432e-01, 1.79703578e-01,
          1.16201192e-01, 1.48717687e-01 ]
      - [ 5.37049592e-01, 1.42246008e-01, -2.65138894e-02,
          -2.65138894e-02, 1.42246008e-01, 1.42246008e-01 ]
      - [ 5.37049592e-01, 1.39305755e-01, 1.39305755e-01, 1.39305755e-01,
          1.39305755e-01, 1.39305755e-01 ]
      - [ 9.35409069e-01, 8.81328285e-02, 7.60499835e-02, 6.64290562e-02,
          7.55065009e-02, 7.49822408e-02 ]
      - [ 9.35409069e-01, 9.06323344e-02, 1.02364279e-01, 9.19420421e-02,
          9.04880613e-02, 8.08583722e-02 ]
      - [ 5.37049592e-01, 7.33731762e-02, 7.56484419e-02, 6.15370385e-02,
          5.36126606e-02, 5.48681915e-02 ]
      - [ 5.37049592e-01, 7.22359419e-02, 8.51561204e-02, 9.97820869e-02,
          9.76978317e-02, 9.72712263e-02 ]
      - [ 5.37049592e-01, 4.03591618e-02, 5.75268827e-02, 8.75426978e-02,
          8.28434452e-02, 8.14510584e-02 ]
      - [ 5.37049592e-01, 1.80443171e-02, 4.74598333e-02, 5.23379147e-02,
          2.96201520e-02, 3.46242003e-02 ]
      - [ 9.35409069e-01, 1.24016285e-01, 1.58810943e-01, 1.58810943e-01,
          1.24016285e-01, 1.28304124e-01 ]
      - [ 9.35409069e-01, 6.89432472e-02, 7.58006424e-02, 7.94121623e-02,
          7.76071474e-02, 7.76342824e-02 ]
      - [ 9.35409069e-01, 8.40148553e-02, 9.56630185e-02, 9.11014080e-02,
          8.53111446e-02, 8.12547281e-02 ]
      - [ 5.37049592e-01, 1.13013834e-01, 1.46121949e-01, 1.46121949e-01,
          1.13013834e-01, 1.21243894e-01 ]
      - [ 9.35409069e-01, 1.33781150e-01, 1.42349198e-01, 1.29652500e-01,
          1.04646526e-01, 1.16380170e-01 ]
      - [ 9.35409069e-01, 6.53251112e-02, 6.73406124e-02, 6.82479963e-02,
          6.48508891e-02, 6.80396706e-02 ]
      - [ 9.35409069e-01, 1.12302199e-01, 1.12726301e-01, 9.44285244e-02,
          5.48765361e-02, 5.54676391e-02 ]
      - [ 9.35409069e-01, 6.78213164e-02, 6.49516955e-02, 9.06722397e-02,
          8.61421973e-02, 9.21382681e-02 ]
      - [ 5.37049592e-01, 7.52065033e-02, 9.28228050e-02, 1.13971211e-01,
          8.99973512e-02, 9.64261889e-02 ]
      - [ 9.35409069e-01, 5.02506159e-02, 6.34802282e-02, 7.50564262e-02,
          6.33261651e-02, 6.38122931e-02 ]
      - [ 9.35409069e-01, 5.93932755e-02, 8.39397684e-02, 8.71172547e-02,
          6.79842830e-02, 6.61381856e-02 ]
      - [ 9.35409069e-01, 1.18272953e-01, 1.42271265e-01, 1.34414420e-01,
          1.06464408e-01, 8.87522548e-02 ]
      - [ 9.35409069e-01, 1.48516567e-02, -4.78863862e-04,
          3.63843478e-02, 6.28981963e-02, 5.90357669e-02 ]
      - [ 5.37049592e-01, 6.32564723e-02, 7.41250440e-02, 8.94772857e-02,
          9.10537019e-02, 8.84339511e-02 ]
      - [ 9.35409069e-01, 4.52475101e-02, 4.14645933e-02, 4.84460257e-02,
          6.40182421e-02, 5.54508641e-02 ]
      - [ 9.35409069e-01, 5.68968095e-02, 5.89147806e-02, 7.20153749e-02,
          5.93555085e-02, 6.14985712e-02 ]
      - [ 5.37049592e-01, 1.06143197e-02, 5.14953583e-02, 8.71262774e-02,
          4.75997925e-02, 4.99363430e-02 ]
      - [ 9.35409069e-01, 9.63215902e-02, 1.03166059e-01, 1.31396145e-01,
          1.15482591e-01, 1.20651029e-01 ]
      - [ 9.35409069e-01, 1.14379279e-01, 1.03262849e-01, 1.18887685e-01,
          1.15629122e-01, 1.14700653e-01 ]
      - [ 9.35409069e-01, 1.24017023e-01, 1.17206916e-01, 1.25793859e-01,
          1.18364081e-01, 1.15796797e-01 ]
      - [ 5.37049592e-01, 6.77387938e-02, 5.08176759e-02, 5.91896586e-02,
          6.16675802e-02, 5.83893657e-02 ]
      - [ 9.35409069e-01, 7.95187429e-02, 6.26731440e-02, 6.47821203e-02,
          6.93018660e-02, 6.15724623e-02 ]
      - [ 5.37049592e-01, 8.19917545e-02, 1.13649704e-01, 1.16821051e-01,
          8.14622268e-02, 9.08597633e-02 ]
      - [ 9.35409069e-01, 1.60826832e-01, 1.68615326e-01, 1.61378145e-01,
          1.54886439e-01, 1.64947733e-01 ]
      - [ 9.35409069e-01, 9.95477140e-02, 1.10520892e-01, 1.26803055e-01,
          1.14430621e-01, 1.14491478e-01 ]
      - [ 9.35409069e-01, 4.91435789e-02, 4.53423522e-02, 1.00012518e-01,
          1.07856475e-01, 1.06721081e-01 ]
      - [ 5.37049592e-01, 9.82132480e-02, 9.72583368e-02, 1.00786656e-01,
          9.40290689e-02, 9.98179466e-02 ]
      - [ 9.35409069e-01, 1.03466064e-01, 1.06986567e-01, 1.01176247e-01,
          9.03985500e-02, 9.34503600e-02 ]
      - [ 9.35409069e-01, 1.06756769e-01, 1.17681667e-01, 1.07093781e-01,
          9.47187990e-02, 8.81806165e-02 ]
      - [ 9.35409069e-01, 7.45391920e-02, 9.17787030e-02, 9.34208483e-02,
          6.79933429e-02, 7.32560158e-02 ]
      - [ 5.37049592e-01, 7.88378045e-02, 8.56710076e-02, 9.50009897e-02,
          7.84359202e-02, 8.47945511e-02 ]
      - [ 9.35409069e-01, 4.15586494e-02, 5.66942506e-02, 6.86198100e-02,
          5.39495200e-02, 5.93890101e-02 ]
      - [ 5.37049592e-01, 6.38187602e-02, -4.31566387e-02,
          -2.23476477e-02, 5.95357902e-02, 3.27740125e-02 ]
      - [ 9.35409069e-01, 4.24116291e-02, 2.86974777e-02, 3.31393182e-02,
          7.28963688e-02, 4.72151712e-02 ]
      - [ 5.37049592e-01, 6.30460829e-02, 5.03332540e-02, 4.89666723e-02,
          7.94512108e-02, 5.41223101e-02 ]
      - [ 9.35409069e-01, 4.61037979e-02, 5.85188158e-02, 6.77222461e-02,
          5.80126420e-02, 5.98097481e-02 ]
      - [ 5.37049592e-01, 5.62998615e-02, 8.30955580e-02, 9.05676782e-02,
          6.62668198e-02, 7.23282397e-02 ]
      - [ 5.37049592e-01, 1.50712118e-01, 1.22896940e-01, 1.22896940e-01,
          1.50712118e-01, 1.67234242e-01 ]
      - [ 5.37049592e-01, 6.86891973e-02, 6.67323172e-02, 8.11108798e-02,
          8.88622031e-02, 8.29041451e-02 ]
      - [ 9.35409069e-01, 6.58566207e-02, 8.81003067e-02, 9.67584699e-02,
          8.28136951e-02, 7.81293511e-02 ]
      - [ 9.35409069e-01, 6.11169860e-02, 5.59528843e-02, 6.55881539e-02,
          7.18026608e-02, 6.64642602e-02 ]
      - [ 5.37049592e-01, 1.45559907e-01, 9.99362692e-02, 1.40218213e-01,
          1.63117394e-01, 1.66480556e-01 ]
      - [ 9.35409069e-01, 6.82563558e-02, 6.10291101e-02, 8.28646049e-02,
          8.69611800e-02, 8.77684802e-02 ]
      - [ 9.35409069e-01, 3.72945704e-02, 9.40010883e-03, 3.05866124e-03,
          1.90955978e-02, 1.36706280e-02 ]
      - [ 5.37049592e-01, 7.54735470e-02, 8.53180215e-02, 8.42317566e-02,
          7.38485903e-02, 7.39433765e-02 ]
      - [ 5.37049592e-01, 1.10662587e-01, 1.03753895e-01, 1.04918271e-01,
          1.17525116e-01, 1.10372141e-01 ]
      - [ 5.37049592e-01, 3.94444540e-02, 1.01825833e-01, 1.07528389e-01,
          5.42953499e-02, 6.71762973e-02 ]
      - [ 9.35409069e-01, 6.27428889e-02, 6.78963214e-02, 6.87527433e-02,
          6.24101758e-02, 6.30784035e-02 ]
      - [ 9.35409069e-01, 1.01858854e-01, 9.19496790e-02, 8.99323672e-02,
          9.54000503e-02, 9.07101259e-02 ]
      - [ 9.35409069e-01, 1.15898207e-01, 1.14991419e-01, 1.04552940e-01,
          1.01429522e-01, 9.34678838e-02 ]
      - [ 9.35409069e-01, 1.06432535e-01, 1.09639294e-01, 1.12491392e-01,
          1.15634337e-01, 1.04453057e-01 ]
      - [ 9.35409069e-01, 1.15046546e-01, 1.21117443e-01, 1.19522825e-01,
          1.19565673e-01, 1.05462439e-01 ]
      - [ 5.37049592e-01, 1.34788930e-01, 1.38142511e-01, 1.38142511e-01,
          1.34788930e-01, 1.34788930e-01 ]
      - [ 5.37049592e-01, 4.40020002e-02, 5.03385179e-02, 7.04493076e-02,
          8.46493766e-02, 7.87196159e-02 ]
      - [ 9.35409069e-01, 5.80284558e-02, 3.89516577e-02, 3.96856219e-02,
          6.07852042e-02, 4.96553555e-02 ]
      - [ 9.35409069e-01, 7.45791243e-03, 8.15556478e-03, 2.02330761e-02,
          2.91464068e-02, 1.87708829e-02 ]
      - [ 9.35409069e-01, 4.19505611e-02, 7.45805725e-02, 7.04021603e-02,
          5.25845774e-02, 3.47995944e-02 ]
      - [ 9.35409069e-01, 6.15231358e-02, 1.08707577e-01, 9.56025347e-02,
          5.46559058e-02, 3.75564657e-02 ]
      - [ 9.35409069e-01, 7.27616400e-02, 1.28977343e-01, 1.11145839e-01,
          6.54106438e-02, 4.50351648e-02 ]
      - [ 9.35409069e-01, 9.35867205e-02, 1.00569770e-01, 9.11612734e-02,
          8.33504722e-02, 8.96776021e-02 ]
      - [ 5.37049592e-01, 8.11865255e-02, 7.65569806e-02, 9.50196385e-02,
          9.51376483e-02, 1.00818068e-01 ]
      - [ 9.35409069e-01, 8.38810876e-02, 8.62297863e-02, 9.68983248e-02,
          8.94977078e-02, 9.35948864e-02 ]
      - [ 5.37049592e-01, 5.40178865e-02, 6.49739504e-02, 6.88140690e-02,
          6.77423030e-02, 6.44777343e-02 ]
      - [ 9.35409069e-01, 9.38336477e-02, 1.16042942e-01, 1.34350181e-01,
          1.37476593e-01, 1.56632856e-01 ]
      - [ 5.37049592e-01, 6.22621626e-02, 7.48341158e-02, 6.97156340e-02,
          6.00959025e-02, 6.01731017e-02 ]
      - [ 9.35409069e-01, 7.88266584e-02, 3.68225537e-02, 6.63380101e-02,
          1.21387869e-01, 9.39832702e-02 ]
      - [ 5.37049592e-01, 1.10589504e-01, 7.84481019e-02, 7.26303533e-02,
          9.99523625e-02, 9.23819616e-02 ]
      - [ 5.37049592e-01, 8.32759291e-02, 1.00215130e-01, 1.19965047e-01,
          8.71248841e-02, 9.44850147e-02 ]
      - [ 9.35409069e-01, 7.88995028e-02, 1.07945144e-01, 1.07805558e-01,
          7.39478394e-02, 7.69780353e-02 ]
      - [ 9.35409069e-01, 1.47961974e-01, 1.47961974e-01, 1.47961974e-01,
          1.47961974e-01, 1.47961974e-01 ]
      - [ 9.35409069e-01, 8.83263424e-02, 7.82149360e-02, 9.58841220e-02,
          8.65130275e-02, 8.66972730e-02 ]
      - [ 5.37049592e-01, 1.15304478e-01, 1.31279603e-01, 1.23073302e-01,
          9.46629420e-02, 9.72065106e-02 ]
      - [ 9.35409069e-01, 7.79386982e-02, 9.63635370e-02, 9.57545266e-02,
          7.18665048e-02, 7.08761439e-02 ]
      - [ 9.35409069e-01, 8.96392614e-02, 1.15777172e-01, 1.13798626e-01,
          7.81395137e-02, 7.89010003e-02 ]
      - [ 9.35409069e-01, 1.01917930e-01, 1.23115391e-01, 1.14623815e-01,
          8.48747864e-02, 8.12121779e-02 ]
      - [ 5.37049592e-01, 6.76349327e-02, 6.72331601e-02, 8.64446610e-02,
          7.38596618e-02, 7.46379271e-02 ]
      - [ 9.35409069e-01, 5.29035144e-02, 5.51031046e-02, 6.76203221e-02,
          6.34375066e-02, 5.89520037e-02 ]
      - [ 5.37049592e-01, 8.58871043e-02, 1.01773962e-01, 1.02256656e-01,
          8.94930586e-02, 9.20974240e-02 ]
      - [ 9.35409069e-01, 9.47502106e-02, 9.46045071e-02, 1.06595412e-01,
          1.16669297e-01, 1.13522880e-01 ]
      - [ 9.35409069e-01, 6.51402473e-02, 7.79986680e-02, 8.70089158e-02,
          7.36149997e-02, 7.79790729e-02 ]
      - [ 9.35409069e-01, 7.52144083e-02, 9.17699933e-02, 9.29091275e-02,
          7.72241876e-02, 8.13370273e-02 ]
      - [ 9.35409069e-01, 5.17529808e-02, 5.51335141e-02, 6.44314215e-02,
          5.54658547e-02, 5.67658022e-02 ]
      - [ 9.35409069e-01, 6.31127208e-02, 7.67764747e-02, 7.60935321e-02,
          6.10351935e-02, 5.92744127e-02 ]
      - [ 9.35409069e-01, 7.40887076e-02, 9.88022462e-02, 9.00085047e-02,
          6.78235218e-02, 6.32464290e-02 ]
      - [ 5.37049592e-01, 1.01442926e-01, 1.01442926e-01, 9.51880813e-02,
          9.23160091e-02, 8.75176117e-02 ]
      - [ 9.35409069e-01, 1.71588019e-01, 1.35935351e-01, 1.34616330e-01,
          1.43934444e-01, 1.54160336e-01 ]
      - [ 5.37049592e-01, 1.15818977e-01, 1.03597432e-01, 9.00100619e-02,
          1.15818977e-01, 1.04568414e-01 ]
      - [ 9.35409069e-01, 5.54858372e-02, 8.11118782e-02, 1.14165403e-01,
          1.02378964e-01, 1.04586974e-01 ]
      - [ 9.35409069e-01, 3.67307886e-02, 4.13800180e-02, 7.21695796e-02,
          6.33399934e-02, 6.83331862e-02 ]
      - [ 9.35409069e-01, 1.36705697e-01, 1.36705697e-01, 1.36705697e-01,
          1.36705697e-01, 1.36705697e-01 ]
      - [ 9.35409069e-01, 1.22779675e-01, 1.33037448e-01, 1.25507534e-01,
          1.25004783e-01, 1.31519377e-01 ]
      - [ 5.37049592e-01, 6.08232729e-02, 6.61525652e-02, 7.44814649e-02,
          7.64216110e-02, 7.14795664e-02 ]
      - [ 5.37049592e-01, 1.00083053e-01, 6.57404736e-02, 7.08680227e-02,
          8.45977068e-02, 7.96768144e-02 ]
      - [ 9.35409069e-01, 5.84357493e-02, 1.14139751e-01, 1.26598969e-01,
          8.85641128e-02, 1.01742044e-01 ]
      - [ 5.37049592e-01, 4.07399908e-02, 8.36784951e-03, 2.59840619e-02,
          6.42760992e-02, 5.12068607e-02 ]
      - [ 9.35409069e-01, 5.06312624e-02, 4.69839461e-02, 5.16864918e-02,
          5.15769236e-02, 4.68724892e-02 ]
      - [ 9.35409069e-01, 6.68057054e-02, 5.05800918e-02, 7.91778564e-02,
          8.28769058e-02, 7.81095922e-02 ]
      - [ 9.35409069e-01, 6.60369024e-02, 1.34243399e-01, 1.49441659e-01,
          9.90992039e-02, 1.12196371e-01 ]
      - [ 9.35409069e-01, 4.21331450e-02, 6.51582479e-02, 7.63334408e-02,
          6.64712340e-02, 7.06841871e-02 ]
      - [ 5.37049592e-01, 9.33853462e-02, 9.79826376e-02, 1.17892765e-01,
          1.31024286e-01, 1.20422296e-01 ]
      - [ 9.35409069e-01, -2.82383543e-02, 2.79035661e-02,
          5.13951071e-02, 1.09142279e-02, 1.03077972e-02 ]
      - [ 9.35409069e-01, 5.63126542e-02, 6.83878884e-02, 7.35750496e-02,
          5.56326136e-02, 6.36368841e-02 ]
      - [ 9.35409069e-01, 7.44360685e-02, 1.40891060e-01, 1.63077965e-01,
          1.43146560e-01, 1.65190011e-01 ]
      - [ 5.37049592e-01, 9.96679962e-02, 9.96679962e-02, 9.96679962e-02,
          9.96679962e-02, 9.96679962e-02 ]
      - [ 9.35409069e-01, 7.41177872e-02, 1.32646412e-01, 1.32646412e-01,
          7.41177872e-02, 7.52169341e-02 ]
      - [ 9.35409069e-01, 2.95094140e-02, 4.52020355e-02, 7.48047456e-02,
          4.92625199e-02, 7.07588345e-02 ]
      - [ 9.35409069e-01, 2.54451837e-02, 3.91188674e-02, 6.55953512e-02,
          4.11847234e-02, 6.18929826e-02 ]
      - [ 9.35409069e-01, 3.74301225e-02, 4.68543768e-02, 7.32722804e-02,
          4.92287315e-02, 6.73147291e-02 ]
      - [ 9.35409069e-01, 1.10080197e-01, 1.10080197e-01, 1.10080197e-01,
          1.10080197e-01, 1.10080197e-01 ]
      - [ 9.35409069e-01, 7.20845684e-02, 8.03516135e-02, 8.03516135e-02,
          5.74990176e-02, 9.11735222e-02 ]
      - [ 9.35409069e-01, 1.04728252e-01, 8.51624086e-02, 8.51624086e-02,
          6.01480231e-02, 1.05406746e-01 ]
      - [ 9.35409069e-01, 1.20584108e-01, 7.21789300e-02, 9.42460597e-02,
          9.01306123e-02, 1.20217107e-01 ]
      - [ 9.35409069e-01, 4.69482504e-03, -1.61952656e-02,
          3.47673334e-02, 6.70730397e-02, 6.50244951e-02 ]
      - [ 9.35409069e-01, -5.84960403e-03, -3.19924876e-02,
          8.71339254e-03, 4.76139411e-02, 4.39349934e-02 ]
      - [ 9.35409069e-01, 7.33456155e-03, -2.24886630e-02,
          1.52737219e-02, 5.00936732e-02, 4.80501391e-02 ]
      - [ 9.35409069e-01, 0., 0., 0., 0., 0. ]
      - [ 9.35409069e-01, 9.60225463e-02, 6.09059334e-02, 6.09059334e-02,
          6.09059334e-02, 9.60225463e-02 ]
      - [ 9.35409069e-01, 1.67652830e-01, 1.33867472e-01, 1.33867472e-01,
          1.48759604e-01, 1.85501784e-01 ]
      - [ 9.35409069e-01, 1.22735873e-01, 1.16182454e-01, 1.37412772e-01,
          1.61831975e-01, 1.58262268e-01 ]
      - [ 9.35409069e-01, 1.01738699e-01, 1.39079079e-01, 1.54470086e-01,
          1.24381840e-01, 1.39651597e-01 ]
      - [ 9.35409069e-01, 5.73393144e-02, 4.39429432e-02, 7.22669065e-02,
          9.00271833e-02, 9.24827307e-02 ]
      - [ 9.35409069e-01, 5.09137139e-02, 3.41335721e-02, 5.47088012e-02,
          6.29588142e-02, 6.88879788e-02 ]
      - [ 5.37049592e-01, 3.26267369e-02, 1.30033996e-02, 3.63699459e-02,
          5.70822619e-02, 5.45650534e-02 ]
      - [ 9.35409069e-01, 1.10080197e-01, 1.10080197e-01, 1.10080197e-01,
          1.10080197e-01, 1.10080197e-01 ]
      - [ 9.35409069e-01, 1.13180071e-01, 1.13180071e-01, 1.13180071e-01,
          1.13180071e-01, 1.13180071e-01 ]
      - [ 9.35409069e-01, 5.33828996e-02, 1.98852047e-02, 3.99068259e-02,
          7.56012946e-02, 9.96513963e-02 ]
      - [ 9.35409069e-01, 3.39193456e-02, 2.66908780e-02, 8.86446163e-02,
          1.01087548e-01, 1.20058209e-01 ]
      - [ 9.35409069e-01, 1.07062690e-01, 7.77130648e-02, 1.20017357e-01,
          1.19343810e-01, 1.28942132e-01 ]
      - [ 5.37049592e-01, 3.77786271e-02, 4.20060083e-02, 5.30627556e-02,
          5.30142002e-02, 5.04536033e-02 ]
      - [ 5.37049592e-01, 1.55078202e-01, 1.67887032e-01, 1.67887032e-01,
          1.55078202e-01, 1.64179072e-01 ]
      - [ 9.35409069e-01, 1.33343041e-01, 1.51678547e-01, 1.43486574e-01,
          1.19934887e-01, 1.30354717e-01 ]
      - [ 9.35409069e-01, 1.83099046e-01, 1.15557730e-01, 1.71069607e-01,
          2.06563815e-01, 2.11791366e-01 ]
      - [ 9.35409069e-01, 1.64440483e-01, 1.37338713e-01, 1.69818327e-01,
          1.70032367e-01, 1.76807597e-01 ]
      - [ 9.35409069e-01, 1.70223698e-01, 1.47725627e-01, 1.77222520e-01,
          1.72689974e-01, 1.78299785e-01 ]
      - [ 9.35409069e-01, 1.78625286e-01, 1.54166326e-01, 1.80495262e-01,
          1.75461024e-01, 1.80511206e-01 ]
      - [ 9.35409069e-01, 1.84458390e-01, 1.62886724e-01, 1.91036433e-01,
          1.75382167e-01, 1.83252543e-01 ]
      - [ 9.35409069e-01, 1.87708452e-01, 1.67751774e-01, 1.96785584e-01,
          1.76478669e-01, 1.85775131e-01 ]
      - [ 9.35409069e-01, 1.94854334e-01, 1.74342990e-01, 2.00894102e-01,
          1.77721649e-01, 1.88063279e-01 ]
      - [ 9.35409069e-01, 1.82778046e-01, 1.67085081e-01, 1.82148933e-01,
          1.69346064e-01, 1.77457646e-01 ]
      - [ 9.35409069e-01, 1.84920430e-01, 1.69756219e-01, 1.85700312e-01,
          1.69594273e-01, 1.79081962e-01 ]
      - [ 5.37049592e-01, 1.88604489e-01, 1.79146618e-01, 1.91364214e-01,
          1.74166113e-01, 1.80658504e-01 ]
      - [ 9.35409069e-01, 1.32234722e-01, 1.40977204e-01, 1.39795497e-01,
          1.21379778e-01, 1.23831764e-01 ]
      - [ 5.37049592e-01, 2.61164177e-03, 1.22702653e-02, 3.03517766e-02,
          1.13354474e-02, 1.77811310e-02 ]
      - [ 9.35409069e-01, 0., 0., 0., 0., 0. ]
      - [ 9.35409069e-01, 9.15002376e-02, 1.45957455e-01, 1.45957455e-01,
          9.15002376e-02, 9.15002376e-02 ]
      - [ 9.35409069e-01, 1.03816904e-01, 1.40186220e-01, 1.63625106e-01,
          1.57091886e-01, 1.72872886e-01 ]
      - [ 9.35409069e-01, 1.28125429e-01, 1.66266575e-01, 1.66849554e-01,
          1.61326170e-01, 1.79445744e-01 ]
      - [ 5.37049592e-01, 6.70622140e-02, 6.23311028e-02, 7.70138428e-02,
          7.38114864e-02, 8.07828158e-02 ]
      - [ 9.35409069e-01, 5.13935238e-02, 2.96498630e-02, 4.25815694e-02,
          5.67684881e-02, 5.67505807e-02 ]
      - [ 9.35409069e-01, 5.93865067e-02, 4.49839160e-02, 5.48275448e-02,
          6.04859293e-02, 5.98415025e-02 ]
      - [ 9.35409069e-01, 6.31179959e-02, 5.01112193e-02, 5.83781861e-02,
          6.16221465e-02, 6.02013208e-02 ]
      - [ 9.35409069e-01, 0., 0., 0., 0., 0. ]
      - [ 9.35409069e-01, 1.00353941e-01, 1.11961186e-01, 1.06805958e-01,
          9.04398784e-02, 8.45932886e-02 ]
      - [ 5.37049592e-01, 8.22579414e-02, 9.17027518e-02, 8.76418576e-02,
          7.69594759e-02, 6.99389353e-02 ]
      - [ 9.35409069e-01, 0., 0., 0., 0., 0. ]
      - [ 9.35409069e-01, 1.40486032e-01, 1.40486032e-01, 1.40486032e-01,
          1.40486032e-01, 1.40486032e-01 ]
      - [ 9.35409069e-01, 1.04444794e-01, 1.04444794e-01, 1.04444794e-01,
          1.04444794e-01, 1.04444794e-01 ]
      - [ 9.35409069e-01, 1.24880277e-01, 9.76340547e-02, 1.13091491e-01,
          1.24880277e-01, 1.60324782e-01 ]
      - [ 9.35409069e-01, 1.31110758e-01, 1.10733598e-01, 1.23907834e-01,
          1.43442780e-01, 1.66617930e-01 ]
      - [ 9.35409069e-01, 1.16153494e-01, 1.20033406e-01, 1.29843503e-01,
          1.31234735e-01, 1.38778627e-01 ]
      - [ 5.37049592e-01, 1.18407995e-01, 1.47044048e-01, 1.15442403e-01,
          9.27126706e-02, 7.02002943e-02 ]
      - [ 9.35409069e-01, 1.11856207e-01, 1.34170249e-01, 1.45989850e-01,
          1.16449855e-01, 1.24613062e-01 ]
      - [ 9.35409069e-01, 6.38951436e-02, 7.88085312e-02, 7.71455243e-02,
          6.00331686e-02, 6.19439818e-02 ]
      - [ 5.37049592e-01, 1.52368888e-01, 1.38575643e-01, 1.15272269e-01,
          1.27412811e-01, 1.22556940e-01 ]
      - [ 9.35409069e-01, 1.19436175e-01, 1.18142985e-01, 1.05570279e-01,
          1.08737484e-01, 8.97465721e-02 ]
      - [ 9.35409069e-01, 1.28373519e-01, 1.20933361e-01, 1.11283228e-01,
          1.15163654e-01, 9.19862315e-02 ]
      - [ 5.37049592e-01, 1.41313985e-01, 1.33099720e-01, 1.21705711e-01,
          1.28385440e-01, 9.62231532e-02 ]
      - [ 5.37049592e-01, 1.43482760e-01, 1.42507374e-01, 1.30113870e-01,
          1.31780490e-01, 9.81655940e-02 ]
      - [ 9.35409069e-01, 1.40486032e-01, 1.40486032e-01, 1.40486032e-01,
          1.10080197e-01, 1.10080197e-01 ]
      - [ 9.35409069e-01, 1.03025138e-01, 1.28181532e-01, 1.27299011e-01,
          1.08635560e-01, 1.08565122e-01 ]
      - [ 9.35409069e-01, 1.01689294e-01, 1.08955763e-01, 9.63281393e-02,
          8.34626481e-02, 9.59266350e-02 ]
      - [ 9.35409069e-01, 1.08454496e-01, 1.11524358e-01, 1.03094384e-01,
          9.39374194e-02, 1.00940742e-01 ]
      - [ 9.35409069e-01, 9.85010117e-02, 9.71091762e-02, 1.01552062e-01,
          9.32989493e-02, 9.65074226e-02 ]
      - [ 5.37049592e-01, 1.03243798e-01, 1.48840234e-01, 1.53402939e-01,
          1.04148455e-01, 1.08627267e-01 ]
      - [ 5.37049592e-01, 1.97375327e-01, 0., 0., 1.97375327e-01,
          1.97375327e-01 ]
      - [ 5.37049592e-01, 4.98964973e-02, 7.31725544e-02, 7.28812292e-02,
          4.83471155e-02, 5.84047139e-02 ]
      - [ 5.37049592e-01, 1.42399713e-01, 1.03991508e-01, 1.09564945e-01,
          1.60387769e-01, 1.47383392e-01 ]
      - [ 9.35409069e-01, 1.27486795e-01, 1.03976034e-01, 1.06012553e-01,
          1.35407686e-01, 1.27142608e-01 ]
      - [ 9.35409069e-01, 1.50431544e-01, 1.42001718e-01, 1.44360870e-01,
          1.43237904e-01, 1.41788751e-01 ]
      - [ 9.35409069e-01, 1.59757450e-01, 1.52684629e-01, 1.50894552e-01,
          1.45796061e-01, 1.43981591e-01 ]
      - [ 5.37049592e-01, 5.91068603e-02, 5.51272035e-02, 8.08534548e-02,
          1.01490028e-01, 9.22342464e-02 ]
      - [ 5.37049592e-01, 7.92091414e-02, 9.82683524e-02, 9.69227552e-02,
          8.30307752e-02, 8.62538293e-02 ]
      - [ 9.35409069e-01, 8.15022141e-02, 8.54275227e-02, 9.07028168e-02,
          8.73625502e-02, 8.75754729e-02 ]
      - [ 5.37049592e-01, 1.10525087e-01, 3.92531976e-02, 6.53765425e-02,
          1.38567507e-01, 1.20806001e-01 ]
      - [ 9.35409069e-01, 7.01430067e-02, 1.00519300e-01, 1.08634003e-01,
          8.26857537e-02, 8.86181742e-02 ]
      - [ 9.35409069e-01, 7.87661672e-02, 1.15745090e-01, 1.19009204e-01,
          8.77277702e-02, 8.96180123e-02 ]
      - [ 5.37049592e-01, 5.50970286e-02, 8.50471854e-02, 8.27313364e-02,
          5.68928644e-02, 6.24269582e-02 ]
      - [ 9.35409069e-01, 6.52487427e-02, 9.41556618e-02, 9.13456306e-02,
          6.72294423e-02, 6.91456124e-02 ]
      - [ 9.35409069e-01, 8.85393322e-02, 1.13836505e-01, 1.03560053e-01,
          8.03310499e-02, 7.68440142e-02 ]
      - [ 9.35409069e-01, 5.12098037e-02, 6.08877242e-02, 7.07276091e-02,
          7.09212273e-02, 6.87105507e-02 ]
      - [ 5.37049592e-01, 4.03773077e-02, 4.96494211e-02, 6.65362552e-02,
          6.18988164e-02, 6.04543313e-02 ]
      - [ 5.37049592e-01, 1.35488525e-01, 1.20825492e-01, 8.99407342e-02,
          8.74826983e-02, 8.38472843e-02 ]
      - [ 9.35409069e-01, 9.68303159e-02, 1.01393603e-01, 8.83609280e-02,
          7.82522038e-02, 7.54330307e-02 ]
      - [ 9.35409069e-01, 2.82442737e-02, 1.63831040e-02,
          -5.34343300e-03, 3.48342280e-03, -1.84274279e-03 ]
      - [ 9.35409069e-01, 1.31565213e-01, 1.12472706e-01, 1.02433689e-01,
          1.42038763e-01, 1.27874747e-01 ]
      - [ 9.35409069e-01, 9.49870422e-02, 1.29461765e-01, 1.28879756e-01,
          1.05168335e-01, 1.14744656e-01 ]
      - [ 5.37049592e-01, 1.10296167e-01, 7.42480308e-02, 7.97951743e-02,
          1.04449652e-01, 8.12388584e-02 ]
      - [ 9.35409069e-01, 1.16784237e-01, 1.33687615e-01, 1.20261580e-01,
          9.49525610e-02, 1.01154089e-01 ]
      - [ 9.35409069e-01, 1.42962024e-01, 1.54140338e-01, 1.38422891e-01,
          1.27483964e-01, 1.28468901e-01 ]
      - [ 5.37049592e-01, 1.54321209e-01, 1.61427647e-01, 1.42474562e-01,
          1.34220734e-01, 1.31783888e-01 ]
      - [ 9.35409069e-01, 1.38355955e-01, 1.33854121e-01, 1.18163519e-01,
          1.15854293e-01, 1.10546306e-01 ]
      - [ 9.35409069e-01, 1.08129956e-01, 1.26012072e-01, 1.16566837e-01,
          9.43774134e-02, 9.62044895e-02 ]
      - [ 9.35409069e-01, 4.42193151e-02, 6.83974102e-02, 8.51665586e-02,
          5.45565225e-02, 7.30172768e-02 ]
      - [ 5.37049592e-01, 1.96311772e-01, 2.58687437e-01, 2.58687437e-01,
          2.03413442e-01, 2.29878828e-01 ]
      - [ 5.37049592e-01, 1.80786669e-01, 2.34220371e-01, 2.34220371e-01,
          1.86981827e-01, 2.09595650e-01 ]
      - [ 9.35409069e-01, 1.19214602e-01, 1.19214602e-01, 1.08343586e-01,
          6.97490498e-02, 7.31434301e-02 ]
      - [ 9.35409069e-01, 1.36816218e-01, 1.52233183e-01, 1.54623449e-01,
          1.38020784e-01, 1.54163778e-01 ]
      - [ 9.35409069e-01, 7.27935210e-02, 7.23659247e-02, 6.98768869e-02,
          7.40566775e-02, 7.76723847e-02 ]
      - [ 9.35409069e-01, 7.77716041e-02, 8.35475996e-02, 7.84557238e-02,
          7.98569694e-02, 8.04342553e-02 ]
      - [ 5.37049592e-01, 8.50726590e-02, 1.33762360e-01, 1.46748841e-01,
          1.16743259e-01, 1.33316398e-01 ]
      - [ 9.35409069e-01, 9.65422094e-02, 1.08932875e-01, 1.18285388e-01,
          1.22427657e-01, 1.19895071e-01 ]
      - [ 9.35409069e-01, 6.14008233e-02, 6.15527667e-02, 5.95504865e-02,
          6.85690418e-02, 6.41612038e-02 ]
      - [ 9.35409069e-01, 5.57656996e-02, 7.40985721e-02, 7.15943649e-02,
          5.96835986e-02, 6.17392920e-02 ]
      - [ 9.35409069e-01, 6.83396906e-02, 9.09908563e-02, 8.17880407e-02,
          6.61218688e-02, 6.49589375e-02 ]
      - [ 9.35409069e-01, 7.70251900e-02, 1.02873914e-01, 8.87759030e-02,
          7.03062490e-02, 6.67565614e-02 ]
      - [ 9.35409069e-01, 8.55653435e-02, 1.14480764e-01, 9.56331939e-02,
          7.44301975e-02, 6.85311630e-02 ]
      - [ 5.37049592e-01, 4.82891835e-02, 5.23652136e-02, 6.63834065e-02,
          6.47180527e-02, 6.36544153e-02 ]
      - [ 9.35409069e-01, 7.13253543e-02, 6.29036203e-02, 7.13674054e-02,
          6.91298991e-02, 7.05279484e-02 ]
      - [ 5.37049592e-01, 6.36639148e-02, 1.42448068e-01, 1.42448068e-01,
          6.36639148e-02, 8.23674947e-02 ]
      - [ 9.35409069e-01, 1.28353322e-02, 1.03739928e-02, 8.35659727e-03,
          4.19864524e-03, 4.20178054e-03 ]
      - [ 9.35409069e-01, 8.79192054e-02, 7.58662596e-02, 8.14922303e-02,
          1.21018320e-01, 1.08427405e-01 ]
      - [ 5.37049592e-01, 9.24903005e-02, 8.14668015e-02, 8.17380175e-02,
          1.09700441e-01, 9.59917009e-02 ]
      - [ 9.35409069e-01, 1.07821792e-01, 1.04687937e-01, 9.85622182e-02,
          1.17653802e-01, 1.00067906e-01 ]
      - [ 5.37049592e-01, 0., 1.10080197e-01, 1.10080197e-01, 0.,
          1.10080197e-01 ]
      - [ 9.35409069e-01, 8.82604793e-02, 1.04219809e-01, 1.26206577e-01,
          7.08681047e-02, 8.01065862e-02 ]
      - [ 5.37049592e-01, 1.41757667e-01, 1.10984251e-01, 1.34252995e-01,
          1.42900810e-01, 1.38589725e-01 ]
      - [ 9.35409069e-01, 6.64910600e-02, 6.72935098e-02, 6.74998164e-02,
          6.43895492e-02, 6.28888756e-02 ]
      - [ 5.37049592e-01, 6.56887665e-02, 8.11097175e-02, 1.20374404e-01,
          1.27323955e-01, 1.34981751e-01 ]
      - [ 9.35409069e-01, 1.35657400e-01, 1.20396875e-01, 1.20396875e-01,
          1.35657400e-01, 1.20396875e-01 ]
      - [ 9.35409069e-01, 1.70483008e-01, 1.46157503e-01, 1.46157503e-01,
          1.70483008e-01, 1.46157503e-01 ]
      - [ 9.35409069e-01, 1.78874314e-01, 1.56150907e-01, 1.56150907e-01,
          1.78874314e-01, 1.56150907e-01 ]
      - [ 5.37049592e-01, 4.81707230e-02, 1.78862608e-03, 3.06493621e-02,
          7.65812770e-02, 8.22467431e-02 ]
      - [ 9.35409069e-01, 5.07396683e-02, 5.37956990e-02, 6.00893721e-02,
          5.78839146e-02, 5.67305125e-02 ]
      - [ 9.35409069e-01, 5.96046411e-02, 7.49410093e-02, 7.75025785e-02,
          6.34579211e-02, 6.05052188e-02 ]
      - [ 9.35409069e-01, 5.52565977e-02, 7.93962479e-02, 8.26836899e-02,
          5.44341244e-02, 5.33956662e-02 ]
      - [ 9.35409069e-01, 5.68526760e-02, 8.90963525e-02, 8.88784528e-02,
          5.55010848e-02, 5.25596701e-02 ]
      - [ 9.35409069e-01, 4.77040447e-02, 8.18813443e-02, 8.25836882e-02,
          4.16785814e-02, 3.95088010e-02 ]
      - [ 9.35409069e-01, 5.04359156e-02, 8.51976126e-02, 8.34121853e-02,
          4.61066216e-02, 4.02347222e-02 ]
      - [ 9.35409069e-01, 5.48915416e-02, 9.29438993e-02, 9.53079313e-02,
          4.91952971e-02, 4.44425829e-02 ]
      - [ 9.35409069e-01, 5.92810661e-02, 1.00502878e-01, 1.00929372e-01,
          5.61939478e-02, 4.85898703e-02 ]
      - [ 9.35409069e-01, 6.82651699e-02, 1.14896618e-01, 1.12307012e-01,
          6.30755424e-02, 5.26755452e-02 ]
      - [ 9.35409069e-01, 7.63279274e-02, 1.15452580e-01, 1.15064397e-01,
          7.10794032e-02, 5.79388700e-02 ]
      - [ 9.35409069e-01, 7.99673423e-02, 1.22786656e-01, 1.27161637e-01,
          7.33789727e-02, 6.45996034e-02 ]
      - [ 9.35409069e-01, 8.33734050e-02, 1.28414124e-01, 1.31079033e-01,
          7.97163174e-02, 6.83440790e-02 ]
      - [ 9.35409069e-01, 8.49687308e-02, 1.33975968e-01, 1.40978336e-01,
          7.97360167e-02, 7.11221397e-02 ]
      - [ 9.35409069e-01, 8.78904089e-02, 1.38655454e-01, 1.43988252e-01,
          8.59063491e-02, 7.47449845e-02 ]
      - [ 9.35409069e-01, 9.42663029e-02, 1.19914301e-01, 1.24179155e-01,
          8.68601128e-02, 7.70616978e-02 ]
      - [ 9.35409069e-01, 9.38530713e-02, 1.29474163e-01, 1.30889848e-01,
          8.89759958e-02, 8.03454369e-02 ]
      - [ 9.35409069e-01, 1.06809661e-01, 1.49993837e-01, 1.57659635e-01,
          1.04254752e-01, 9.46641117e-02 ]
      - [ 9.35409069e-01, 1.15167648e-01, 1.61584198e-01, 1.65594935e-01,
          1.14150703e-01, 1.00455500e-01 ]
      - [ 9.35409069e-01, 1.13028400e-01, 1.58762768e-01, 1.65626079e-01,
          1.11304715e-01, 1.01661459e-01 ]
      - [ 9.35409069e-01, 1.14541404e-01, 1.60829097e-01, 1.66508228e-01,
          1.15932532e-01, 1.04358576e-01 ]
      - [ 9.35409069e-01, 1.11325383e-01, 1.55977175e-01, 1.65310770e-01,
          1.11728452e-01, 1.04549840e-01 ]
      - [ 9.35409069e-01, 1.12677753e-01, 1.57792374e-01, 1.65957436e-01,
          1.16202570e-01, 1.07131265e-01 ]
      - [ 9.35409069e-01, 0., 0., 0., 0., 0. ]
      - [ 9.35409069e-01, 9.96679962e-02, 9.96679962e-02, 9.96679962e-02,
          9.96679962e-02, 9.96679962e-02 ]
      - [ 9.35409069e-01, 7.57816210e-02, 7.57816210e-02, 1.13180071e-01,
          7.57816210e-02, 1.13180071e-01 ]
      - [ 9.35409069e-01, 6.68274686e-02, 6.68274686e-02, 8.36622566e-02,
          1.07253842e-01, 1.14193618e-01 ]
      - [ 9.35409069e-01, 5.01625501e-02, 5.01625501e-02, 1.03450902e-01,
          7.57041425e-02, 1.14426114e-01 ]
      - [ 9.35409069e-01, 4.40160930e-02, 4.40160930e-02, 7.68590495e-02,
          1.05957001e-01, 1.14326008e-01 ]
      - [ 9.35409069e-01, 7.44684488e-02, 1.11636184e-01, 1.09042607e-01,
          5.68333417e-02, 8.92393216e-02 ]
      - [ 9.35409069e-01, 7.26881400e-02, 1.02025650e-01, 9.62352231e-02,
          8.12833011e-02, 9.76025984e-02 ]
      - [ 9.35409069e-01, 8.54058191e-02, 7.26773813e-02, 6.61458075e-02,
          6.30348697e-02, 7.90805370e-02 ]
      - [ 9.35409069e-01, 8.44776332e-02, 7.23151639e-02, 6.38553724e-02,
          7.95941651e-02, 8.63964483e-02 ]
      - [ 9.35409069e-01, 6.47770688e-02, 1.48128159e-02, 3.23206820e-02,
          7.46453181e-02, 8.49957466e-02 ]
      - [ 9.35409069e-01, 8.06713253e-02, 3.87159847e-02, 5.01348861e-02,
          9.72289070e-02, 9.57334489e-02 ]
      - [ 5.37049592e-01, 5.86956032e-02, 3.75889130e-02, 4.87029888e-02,
          8.26144665e-02, 8.66465643e-02 ]
      - [ 5.37049592e-01, 0., 0., 0., 0., 0. ]
      - [ 9.35409069e-01, 8.40240121e-02, 1.04177304e-01, 1.26904920e-01,
          1.20462172e-01, 1.26667649e-01 ]
      - [ 9.35409069e-01, 6.26018941e-02, 4.14673388e-02, 5.10515645e-02,
          7.42413849e-02, 6.42871782e-02 ]
